siswi -0.093088225 -0.006536046 -0.045933936 -0.044188574 -0.02460382 -0.02599223 0.032849893 -0.026755262 0.06928375 -0.050190914 -0.13862115 -0.0608696 -0.02365736 -0.022433776 -0.0044423505 -0.0038788214 0.07838531 0.05465598 0.037177157 0.09090165 -0.046617188 -0.069855146 0.094635144 0.00010319424 -0.037654586 0.10072826 0.022743842 -0.03943591 0.0060844324 -0.033862025 -0.025970591 -0.111993864 -0.09490115 -0.06892093 -0.08564875 -0.022348808 -0.02664041 -0.017519275 -0.023679798 0.042231884 0.025319768 0.009968997 -0.020088723 -0.06762321 -0.004114887 0.0101954425 -0.007405491 0.1030386 0.029791443 0.13823415 -0.053279333 -0.059421267 0.066690266 -0.0072283847 -0.009595696 0.021491546 0.037207115 -0.10302726 0.016010344 0.015267996 -0.03514599 -0.11783653 0.016782954 0.06291769 -0.059063245 -0.047272574 -0.10470421 -0.032048047 -0.051987827 0.115218654 -0.017105853 0.10207516 0.04949532 0.043959536 -0.011177985 -0.04824101 -0.06498331 0.04676067 0.01840266 0.087312445 0.002495131 -0.013893462 -0.058195703 -0.03387956 -0.009383781 0.053167503 -0.057431996 -0.060651597 -0.00963354 -0.064475685 0.009671269 -0.0009289709 -0.046514086 0.057406843 -0.0027515546 -0.08904512 0.058835324 -0.06720894 -0.021628136 -0.033825118 0.08464488 -0.080805704 0.018032387 -0.052185263 -0.009937937 -0.049125597 0.0027689415 -0.1291139 -0.049187046 -0.0055612493 0.026842542 0.0021061534 -0.10966485 0.010650197 0.06809736 -0.012727022 0.08560774 0.02314668 0.066491775 -0.045292668 -0.043116126 0.037641 -0.018596089 0.002234745 0.043613 0.089889415 0.05526457 -0.03937917 0.081910074 0.040022723 -0.06831971 -0.0007145579 -0.06995689 -0.043430384 0.035763033 -0.043025054 0.00041371188 0.031643912 0.033752095 -0.026430197 -0.014458485 0.0364334 -0.044347256 0.0046079163 -0.1315105 0.10060187 -0.009119724 0.079005204 0.07434642 -0.08065739 -0.031902503 -0.014183906 -0.018221708 -0.020662384 -0.06420525 0.012681489 0.08486272 -0.14352952 -0.014295694 -0.08250534 0.009495561 0.02517103 0.03311917 0.18117183 -0.030311346 0.017127633 0.010843776 -0.045161165 0.013900819 0.12073565 -0.031682644 -0.12065612 -0.050713945 -0.09251851 -0.007105587 0.006770741 -0.048315756 -0.057726707 0.017545719 -0.021541778 0.026234193 -0.049118035 -0.03517245 0.015283732 0.062334705 -0.084644176 0.04375153 0.03343775 -0.074282356 0.086471245 -0.020345405 -0.0045998483 -0.09021578 0.074895285 0.04400755 -0.078073055 -0.0904871 0.08281479 -0.07191874 0.010432663 0.082577124 0.07386065 -0.086252876 -0.06566517 -0.14336132 0.038916245 -0.059843626 0.028738309 0.0661692 -0.087980255 -0.038427047 0.034941483 0.035189725 0.04098 -0.046250243 -0.0671848 0.027989345 -0.08694799 0.08396742 0.09280405 0.07354235 -0.019430697 0.026697207 -0.051726386 -0.04790136 -0.050324466 -0.103029616 -0.084186606 0.037058093 0.034418877 0.062611446 0.016872752 -0.017732246 0.014232753 0.03946864 -0.07317556 -0.033436686 -0.05111732 0.050357945 0.02681194 -0.093081966 -0.04145335 0.0342648 -0.06747379 0.106388696 0.024608692 0.08861258 -0.0047548786 -0.016255612 0.006404055 0.027040249 -0.050576046 0.03940497 0.031755652 0.10062738 0.058395565 0.025430555 -0.05247911 -0.0050421087 0.03871437 -0.028766086 -0.046953026 -0.030503385 -0.0033191901 -0.054331664 0.034120273 0.014570713 0.070823744 -0.14749096 0.021912854 -0.011187635 -0.028895563 0.0044339807 0.024685439 -0.011448029 -0.018577583 -0.018575445 0.053479888 0.035867862 -0.07604317 0.040679235 -0.013456389 0.0062781116 0.030117514 0.019482005 0.041385528 -0.015812108 0.04638983 -0.06680552 0.06294198 0.003168803 -0.10596591 -0.07082864 0.0622649 -0.03826943 0.052865766 -0.097513884 0.01432211 0.05145152 0.012119258
tersangka -0.09345563 -0.0069133826 -0.046096765 -0.044437293 -0.02420291 -0.025367428 0.032874398 -0.026332451 0.0689368 -0.05025237 -0.13856034 -0.060682956 -0.023593005 -0.022201482 -0.0041137626 -0.004508477 0.078251265 0.053885046 0.03658145 0.090681635 -0.04760895 -0.07017787 0.09435023 0.001088325 -0.037589736 0.10046782 0.02227924 -0.039490968 0.0056178584 -0.033322226 -0.026766501 -0.11243356 -0.09549588 -0.0688592 -0.08617588 -0.023469437 -0.02624472 -0.017525129 -0.024745954 0.041812386 0.025191095 0.010585404 -0.020143967 -0.067089394 -0.0046689096 0.009592297 -0.007443457 0.10314485 0.030141061 0.13832393 -0.05298828 -0.059527382 0.0665136 -0.00790712 -0.009340982 0.021761179 0.03696335 -0.10285036 0.016464468 0.015108324 -0.034988765 -0.11769594 0.01622886 0.0630741 -0.05896334 -0.047393706 -0.105121434 -0.031724602 -0.052656505 0.11437157 -0.01739057 0.101121016 0.049102537 0.04381202 -0.011875737 -0.04751877 -0.06571163 0.04695958 0.01865911 0.08721064 0.0026338566 -0.015024151 -0.057058636 -0.034014095 -0.0092904465 0.05360537 -0.057657283 -0.059904985 -0.010091701 -0.06474694 0.0089650415 -0.0011307945 -0.04619803 0.05628566 -0.0022001101 -0.08899978 0.05889024 -0.066759646 -0.021447465 -0.034741104 0.08476323 -0.08146733 0.018223777 -0.052755557 -0.010020277 -0.04980081 0.0023219553 -0.12949961 -0.049305145 -0.0062906593 0.026842996 0.0026570016 -0.10989945 0.010780675 0.06816058 -0.013468472 0.084775016 0.023373337 0.06648571 -0.045428973 -0.042516984 0.03762504 -0.019103155 0.0024140612 0.042794626 0.08956681 0.055351093 -0.040176615 0.08097569 0.03933408 -0.06818084 -0.0002884448 -0.069396235 -0.043848194 0.03623029 -0.042047624 8.7840854e-05 0.031301234 0.03367045 -0.02708941 -0.01484994 0.035985153 -0.044925906 0.0048093703 -0.13234104 0.10028697 -0.008223173 0.07966688 0.07435942 -0.081057206 -0.032731958 -0.013567923 -0.018648386 -0.020659987 -0.064410105 0.012601859 0.0848479 -0.14336301 -0.014020968 -0.08280228 0.009625257 0.024628503 0.03302919 0.18044566 -0.031106425 0.017324897 0.011106772 -0.04494311 0.014252255 0.12017456 -0.032692723 -0.120089546 -0.05065489 -0.09274652 -0.0069599305 0.0065782685 -0.048745822 -0.057757527 0.017119387 -0.021609282 0.026645929 -0.048714723 -0.03590429 0.01507031 0.062477116 -0.085603185 0.043143667 0.033008005 -0.074399434 0.08581402 -0.020397903 -0.00500366 -0.09067311 0.07563619 0.04352166 -0.07820353 -0.09049991 0.08274055 -0.07179762 0.009949848 0.08279811 0.073806174 -0.08698669 -0.06561081 -0.14375769 0.038504884 -0.05847905 0.02922493 0.06606754 -0.08770918 -0.03801254 0.034817707 0.035670213 0.041527234 -0.046431698 -0.066331625 0.027813492 -0.08719771 0.083325624 0.09253493 0.07404216 -0.018976554 0.02675347 -0.051775053 -0.04937059 -0.05071684 -0.1032358 -0.08390018 0.036492072 0.03487587 0.062857665 0.017260551 -0.016735794 0.014311642 0.039715827 -0.073092274 -0.032423202 -0.051207446 0.050283503 0.026861534 -0.093407094 -0.041445307 0.03486872 -0.06805256 0.10670644 0.024429884 0.088711575 -0.004790899 -0.016579837 0.0061602616 0.027690968 -0.050485592 0.039002724 0.031218871 0.10029029 0.05727845 0.025874788 -0.052547622 -0.0049689794 0.039137457 -0.028369034 -0.047582816 -0.030665515 -0.0029861338 -0.054466985 0.03387562 0.015036015 0.07123298 -0.14737391 0.020615602 -0.011564964 -0.02939834 0.0056871 0.024871234 -0.010944762 -0.018486187 -0.01886963 0.05328557 0.035359967 -0.076757565 0.04115554 -0.013139097 0.0063179084 0.029047998 0.019791462 0.041505005 -0.016168727 0.04668508 -0.06689597 0.06280361 0.0034467964 -0.104932204 -0.07118627 0.062436007 -0.038861897 0.053080365 -0.09764817 0.013932923 0.052463368 0.012212667
kelompokkriminalbersenjata -0.09314809 -0.0066031814 -0.04623051 -0.04393755 -0.024264878 -0.025648408 0.03265592 -0.02653578 0.06918474 -0.04993658 -0.13846868 -0.060625114 -0.02364186 -0.022411512 -0.004073494 -0.004371274 0.07794335 0.05401721 0.03664281 0.090923585 -0.04700739 -0.06992191 0.09431784 0.00022190268 -0.037854623 0.10116864 0.02212849 -0.039864514 0.005701708 -0.032833073 -0.0264294 -0.11210959 -0.09525044 -0.06873727 -0.085664555 -0.023534661 -0.025844011 -0.017227381 -0.024419494 0.041394405 0.025510948 0.010121744 -0.019639935 -0.06649695 -0.0046018856 0.010001474 -0.0074314056 0.102563426 0.029877774 0.13852684 -0.05318349 -0.059289955 0.06717027 -0.007432585 -0.009751026 0.02184211 0.0371867 -0.102836765 0.015780985 0.014486683 -0.03490417 -0.11768463 0.016495273 0.06234785 -0.059251446 -0.047169648 -0.10477783 -0.031961054 -0.05259661 0.1148539 -0.0171002 0.102002054 0.049869973 0.043538734 -0.011801771 -0.04826914 -0.0650679 0.047284674 0.018703481 0.08690429 0.0028703324 -0.01509086 -0.05756828 -0.033682726 -0.009484901 0.05280531 -0.057534333 -0.060362674 -0.009611251 -0.06514429 0.009657048 -0.00014631078 -0.04679807 0.05601487 -0.0017321323 -0.08865225 0.05830855 -0.067333356 -0.021954155 -0.034849916 0.085031554 -0.08111531 0.01813918 -0.05208853 -0.009908773 -0.049455125 0.0019300678 -0.12879351 -0.048757482 -0.0063760993 0.027260397 0.002581327 -0.10947879 0.01078982 0.06780806 -0.013445615 0.08520237 0.023284402 0.06624075 -0.045469884 -0.042025432 0.03756774 -0.018836152 0.0012169618 0.043017995 0.09046286 0.055691984 -0.039982717 0.08138168 0.03994798 -0.068949245 -0.00031398947 -0.069639824 -0.04403338 0.036482174 -0.04293388 -1.6830709e-05 0.030602282 0.033545576 -0.026729593 -0.014531091 0.036225587 -0.045415305 0.0052293357 -0.13173516 0.100522995 -0.008557338 0.07987275 0.07472623 -0.08072983 -0.03148773 -0.014223919 -0.01857234 -0.020834563 -0.06401206 0.012512542 0.084576026 -0.14345762 -0.014545447 -0.08203915 0.009333729 0.024793252 0.033178676 0.18090802 -0.031293154 0.01719865 0.010443797 -0.04536602 0.014199181 0.12029008 -0.03211625 -0.120413676 -0.050366007 -0.09287509 -0.006794476 0.0064930064 -0.04844661 -0.058355525 0.016478484 -0.021885287 0.026457017 -0.048607066 -0.0355984 0.015225465 0.061657947 -0.08537416 0.04287462 0.03340141 -0.0744531 0.08595162 -0.020086536 -0.005856784 -0.09099008 0.07555799 0.043777175 -0.078089274 -0.09034739 0.08255817 -0.07153539 0.010779532 0.08260122 0.07430141 -0.08658515 -0.065375276 -0.14363807 0.039143573 -0.059050974 0.028986815 0.06607829 -0.08792429 -0.03836441 0.03525534 0.034737773 0.041575853 -0.046413057 -0.067037195 0.02822263 -0.08672233 0.08362407 0.092786625 0.07342062 -0.018779252 0.027065847 -0.051441625 -0.04910689 -0.050679438 -0.102844745 -0.08431512 0.036883883 0.03438167 0.06381841 0.01679044 -0.017063553 0.015035326 0.039811764 -0.07302104 -0.032531295 -0.050894726 0.050526924 0.026845023 -0.092961915 -0.041579608 0.03437837 -0.067779005 0.10663485 0.024709923 0.08902184 -0.0050872476 -0.017211644 0.006935775 0.02762552 -0.050721645 0.039593067 0.03157882 0.10048844 0.057495087 0.025650993 -0.05297806 -0.0047266036 0.039255213 -0.028362263 -0.047591537 -0.03089232 -0.0032571382 -0.054537535 0.03362574 0.015117045 0.07139964 -0.14760835 0.021233313 -0.011466242 -0.029726189 0.0052982965 0.025103537 -0.010373355 -0.018875856 -0.018980613 0.05363129 0.036129933 -0.07676997 0.040681787 -0.012699832 0.0068497923 0.029019574 0.019154793 0.041572984 -0.01616622 0.04681921 -0.06700578 0.06216115 0.0034134001 -0.10511438 -0.07092657 0.06211558 -0.03854885 0.053673387 -0.09776034 0.014169458 0.051909924 0.0119752195
ditangkap -0.0935689 -0.0073286877 -0.046655852 -0.04410573 -0.023800878 -0.025618196 0.03279951 -0.026067732 0.06925327 -0.050147228 -0.1386608 -0.0605031 -0.0237441 -0.022474423 -0.0042311437 -0.004204811 0.07803902 0.053907894 0.036873776 0.091014475 -0.0477649 -0.07029809 0.094499566 0.0006562183 -0.03776499 0.10028674 0.021520674 -0.039830122 0.005566219 -0.032910954 -0.026233185 -0.11232731 -0.09511267 -0.06916631 -0.08613835 -0.023360504 -0.026405895 -0.017103493 -0.023966959 0.042398777 0.025109407 0.010728093 -0.020810533 -0.06661965 -0.0045848307 0.009677514 -0.007306922 0.10305597 0.030132081 0.13837487 -0.05275455 -0.059833497 0.066787615 -0.008202104 -0.009234216 0.02208514 0.036948007 -0.103406824 0.016672835 0.0154656125 -0.03505564 -0.11783502 0.01608971 0.0633556 -0.058886837 -0.047316503 -0.10493554 -0.03226668 -0.052422583 0.1137393 -0.017350348 0.10111709 0.04912168 0.043776292 -0.011655628 -0.04726839 -0.065281175 0.047111686 0.019011013 0.087577574 0.002850524 -0.015012429 -0.057553284 -0.0343082 -0.00932211 0.05360467 -0.057189517 -0.059747532 -0.009782045 -0.064514026 0.00897801 -0.0007803788 -0.046324898 0.056188375 -0.002573884 -0.088884585 0.05888171 -0.06662638 -0.021731095 -0.034245368 0.084983125 -0.08148248 0.017998917 -0.0523381 -0.009793414 -0.049778838 0.0022768923 -0.12960587 -0.04909949 -0.0064210636 0.026943723 0.0029343516 -0.10931098 0.010804246 0.06838233 -0.012938828 0.0850875 0.023245083 0.066289395 -0.04541897 -0.042760577 0.037466347 -0.0185523 0.001950658 0.042689092 0.0898575 0.05549251 -0.040280655 0.08128476 0.039218754 -0.068121396 -0.0005169916 -0.0693506 -0.043650743 0.036498792 -0.04221993 0.00046749186 0.031089988 0.03334261 -0.027472574 -0.014366957 0.036287896 -0.044923324 0.0046534794 -0.13261056 0.10007943 -0.008285055 0.07905061 0.07393437 -0.080836184 -0.03274432 -0.01372684 -0.018642044 -0.020538772 -0.06392194 0.012662971 0.084768824 -0.14350888 -0.013907516 -0.083200134 0.009733413 0.024656367 0.032892793 0.18064024 -0.030930685 0.017762842 0.010907168 -0.044851083 0.014377926 0.11980151 -0.032407865 -0.120267354 -0.050504275 -0.092846595 -0.006744039 0.006381957 -0.048473 -0.05881139 0.016995892 -0.02215583 0.02705494 -0.048539516 -0.03586103 0.0153871635 0.06220044 -0.08592865 0.04316606 0.03302806 -0.07481336 0.08608547 -0.020607369 -0.0046638767 -0.09096725 0.07593764 0.043684963 -0.078144535 -0.09074305 0.08245965 -0.07181377 0.010662022 0.08305896 0.07336635 -0.086666614 -0.06559902 -0.1437648 0.03827638 -0.058320995 0.029231884 0.06613762 -0.0878997 -0.038210258 0.034880728 0.03546078 0.041099936 -0.046422727 -0.06632878 0.0280959 -0.08711141 0.08293762 0.092510894 0.07381099 -0.019164115 0.026563566 -0.05162797 -0.049030453 -0.051215768 -0.10336328 -0.08373863 0.036796317 0.03522164 0.06279987 0.016636312 -0.016513832 0.014468762 0.039923284 -0.07348013 -0.032515965 -0.051608723 0.0501467 0.02684628 -0.093931325 -0.04100721 0.03499043 -0.06763794 0.10582124 0.024353616 0.0888119 -0.0049825837 -0.016763495 0.00623199 0.027621482 -0.050285287 0.039128587 0.030782077 0.100526534 0.0572304 0.025667936 -0.05223031 -0.0048762676 0.03952938 -0.02816627 -0.047097694 -0.030731322 -0.0030192842 -0.054336518 0.033979602 0.015176095 0.07174801 -0.14768423 0.020302843 -0.011486774 -0.029578432 0.00507601 0.025153223 -0.011258384 -0.018899309 -0.018596068 0.05330642 0.035903774 -0.076858506 0.040841088 -0.013012698 0.006760068 0.028786061 0.019895744 0.041370947 -0.015888488 0.04689606 -0.06721998 0.06334453 0.0036305583 -0.104729354 -0.070888616 0.062281802 -0.038313027 0.05295512 -0.09745887 0.013722368 0.05212648 0.012173809
menangkap -0.09328131 -0.0070195524 -0.04674726 -0.04423386 -0.023830468 -0.025884239 0.03269101 -0.026110569 0.06905505 -0.050387707 -0.13872366 -0.060231347 -0.023772737 -0.022340681 -0.0042871996 -0.004197718 0.07833254 0.053786535 0.03690485 0.090943456 -0.047777206 -0.06994164 0.09451321 0.00062620995 -0.037807245 0.10019327 0.02110742 -0.039968386 0.005333783 -0.033339668 -0.026593624 -0.11193504 -0.0950277 -0.069341265 -0.086027 -0.023775993 -0.026478643 -0.017213082 -0.024502795 0.04235906 0.025373729 0.010723167 -0.020634735 -0.06653247 -0.0044150054 0.009737466 -0.007694164 0.10272475 0.029986348 0.13836826 -0.052511934 -0.059874326 0.06671384 -0.008440309 -0.009361026 0.02193124 0.037053168 -0.10317621 0.01672684 0.015198976 -0.03483838 -0.11807354 0.016054187 0.06336918 -0.0594147 -0.047151286 -0.104636624 -0.032301545 -0.052558064 0.114153884 -0.017328665 0.10150089 0.04929681 0.04364887 -0.011677261 -0.04738006 -0.06545633 0.047241293 0.01872622 0.08770811 0.0029590111 -0.014827942 -0.05763568 -0.03419539 -0.009819337 0.053543255 -0.05703334 -0.059796534 -0.00970091 -0.06435702 0.009053024 -0.0009412373 -0.046487965 0.055839606 -0.0025737614 -0.088492006 0.05919025 -0.06669949 -0.021702956 -0.034127958 0.084631845 -0.081337795 0.018334566 -0.05260993 -0.01004092 -0.050044794 0.002325256 -0.1292456 -0.049319252 -0.0065725744 0.02700241 0.0031438083 -0.109217495 0.010632287 0.06833008 -0.0136026405 0.08503712 0.023074009 0.06648275 -0.045464814 -0.042427804 0.037615824 -0.018705592 0.002235708 0.04287309 0.089728534 0.055760562 -0.040487394 0.08094903 0.039470535 -0.06782262 -0.000705436 -0.06917027 -0.04394249 0.03646798 -0.042248804 0.00020944739 0.031322315 0.033177786 -0.026909119 -0.014636511 0.036028784 -0.044850778 0.0043892628 -0.13235015 0.100453764 -0.008519551 0.07959795 0.074382685 -0.08116026 -0.032595944 -0.014098889 -0.018840196 -0.020485573 -0.06387517 0.012426398 0.08479144 -0.14344902 -0.01413002 -0.08268094 0.009884528 0.0248358 0.032723803 0.18089297 -0.03066337 0.017702674 0.010859709 -0.044960923 0.014246771 0.12000744 -0.03295796 -0.12049415 -0.050658464 -0.09301342 -0.0073688664 0.006455059 -0.048607435 -0.058206327 0.016942058 -0.021907339 0.027162623 -0.048495404 -0.036193717 0.015131963 0.062289946 -0.085792154 0.043261625 0.03297827 -0.07439085 0.086182155 -0.020376803 -0.0050793686 -0.09065779 0.07591214 0.043953177 -0.078172594 -0.09065361 0.08235367 -0.07174313 0.010538027 0.08278602 0.07343489 -0.08689152 -0.065549344 -0.14371485 0.038432155 -0.05850552 0.029178895 0.06653356 -0.08810195 -0.038027674 0.03491356 0.035620846 0.040765993 -0.046137605 -0.06594891 0.028024716 -0.08715079 0.083517045 0.09227111 0.07388317 -0.019001042 0.026526203 -0.051768295 -0.04903223 -0.050874095 -0.1030078 -0.084293805 0.036864556 0.034474418 0.06294365 0.016181674 -0.01690953 0.014984141 0.039896205 -0.0732874 -0.032563154 -0.05164898 0.050616283 0.027001478 -0.09375227 -0.041136187 0.034835156 -0.06756459 0.10625658 0.02420711 0.088625304 -0.0048446627 -0.017002327 0.005899345 0.027744005 -0.050214056 0.039000206 0.03082285 0.10084064 0.057384204 0.02559294 -0.052313223 -0.004744454 0.039486784 -0.028536994 -0.046959445 -0.030744264 -0.0024920283 -0.054672938 0.034262467 0.014960136 0.07165405 -0.1471628 0.020239582 -0.011401319 -0.029753344 0.005252008 0.02490238 -0.011399201 -0.01886085 -0.018296057 0.053508203 0.035852943 -0.0765985 0.040657803 -0.012776924 0.0068599805 0.028685385 0.019628856 0.04126512 -0.01578364 0.04695052 -0.067512214 0.063214 0.0032945166 -0.10492753 -0.071150236 0.06236864 -0.038413517 0.052829284 -0.097384095 0.013754661 0.051926237 0.012237081
melecehkan -0.09345668 -0.006468237 -0.04614576 -0.044299353 -0.02399447 -0.025411036 0.033116065 -0.026246978 0.06887198 -0.050231993 -0.13860083 -0.060324214 -0.023707734 -0.021757832 -0.004056163 -0.0039421255 0.0782082 0.053839967 0.0369169 0.09114457 -0.04743394 -0.07003837 0.0946101 0.0007550217 -0.037939716 0.10075682 0.021611426 -0.039975885 0.005829752 -0.03339015 -0.026638072 -0.112337686 -0.09569123 -0.06903072 -0.085676305 -0.023517381 -0.02609307 -0.017532239 -0.024750376 0.04219901 0.025509728 0.010903992 -0.020181706 -0.0665423 -0.0045103813 0.009548405 -0.00763405 0.10297951 0.030286806 0.13785759 -0.052759614 -0.059243273 0.067313 -0.0074914596 -0.009484905 0.0222108 0.03706037 -0.10313138 0.01645386 0.015330389 -0.034730982 -0.117855586 0.016241943 0.06325528 -0.059014995 -0.046969924 -0.10462592 -0.032085307 -0.052436236 0.114505544 -0.017463606 0.10195493 0.049667764 0.043999005 -0.011094935 -0.047504913 -0.06534104 0.047378816 0.01837425 0.08699318 0.0028015377 -0.015181149 -0.057441365 -0.03353823 -0.009430247 0.05360424 -0.05772575 -0.06001223 -0.00974675 -0.064322755 0.009848849 -0.00056652684 -0.046219777 0.05667939 -0.0023475369 -0.08852087 0.0588014 -0.06691327 -0.020957349 -0.03465506 0.08492695 -0.08117048 0.018277273 -0.05237278 -0.009686349 -0.049836937 0.0022218453 -0.12905288 -0.048578545 -0.0063738003 0.027072813 0.002750967 -0.10992811 0.010775364 0.067823395 -0.013245655 0.08509708 0.023485009 0.066550866 -0.045328245 -0.04247593 0.03771628 -0.018739082 0.0021476578 0.04300977 0.09000864 0.055793982 -0.040213373 0.081029505 0.039768293 -0.068019845 -0.0009958687 -0.069365695 -0.0436114 0.035962813 -0.04248474 0.00011643898 0.031309213 0.033384185 -0.026623946 -0.014529715 0.036114257 -0.04482374 0.0048780316 -0.13229378 0.10041623 -0.008721551 0.0789817 0.07424378 -0.08087891 -0.032260973 -0.013827034 -0.01793126 -0.020639146 -0.063588925 0.012414201 0.08428852 -0.14396784 -0.014119743 -0.08251169 0.009095956 0.024852475 0.032693915 0.18070684 -0.03098034 0.017326752 0.010680337 -0.044941746 0.0144013185 0.11959545 -0.032026697 -0.12047897 -0.05058206 -0.093002886 -0.007012036 0.006257008 -0.048389673 -0.05854219 0.016569411 -0.021366552 0.026141638 -0.04846777 -0.03586074 0.015112036 0.0616765 -0.085796304 0.043236565 0.033416715 -0.074379556 0.08604867 -0.020395525 -0.005157896 -0.090921514 0.07547705 0.044177882 -0.078439504 -0.090180844 0.08256374 -0.07178423 0.010158475 0.08303283 0.07393075 -0.086955756 -0.065641366 -0.14344342 0.03894059 -0.058185406 0.02929322 0.06596315 -0.08772247 -0.037827145 0.034792718 0.03511079 0.041162014 -0.046481144 -0.06687949 0.028356435 -0.08738238 0.08328761 0.092591405 0.07337756 -0.019404065 0.02708576 -0.051417332 -0.048878863 -0.05090169 -0.10323505 -0.08394464 0.036985338 0.03483584 0.06295977 0.016997635 -0.016921295 0.014307003 0.03990506 -0.07338734 -0.033193775 -0.051254567 0.050319966 0.026866585 -0.09313147 -0.041582614 0.035317633 -0.06763052 0.10643807 0.024811644 0.08872674 -0.004956594 -0.016532311 0.0066508455 0.027909981 -0.050721914 0.03932633 0.031269465 0.10096293 0.057741214 0.025344066 -0.0528223 -0.0047981506 0.03913213 -0.02837745 -0.047550514 -0.030903148 -0.0026447857 -0.054512095 0.03400292 0.015366783 0.07122262 -0.14731462 0.020829832 -0.011418039 -0.029530149 0.005131376 0.02510547 -0.01074642 -0.018725531 -0.018883847 0.053523965 0.035740353 -0.07674489 0.04061381 -0.012659221 0.0066255387 0.029149886 0.019490601 0.04171526 -0.015634237 0.04673946 -0.06747826 0.06270324 0.003843908 -0.10529098 -0.07094058 0.061838556 -0.0388967 0.05381485 -0.09743624 0.01407984 0.051966544 0.0118393395
pembunuhan -0.09289558 -0.007013039 -0.045872405 -0.04415516 -0.02456246 -0.02552917 0.03274622 -0.026632851 0.06928856 -0.049893416 -0.13867284 -0.060494617 -0.022882672 -0.022097835 -0.0043855654 -0.0038837935 0.07809532 0.053429045 0.03676932 0.09036714 -0.047160868 -0.07038988 0.094395876 0.0005994664 -0.03745297 0.10086684 0.02126353 -0.039651383 0.005914882 -0.032862052 -0.026405603 -0.11242291 -0.095991544 -0.068962686 -0.08500397 -0.023292292 -0.026678832 -0.017076448 -0.024265207 0.041896172 0.025345787 0.010633923 -0.019475572 -0.06700563 -0.0044024596 0.009578965 -0.007624847 0.10339064 0.029906299 0.13844487 -0.05284228 -0.059497647 0.06643233 -0.008265143 -0.009708281 0.021847202 0.03736937 -0.102961846 0.016495965 0.014959298 -0.034329925 -0.11769607 0.015983002 0.063088216 -0.05902523 -0.04728389 -0.105203286 -0.03177645 -0.052647863 0.11491552 -0.017579857 0.10157572 0.049852654 0.04409825 -0.01191254 -0.047661863 -0.06525615 0.047113977 0.018725162 0.08764047 0.002746737 -0.014863696 -0.057349745 -0.033898972 -0.0088978475 0.053372625 -0.057268217 -0.060184628 -0.009974478 -0.06423886 0.00965027 -0.000990185 -0.04583504 0.056062184 -0.0024544045 -0.08915064 0.059114587 -0.067300074 -0.02160031 -0.034874275 0.08491148 -0.081451945 0.01829843 -0.05207958 -0.009815238 -0.04951096 0.0025078612 -0.12921287 -0.048867915 -0.0062036095 0.026835062 0.0028746456 -0.10977772 0.010353823 0.068727255 -0.013450505 0.08529068 0.023538398 0.065559186 -0.04518796 -0.042268194 0.038165323 -0.0186568 0.0016545103 0.043237016 0.0897066 0.05575418 -0.040040717 0.08137746 0.03929264 -0.06818212 -5.741418e-06 -0.06958052 -0.04312901 0.036774386 -0.04245017 0.00020942545 0.030903481 0.03332542 -0.02669309 -0.014784483 0.036005814 -0.04485016 0.0046976525 -0.1326527 0.10035072 -0.009471253 0.079106554 0.07436536 -0.080377564 -0.03227905 -0.0134724155 -0.018805338 -0.020835249 -0.0639454 0.012428225 0.0847377 -0.14331408 -0.013474657 -0.082725614 0.008793253 0.024673285 0.03308331 0.18073082 -0.031054448 0.017150119 0.010128656 -0.044992667 0.0144651085 0.12029204 -0.03256919 -0.12046967 -0.05055738 -0.09261914 -0.007426068 0.006520845 -0.048380375 -0.057914987 0.016726881 -0.021806635 0.026949069 -0.048290893 -0.0362565 0.015235304 0.061954882 -0.085337564 0.042886578 0.03391547 -0.074658066 0.08566715 -0.020832095 -0.005423482 -0.09108948 0.07548081 0.043657962 -0.07827968 -0.0905569 0.082626976 -0.07173738 0.010632717 0.08286281 0.073595986 -0.08645716 -0.06599008 -0.14355832 0.03846991 -0.05880616 0.029094808 0.06654502 -0.08789345 -0.038384352 0.034878448 0.03522951 0.04189976 -0.046502046 -0.06666078 0.028185582 -0.08700248 0.08293363 0.09241282 0.073788 -0.019088665 0.026605409 -0.051669862 -0.048988167 -0.050517593 -0.10327838 -0.083844766 0.03673443 0.034683447 0.06327562 0.017214451 -0.016725847 0.0143192755 0.03999639 -0.07340413 -0.032705504 -0.05164312 0.05066724 0.02680789 -0.092834584 -0.041529197 0.03510617 -0.067553036 0.10669897 0.024153238 0.08854303 -0.005191881 -0.016812459 0.006415198 0.027066829 -0.050617166 0.039101686 0.031322423 0.10060766 0.057789166 0.025669158 -0.052971806 -0.005131576 0.038989596 -0.028528461 -0.04713941 -0.031120397 -0.0030995093 -0.054357212 0.033888806 0.015002224 0.07152502 -0.14789812 0.021359984 -0.011267737 -0.0292491 0.0052040345 0.025422102 -0.010812284 -0.01880952 -0.01906199 0.053577762 0.03608774 -0.07585249 0.041206747 -0.012979194 0.006471899 0.029228676 0.0190017 0.041362584 -0.016090732 0.04655298 -0.06751485 0.06283904 0.0035725879 -0.105438374 -0.070607945 0.06202106 -0.0387341 0.053103633 -0.097090594 0.014016674 0.051934604 0.012192705
pria -0.0932007 -0.006362916 -0.045740113 -0.045216065 -0.02475813 -0.025799302 0.033078328 -0.02600167 0.06924228 -0.049828 -0.13830242 -0.060712036 -0.023890568 -0.022002539 -0.0045313677 -0.004070904 0.07829963 0.054536767 0.03688616 0.09050205 -0.046390954 -0.0701553 0.094189905 0.0009008056 -0.037957817 0.10054075 0.022753173 -0.03994903 0.0064694644 -0.033659127 -0.02625428 -0.1122323 -0.09558166 -0.069283955 -0.08558776 -0.022687886 -0.026093468 -0.016555693 -0.023175457 0.042311408 0.025079712 0.0099741705 -0.019225096 -0.06742193 -0.0041775294 0.009682119 -0.007501867 0.10298317 0.029740576 0.13802332 -0.053374883 -0.059390057 0.06618438 -0.008253747 -0.009736998 0.02138612 0.03770688 -0.10304941 0.01724517 0.015381271 -0.035047296 -0.11782917 0.016857548 0.06370249 -0.059186757 -0.047307566 -0.10428236 -0.032501277 -0.051739007 0.11445679 -0.017653722 0.10238721 0.049800634 0.04358423 -0.010519132 -0.047982182 -0.065094665 0.046677187 0.018394692 0.08758944 0.0027940928 -0.015045486 -0.058220237 -0.032942772 -0.008965873 0.053117033 -0.057153463 -0.060127728 -0.010390228 -0.06478271 0.01006343 -0.00080009585 -0.04607113 0.05697804 -0.0030143787 -0.08929305 0.05951223 -0.06614397 -0.021060303 -0.03381224 0.084327854 -0.08091823 0.017730534 -0.05266364 -0.009606819 -0.049226776 0.0024797267 -0.12884678 -0.04926431 -0.0058820676 0.02666615 0.0023934934 -0.109224156 0.01060168 0.0679776 -0.013190257 0.0854755 0.023402171 0.06615044 -0.044887565 -0.043066595 0.037892316 -0.018762687 0.0021658312 0.043279994 0.08964816 0.05568316 -0.039533343 0.08132139 0.039510805 -0.06743326 -0.0002856055 -0.06995406 -0.0431144 0.035598017 -0.042008914 0.00019979369 0.030937128 0.03326236 -0.026826808 -0.014919081 0.036559686 -0.044682115 0.004503442 -0.1317736 0.10012281 -0.008662975 0.07851323 0.074551575 -0.080719255 -0.03208872 -0.014519578 -0.018563306 -0.021329958 -0.06384797 0.012669365 0.084866896 -0.1430245 -0.013696516 -0.08284465 0.009797565 0.025285788 0.033520084 0.18079233 -0.030673856 0.017369015 0.010474065 -0.04544981 0.014121213 0.120411254 -0.032387726 -0.12065728 -0.05124747 -0.09234482 -0.006996297 0.006511913 -0.04814813 -0.058187246 0.017364595 -0.021674516 0.026709128 -0.049277257 -0.035538774 0.015180148 0.06264563 -0.08461417 0.043792658 0.033415932 -0.07446735 0.086259924 -0.020168787 -0.0046168873 -0.09093355 0.07524352 0.043821175 -0.07799515 -0.090780534 0.0832189 -0.07189226 0.010407928 0.0822492 0.07367406 -0.086628884 -0.06593731 -0.14360869 0.039032605 -0.059387013 0.028663464 0.06604813 -0.08836376 -0.038513433 0.035392165 0.035197947 0.041401096 -0.047001734 -0.06733172 0.027870636 -0.087337025 0.08334418 0.09310664 0.0738401 -0.019245457 0.02709675 -0.051423457 -0.04844018 -0.051010106 -0.10300911 -0.08386472 0.036768045 0.03499281 0.06241937 0.017254163 -0.01743554 0.014703725 0.040333785 -0.073688656 -0.033394378 -0.051061675 0.049912877 0.026891677 -0.09342985 -0.041419387 0.034100443 -0.068070866 0.106281556 0.024571477 0.08932386 -0.0049835397 -0.01615897 0.0061979205 0.027171176 -0.05065575 0.040018477 0.031135615 0.10014073 0.058627218 0.025591629 -0.051684137 -0.004595389 0.038796622 -0.028832043 -0.047205295 -0.030007917 -0.0035193437 -0.055063043 0.033801164 0.015095036 0.07132415 -0.14764425 0.021666102 -0.010873129 -0.02920658 0.0041659875 0.025159197 -0.011891028 -0.018556073 -0.018626671 0.053806476 0.036239456 -0.076732315 0.040251315 -0.014000826 0.005913856 0.029634945 0.019918634 0.04155377 -0.01612574 0.046488658 -0.06646454 0.063223734 0.0033072438 -0.10572681 -0.07062518 0.06238125 -0.038936194 0.052465405 -0.09742031 0.014254974 0.05182233 0.012001102
penganiayaan -0.09286326 -0.0067625684 -0.045654632 -0.044539224 -0.024386104 -0.025622074 0.033068623 -0.0264314 0.06870423 -0.05001535 -0.13868909 -0.06031187 -0.023666823 -0.021980435 -0.0041287537 -0.0040081353 0.077757165 0.053400595 0.036374684 0.09039771 -0.047657467 -0.07070839 0.09469544 0.00025876536 -0.03817644 0.10067645 0.021434072 -0.03995953 0.0058291517 -0.03317735 -0.02607537 -0.11192577 -0.0955966 -0.069511354 -0.085198075 -0.023800861 -0.026128348 -0.01711007 -0.024960699 0.041558426 0.025622234 0.0108909635 -0.020376047 -0.06681852 -0.004284205 0.010121251 -0.0075073726 0.10312333 0.029732065 0.13833597 -0.053077344 -0.059830487 0.066881806 -0.008020457 -0.00945217 0.021553159 0.03723341 -0.10330383 0.016358892 0.0153530715 -0.035109345 -0.118020244 0.016555721 0.06324436 -0.059300464 -0.046877947 -0.10466001 -0.032087427 -0.052521218 0.11475197 -0.017217606 0.10155526 0.04954287 0.044007745 -0.011861187 -0.04754449 -0.065658584 0.047412943 0.01853163 0.0873149 0.0028677355 -0.01500524 -0.0578573 -0.03389736 -0.008941362 0.05348287 -0.05768468 -0.059810262 -0.009945671 -0.064038716 0.00930996 -0.00051909086 -0.04648267 0.056798227 -0.001987371 -0.08876705 0.05877093 -0.0671457 -0.021135677 -0.03456578 0.08486562 -0.08131989 0.01844498 -0.052592646 -0.009549949 -0.04943041 0.0027702362 -0.1291297 -0.048896298 -0.0059278966 0.026954208 0.002529491 -0.109349266 0.010879249 0.06817417 -0.013347374 0.08525165 0.023253027 0.06603809 -0.04504392 -0.042343337 0.037764996 -0.01879602 0.0022740858 0.043007143 0.08947783 0.055973526 -0.040563196 0.08145826 0.039514378 -0.06807255 -0.00066190853 -0.069341846 -0.0436692 0.035641667 -0.04250774 0.00021336785 0.030948024 0.03354572 -0.02683373 -0.014503397 0.036113 -0.044974945 0.004795221 -0.13248436 0.10047761 -0.009086292 0.07914169 0.07422277 -0.08102115 -0.03244116 -0.013797321 -0.018418038 -0.020881215 -0.06414514 0.011850259 0.08460857 -0.14360368 -0.014125484 -0.08247393 0.009243907 0.02464881 0.03310582 0.18060443 -0.031179732 0.016778508 0.010611215 -0.045251578 0.014134142 0.11984483 -0.031978264 -0.120729424 -0.050449517 -0.09295207 -0.0071898093 0.006859865 -0.048526864 -0.05821667 0.01664957 -0.021270817 0.0269955 -0.04856073 -0.03614096 0.015136879 0.06189917 -0.085223794 0.043159585 0.034121696 -0.07456772 0.085751 -0.020623703 -0.0051688193 -0.091268115 0.075419 0.04384919 -0.07785827 -0.090547 0.08217361 -0.07121423 0.010395893 0.08292023 0.07366286 -0.08663823 -0.06637625 -0.14365019 0.0388845 -0.058224797 0.029075254 0.066360146 -0.087600835 -0.037917554 0.034697313 0.03538747 0.04126411 -0.046344046 -0.066945344 0.027734814 -0.08715353 0.08322345 0.09249339 0.07353723 -0.01897557 0.026772272 -0.051510785 -0.048797995 -0.050620228 -0.10300796 -0.08379542 0.03670479 0.034763977 0.06329986 0.016895635 -0.017019277 0.014749803 0.03990801 -0.073367275 -0.033118106 -0.051850703 0.05068596 0.026851775 -0.093281485 -0.041309025 0.034999453 -0.06751608 0.106580436 0.02471846 0.08860942 -0.0054201074 -0.016273784 0.006600787 0.027761921 -0.05106513 0.039399207 0.03131617 0.10086609 0.057710685 0.025274118 -0.052538443 -0.0042435825 0.03940898 -0.029193737 -0.047346443 -0.030473309 -0.0024620302 -0.0545581 0.033802006 0.014986628 0.07138623 -0.14754607 0.02102162 -0.011590366 -0.030122727 0.0048426404 0.02553471 -0.010997481 -0.018500112 -0.019066738 0.05357316 0.035572015 -0.076531366 0.040994164 -0.012990576 0.0068467516 0.029209778 0.019531477 0.041133355 -0.015735641 0.04601375 -0.067408755 0.06292465 0.0033478083 -0.105588436 -0.07089037 0.06190639 -0.03878255 0.0534392 -0.096894465 0.01447418 0.05213186 0.011774335
wanita -0.093238495 -0.006224591 -0.046411585 -0.04389835 -0.024591623 -0.02525292 0.033373844 -0.02620308 0.068417795 -0.049912248 -0.13867377 -0.06051766 -0.024141729 -0.022740424 -0.005090105 -0.0044676377 0.07669271 0.052783888 0.036459953 0.0909119 -0.047937468 -0.06990762 0.093229085 0.00012430492 -0.03807592 0.1009835 0.021228112 -0.040337805 0.0061982116 -0.03324414 -0.027075011 -0.11155064 -0.096110344 -0.06900112 -0.085670725 -0.02432285 -0.02615125 -0.016465386 -0.025245842 0.04212736 0.024744133 0.011677441 -0.019653168 -0.06641505 -0.004601683 0.009589466 -0.0071776565 0.10354011 0.03049037 0.13867219 -0.05298905 -0.059458032 0.06711693 -0.008365557 -0.00975136 0.021572264 0.036840063 -0.10333637 0.0166671 0.01525288 -0.034570128 -0.117859036 0.015430503 0.06321719 -0.059088808 -0.04693676 -0.10531609 -0.031847373 -0.052708726 0.11388331 -0.018298617 0.101232484 0.049695905 0.043250017 -0.012338747 -0.04698068 -0.064890034 0.047085654 0.019160721 0.08772958 0.0027812254 -0.014985166 -0.05760925 -0.033056404 -0.008950325 0.053693764 -0.057806898 -0.059809674 -0.010013814 -0.06428129 0.009335197 -7.732094e-05 -0.046562232 0.0558356 -0.001877367 -0.08884769 0.059080213 -0.067418784 -0.021291682 -0.035407502 0.0851385 -0.08161403 0.0183156 -0.05232669 -0.009875128 -0.050222073 0.0022752164 -0.12978762 -0.04851109 -0.0071823695 0.026358748 0.003085228 -0.10943825 0.010611158 0.068523526 -0.0136459395 0.08478841 0.02346931 0.06552928 -0.045346778 -0.042440027 0.037700452 -0.018803205 0.0013041892 0.042991348 0.089990534 0.05570462 -0.04064084 0.080967896 0.039126508 -0.06851636 0.00021453401 -0.06914067 -0.04453853 0.036095973 -0.04205646 -0.0004412837 0.030108372 0.03384126 -0.026986238 -0.014622677 0.036358077 -0.044718903 0.0050237714 -0.13282475 0.099871896 -0.008921685 0.07872471 0.07378146 -0.08075699 -0.03270105 -0.012915594 -0.018137332 -0.020327406 -0.06500386 0.0120663345 0.0841643 -0.14362065 -0.014742472 -0.08312523 0.008582283 0.024660593 0.032980457 0.18020631 -0.031907633 0.016983245 0.010090592 -0.045529168 0.014697924 0.11957693 -0.03302275 -0.12010103 -0.050065283 -0.09357599 -0.0069336127 0.006810697 -0.04884547 -0.058259178 0.016194293 -0.021415673 0.027389871 -0.048256867 -0.03638283 0.015682828 0.061281815 -0.086443536 0.043256517 0.033301495 -0.073914826 0.08514863 -0.020630606 -0.0056776074 -0.09130118 0.07632052 0.043301187 -0.078221776 -0.089252785 0.08289101 -0.072120465 0.010502753 0.0824659 0.07340944 -0.08762131 -0.06522379 -0.14421286 0.03886324 -0.0585584 0.029215092 0.06607898 -0.08751762 -0.03768217 0.034985553 0.035888396 0.042117883 -0.04732875 -0.066469096 0.02795623 -0.08706243 0.08275097 0.09262147 0.07380291 -0.019986974 0.026734225 -0.05106514 -0.049641382 -0.051015638 -0.10366626 -0.083730705 0.036789104 0.034652464 0.06354297 0.017303864 -0.016222635 0.013907691 0.04052056 -0.07364852 -0.032647483 -0.051402282 0.050796445 0.026919864 -0.09304222 -0.04103965 0.03527013 -0.06761831 0.10619573 0.025191586 0.08865767 -0.005331242 -0.01672383 0.006722236 0.028364168 -0.050366722 0.04026792 0.031309273 0.100483 0.05708367 0.025645293 -0.052742675 -0.004667064 0.039509878 -0.028432507 -0.047765024 -0.030640578 -0.002300619 -0.054658398 0.03373508 0.014714127 0.07175976 -0.14754729 0.020715294 -0.010991499 -0.030225813 0.006333552 0.025456998 -0.01032561 -0.01898872 -0.019181998 0.053413104 0.035927482 -0.07641314 0.040870186 -0.012379616 0.006729936 0.02836723 0.018943261 0.041062415 -0.016264074 0.04601444 -0.067659564 0.062155604 0.0035131157 -0.10467266 -0.071383104 0.06175644 -0.03905561 0.05322904 -0.097676724 0.013969322 0.052220434 0.01239785
pengejar -0.093195215 -0.0064171734 -0.046245314 -0.04390719 -0.024470856 -0.025356548 0.032896336 -0.026621269 0.06879703 -0.050070833 -0.13883933 -0.060548022 -0.023876354 -0.022147987 -0.0041971677 -0.0041533383 0.07796155 0.05369411 0.037014585 0.0911464 -0.04751635 -0.0701219 0.09441833 0.00046515322 -0.03793324 0.10072945 0.021810794 -0.040151168 0.006076347 -0.03338873 -0.026486209 -0.1121409 -0.09520152 -0.0690205 -0.08558497 -0.023395127 -0.026453814 -0.017757481 -0.024176655 0.041626904 0.025111703 0.010707107 -0.020345706 -0.06667638 -0.004484405 0.009656837 -0.0072794305 0.10304391 0.030053105 0.13872144 -0.053213414 -0.059315518 0.06711813 -0.007915488 -0.009308742 0.021880638 0.03694801 -0.10338332 0.016377226 0.01543995 -0.035103712 -0.117599316 0.016401643 0.063066706 -0.059275404 -0.047439836 -0.10474844 -0.03210627 -0.052247882 0.11476361 -0.017524805 0.101969056 0.049776074 0.0436748 -0.011887341 -0.047215655 -0.064553104 0.047027238 0.018703206 0.087625846 0.0027407135 -0.015091942 -0.057721425 -0.03372193 -0.008784805 0.053441986 -0.05766459 -0.059625685 -0.010102624 -0.06459643 0.009124199 -0.0008397634 -0.046332225 0.056280077 -0.0023282918 -0.08850107 0.058925323 -0.0669757 -0.021516986 -0.034286875 0.084953 -0.081403494 0.018311942 -0.05237404 -0.009429905 -0.04952883 0.001947592 -0.12940605 -0.0491458 -0.0066570784 0.026935825 0.0025942912 -0.10957016 0.010629099 0.06821314 -0.013213316 0.0852419 0.023646599 0.0664425 -0.045522735 -0.04238437 0.037704773 -0.01933539 0.0018749594 0.04300147 0.09004059 0.055926617 -0.040246554 0.081238665 0.039804008 -0.068581685 -0.0005360376 -0.069535516 -0.043856103 0.036266044 -0.042111512 0.00041185404 0.031061206 0.033579946 -0.026530951 -0.014570533 0.03602924 -0.044757478 0.0046628304 -0.13205737 0.100260824 -0.008654797 0.079464376 0.074624546 -0.08095173 -0.03232403 -0.013628468 -0.01819633 -0.0206507 -0.06375955 0.012049941 0.08492824 -0.14356378 -0.0139150405 -0.08218246 0.009515759 0.024851274 0.0329197 0.18028592 -0.030722497 0.017005216 0.010470762 -0.045369945 0.014286308 0.12016828 -0.032136448 -0.12048083 -0.049982525 -0.09264481 -0.0068302145 0.0062921545 -0.048510555 -0.058321264 0.016918126 -0.021769932 0.026608907 -0.048194073 -0.03595099 0.015304565 0.06189287 -0.085634455 0.04323341 0.03343002 -0.07411867 0.085799366 -0.020084403 -0.0052923686 -0.090779655 0.075848214 0.044073783 -0.077842355 -0.090346284 0.082506366 -0.07169278 0.010624728 0.08282111 0.07365683 -0.086558506 -0.065969855 -0.14357193 0.038836967 -0.058570653 0.029297462 0.06620042 -0.08782324 -0.038084902 0.034762442 0.03509275 0.041406143 -0.046370573 -0.066629544 0.027880823 -0.08688525 0.08336812 0.09218995 0.073522136 -0.018750949 0.026606934 -0.051630616 -0.048874903 -0.050604645 -0.10253952 -0.084157705 0.037156135 0.03464655 0.06306085 0.01710384 -0.01714688 0.014215855 0.040087394 -0.07272715 -0.032780465 -0.051580153 0.05068628 0.026618704 -0.09383985 -0.04120524 0.034923766 -0.06802361 0.1064715 0.024510877 0.08838655 -0.0053177336 -0.016275851 0.006821492 0.027316593 -0.050656848 0.039409984 0.031240858 0.10064234 0.05752702 0.025877148 -0.05251975 -0.0044865203 0.039436843 -0.02908557 -0.047160316 -0.030500794 -0.0028876986 -0.054465424 0.03322205 0.015037369 0.07120253 -0.14781414 0.02090351 -0.011463681 -0.030128859 0.0050003454 0.025348067 -0.01071874 -0.018531451 -0.01894401 0.054303855 0.036000818 -0.076732695 0.041309014 -0.012661584 0.006883372 0.028940944 0.019878058 0.040885553 -0.01608051 0.046753917 -0.067100964 0.06280161 0.004143527 -0.105306745 -0.071339265 0.062122546 -0.038990214 0.053577784 -0.09726688 0.014063454 0.051647257 0.011865589
kenatipu -0.093521394 -0.006406772 -0.046682097 -0.04390856 -0.024650136 -0.025003318 0.032985814 -0.026443789 0.06897602 -0.049571894 -0.13826099 -0.060324106 -0.023555556 -0.02243135 -0.003917566 -0.00406758 0.0774726 0.05391207 0.036357306 0.091578275 -0.047248352 -0.07050046 0.0941112 0.0004905634 -0.038429912 0.10103822 0.022395326 -0.04039504 0.005455517 -0.033364113 -0.025919015 -0.11197534 -0.09547912 -0.06898722 -0.08542915 -0.023461923 -0.026248207 -0.017091995 -0.024680816 0.041441474 0.025233686 0.010711362 -0.019713232 -0.06626993 -0.004397971 0.009675955 -0.007436729 0.102589644 0.029732412 0.13866004 -0.05309533 -0.06026816 0.06716031 -0.0077339574 -0.009426935 0.021964481 0.03746291 -0.10325386 0.016491007 0.014534432 -0.034858365 -0.11821454 0.01627694 0.06285718 -0.05973723 -0.046865936 -0.10460674 -0.032001503 -0.05304718 0.11459735 -0.01780218 0.10156967 0.049633812 0.043133162 -0.011164189 -0.048122365 -0.06475523 0.047223266 0.018450584 0.08662713 0.003020201 -0.015041685 -0.057677567 -0.0339024 -0.009470225 0.052796733 -0.057559576 -0.060499728 -0.009636719 -0.06411869 0.009453433 -0.0006426576 -0.04662034 0.056367893 -0.0019082238 -0.088786505 0.058346804 -0.066682816 -0.021799412 -0.03441607 0.085019864 -0.08135033 0.018193502 -0.052728437 -0.009499527 -0.049697783 0.0022719416 -0.12907234 -0.048986476 -0.0060942974 0.0275323 0.0024980076 -0.10940588 0.010438221 0.06834568 -0.013657483 0.08526317 0.02356676 0.06663614 -0.04504567 -0.041986912 0.037659537 -0.01874922 0.001836863 0.042851675 0.090386204 0.056166116 -0.04002073 0.0814252 0.039408058 -0.06810665 -0.0005803209 -0.068735525 -0.04422406 0.036073286 -0.04251478 0.0001259649 0.031122722 0.033481453 -0.026878703 -0.014375126 0.036017578 -0.04569861 0.0044487645 -0.13187979 0.10069103 -0.008387553 0.07975966 0.07410895 -0.08094517 -0.03159493 -0.014390581 -0.018339798 -0.020716025 -0.06389958 0.012084976 0.08469744 -0.14342467 -0.014232253 -0.08221388 0.009104057 0.024489906 0.032868207 0.18042035 -0.031174967 0.016847353 0.010238761 -0.045329735 0.013997219 0.12044864 -0.031966805 -0.12021877 -0.050064065 -0.09299254 -0.0068726717 0.006458007 -0.048566096 -0.058656808 0.016240042 -0.02165946 0.026263732 -0.048391882 -0.03527371 0.015139142 0.06221695 -0.08539441 0.042757902 0.033543464 -0.07465463 0.08554022 -0.020326681 -0.0055647753 -0.09073332 0.075183354 0.04394415 -0.07805792 -0.09062325 0.08169429 -0.07145406 0.010235451 0.082530916 0.07400425 -0.08705826 -0.06535494 -0.1442465 0.03990329 -0.05846406 0.02856036 0.06660522 -0.08808155 -0.038534336 0.035153344 0.034969896 0.041271314 -0.046485752 -0.06688747 0.027776677 -0.08692608 0.08335636 0.09257716 0.073585205 -0.018461375 0.027257264 -0.05186812 -0.049256094 -0.050771657 -0.10262251 -0.08405202 0.037144303 0.034573745 0.06359165 0.016750887 -0.01726588 0.014805762 0.03939622 -0.07293376 -0.03305829 -0.051756483 0.050464272 0.026570588 -0.093346134 -0.04159417 0.03514348 -0.067930885 0.10674475 0.024502689 0.08878442 -0.0051663485 -0.017186398 0.0069615324 0.027803993 -0.050753698 0.03915767 0.031690873 0.10062614 0.05757682 0.024887633 -0.053084057 -0.0041461713 0.03886946 -0.028497161 -0.047309358 -0.030888375 -0.0030407489 -0.054310426 0.033611264 0.014923011 0.07112568 -0.14767893 0.020905918 -0.011480842 -0.030127956 0.0049306722 0.025407385 -0.010785833 -0.018495042 -0.019337857 0.054314837 0.03529658 -0.07664596 0.041038368 -0.012971313 0.0070291976 0.028834336 0.019137204 0.041608594 -0.016113333 0.046647344 -0.06746012 0.06248298 0.0029535023 -0.10508557 -0.07079345 0.06189847 -0.038875937 0.053623166 -0.09770055 0.0146015445 0.051376116 0.012025838
membunuh -0.093093656 -0.0069871005 -0.046037912 -0.04407982 -0.024577731 -0.025209265 0.032861006 -0.026236605 0.06924551 -0.049830817 -0.13842037 -0.060188867 -0.022827586 -0.022404345 -0.0043426235 -0.004199534 0.077883504 0.053676754 0.03670517 0.09033061 -0.047218997 -0.06973695 0.094916336 0.000716499 -0.037740156 0.10096497 0.021194149 -0.03953977 0.005811885 -0.032959606 -0.026627595 -0.11232763 -0.09567037 -0.06884534 -0.08548848 -0.023213742 -0.026390355 -0.016603181 -0.024378782 0.041897863 0.025222506 0.01062892 -0.019216247 -0.06685344 -0.004870117 0.009886006 -0.007745738 0.10291626 0.029685149 0.13842514 -0.052909467 -0.059229836 0.06642297 -0.007967671 -0.00958584 0.021812147 0.037326433 -0.10312375 0.016800698 0.014780911 -0.03421824 -0.1178347 0.015893225 0.06301823 -0.059161946 -0.046918187 -0.10541292 -0.031654686 -0.05250156 0.1146093 -0.017627962 0.10201902 0.04999102 0.043649625 -0.011619556 -0.047210664 -0.06539251 0.0471259 0.018797358 0.087647416 0.002459085 -0.015142586 -0.05745358 -0.033695497 -0.009625468 0.053098753 -0.05741826 -0.060049593 -0.00961846 -0.06477929 0.009928676 -0.0007542672 -0.045935906 0.056064863 -0.0026859671 -0.08932652 0.059049565 -0.06721543 -0.02190588 -0.035225157 0.084800504 -0.08123105 0.018060043 -0.051989015 -0.010558343 -0.04991353 0.0025882025 -0.1292223 -0.049191017 -0.0058586523 0.026982537 0.0028174464 -0.10984565 0.010703138 0.0687049 -0.0135202315 0.08535706 0.023557458 0.06583792 -0.045084924 -0.042154904 0.0377924 -0.018998176 0.0013966176 0.04328456 0.08964272 0.05599901 -0.040204465 0.08169775 0.03920557 -0.06834849 -0.0003797304 -0.06974004 -0.043367516 0.036526892 -0.04250823 -3.276604e-05 0.0313117 0.033327263 -0.026757618 -0.014941525 0.035898864 -0.04462895 0.0049107596 -0.1327309 0.10070916 -0.009323448 0.07956433 0.0744235 -0.08045712 -0.032486502 -0.013499705 -0.018728212 -0.02094932 -0.06405185 0.012219298 0.08508979 -0.14346942 -0.013610655 -0.0827828 0.008549968 0.0248188 0.033119418 0.18109044 -0.030888274 0.017313572 0.010708408 -0.045044575 0.014466033 0.12026132 -0.032612186 -0.12002792 -0.05032398 -0.092359304 -0.007697962 0.0069427006 -0.0486465 -0.05775214 0.016636975 -0.021977657 0.026957668 -0.04838476 -0.03649777 0.015321372 0.061806742 -0.08518397 0.04262123 0.033494033 -0.074685216 0.085510276 -0.020871546 -0.005316801 -0.090951875 0.075327374 0.043560408 -0.078379445 -0.090662405 0.08236338 -0.07180019 0.010557124 0.082936026 0.073543385 -0.08629116 -0.06568739 -0.14357269 0.038929023 -0.058964074 0.029178344 0.06647371 -0.08783588 -0.038511872 0.034815595 0.035051007 0.04196337 -0.04637863 -0.06673487 0.027940067 -0.08690404 0.083165675 0.0925835 0.07347114 -0.019021276 0.0267863 -0.051818345 -0.04880094 -0.051069528 -0.10283307 -0.08400555 0.036449037 0.034582745 0.063625075 0.017376576 -0.016686559 0.014850789 0.039719842 -0.073101476 -0.032954164 -0.051285226 0.050452948 0.02672858 -0.09344271 -0.041316103 0.034934066 -0.06772967 0.10684206 0.024437418 0.088313416 -0.005217819 -0.017373294 0.0062696245 0.026788475 -0.05056497 0.039634325 0.03139323 0.100637175 0.05754487 0.025926668 -0.052530896 -0.0053301547 0.03908705 -0.02837704 -0.047194913 -0.03143179 -0.0029443651 -0.05478907 0.033856742 0.015071956 0.071208484 -0.14784907 0.02114834 -0.011363587 -0.02896077 0.0053596767 0.025051756 -0.010596808 -0.019177133 -0.01919222 0.053089775 0.03581754 -0.07608416 0.041006535 -0.013004736 0.0062336726 0.028920965 0.018611856 0.04127722 -0.0160709 0.0463054 -0.06717356 0.06283305 0.0035915996 -0.10505128 -0.07068299 0.06270979 -0.037970684 0.052977867 -0.09727565 0.014064176 0.05172796 0.01230316
pencuri -0.093510024 -0.0068487767 -0.04642828 -0.044139113 -0.024129339 -0.025595538 0.03296829 -0.02661481 0.06889922 -0.050601978 -0.1385165 -0.060542393 -0.023329172 -0.02259971 -0.004476968 -0.0040611336 0.077996895 0.054188624 0.036856614 0.09072213 -0.047101814 -0.070167065 0.09439095 0.00041326552 -0.03757931 0.100706585 0.02199979 -0.039689083 0.005928576 -0.033361934 -0.026877034 -0.11235199 -0.09512292 -0.06893361 -0.08553212 -0.023566373 -0.026258241 -0.017073957 -0.02460199 0.041800313 0.025522536 0.010908004 -0.020108692 -0.066694655 -0.004340524 0.0097114565 -0.007972524 0.10333372 0.02962932 0.1386798 -0.053016562 -0.05917135 0.067122884 -0.007855691 -0.00974778 0.022383465 0.03687598 -0.10320392 0.01619612 0.015182898 -0.034456145 -0.117697425 0.016207155 0.063096866 -0.059266545 -0.047580067 -0.10478986 -0.031833164 -0.051989388 0.114390165 -0.017214917 0.101564094 0.0496601 0.04407709 -0.012207324 -0.047590315 -0.06524703 0.04706045 0.01875896 0.08732367 0.0026569993 -0.014842704 -0.05759853 -0.033934433 -0.009423942 0.053488247 -0.057634626 -0.060035925 -0.009489677 -0.06489298 0.009422112 -0.00040576127 -0.04634469 0.056266036 -0.0025347585 -0.08856722 0.05915948 -0.06655791 -0.021808075 -0.034430105 0.08449661 -0.081182316 0.018585252 -0.05195186 -0.009715019 -0.049391534 0.002350918 -0.12903924 -0.04912048 -0.0059176316 0.026636126 0.0031357564 -0.109563194 0.010655811 0.06800699 -0.013555384 0.08472308 0.023172237 0.06620689 -0.045197234 -0.042283196 0.03761839 -0.018953368 0.0014143016 0.042746205 0.08974915 0.055425454 -0.040109098 0.08123091 0.03975472 -0.06815337 -5.6748726e-05 -0.0699119 -0.043720126 0.036076758 -0.042548597 2.8464463e-05 0.030688064 0.033099163 -0.026851498 -0.014447383 0.036182277 -0.045078356 0.004886641 -0.13192481 0.10085259 -0.008508492 0.07933535 0.07390595 -0.080651045 -0.032141965 -0.01383997 -0.018809251 -0.02087225 -0.0639157 0.011971407 0.084882334 -0.14381371 -0.013980865 -0.082588024 0.009324226 0.025133207 0.03297072 0.18056129 -0.030885488 0.017476203 0.010495135 -0.0453404 0.014263221 0.11976386 -0.032630783 -0.12066345 -0.050795317 -0.09351316 -0.007418536 0.0066914633 -0.048599567 -0.05789086 0.016967349 -0.021638097 0.026605736 -0.048537783 -0.03603703 0.01571675 0.061908852 -0.08578721 0.04317866 0.033206332 -0.07454186 0.086167805 -0.02012733 -0.0052323355 -0.09090935 0.0754448 0.0439026 -0.07792922 -0.09043763 0.08323736 -0.071609795 0.010491182 0.08310659 0.073579624 -0.08633773 -0.065708034 -0.14385973 0.03864906 -0.05857516 0.029310951 0.066452 -0.08786282 -0.038238693 0.035267442 0.035125796 0.041506644 -0.04638209 -0.06659556 0.02811435 -0.08695812 0.082776606 0.092557415 0.07334821 -0.019552594 0.026721112 -0.051720515 -0.04889331 -0.05091234 -0.103138044 -0.08373849 0.037110824 0.03444187 0.06330855 0.01729899 -0.016614784 0.014673778 0.039950896 -0.07267963 -0.03250768 -0.051289074 0.05032953 0.027248278 -0.09364331 -0.041596256 0.03531646 -0.067148715 0.10610584 0.024771698 0.0887888 -0.0050753485 -0.01710236 0.0068127513 0.027439013 -0.050574183 0.039560586 0.031058092 0.10067815 0.05781372 0.025709786 -0.05285699 -0.005470952 0.039595146 -0.028431166 -0.047790773 -0.030921627 -0.0030988357 -0.054644454 0.033703253 0.015049852 0.07129401 -0.14758784 0.020961417 -0.011590604 -0.029311398 0.0050915168 0.025338924 -0.01082902 -0.018757274 -0.018998753 0.05301358 0.036262307 -0.07661103 0.041022964 -0.012816484 0.006302017 0.028684625 0.019571772 0.04110923 -0.0159127 0.046065334 -0.06699355 0.06336471 0.0036379723 -0.10525527 -0.07054782 0.062160946 -0.03849537 0.0535286 -0.097581305 0.0144574195 0.052269857 0.01198902
penyidik -0.09297686 -0.0067916587 -0.04554752 -0.044377767 -0.024306232 -0.025453903 0.03341847 -0.027064458 0.06847375 -0.049884163 -0.13836573 -0.060266193 -0.02366504 -0.022088246 -0.0039716456 -0.0042544487 0.07813504 0.054261133 0.036574923 0.09046026 -0.047339976 -0.07045218 0.09483622 0.00022686596 -0.03815251 0.10074759 0.022071103 -0.03992901 0.0056879628 -0.033399995 -0.02650626 -0.11235954 -0.09531247 -0.068867214 -0.085446484 -0.023549959 -0.026414242 -0.017457949 -0.025532652 0.041770767 0.025538784 0.010737939 -0.02047944 -0.06704773 -0.0043369276 0.009192636 -0.007374767 0.10268533 0.029568091 0.13771102 -0.05299413 -0.059687436 0.06706153 -0.007728778 -0.009521519 0.021965183 0.03719339 -0.10323685 0.016166337 0.015641093 -0.035131477 -0.117970906 0.01617241 0.0630279 -0.05933765 -0.046892382 -0.10506617 -0.031579524 -0.05276721 0.11449173 -0.016711852 0.101348944 0.049476396 0.0438793 -0.011836071 -0.04776484 -0.06487755 0.046982963 0.018174183 0.08705046 0.0027682825 -0.015593457 -0.057697646 -0.03386299 -0.009022691 0.05356275 -0.058067426 -0.060099225 -0.010541189 -0.064299665 0.009414096 -0.0005776033 -0.046072498 0.05684987 -0.0019512107 -0.08838122 0.059028614 -0.06688931 -0.02124908 -0.033904735 0.085012384 -0.081509665 0.018212471 -0.05207642 -0.009743035 -0.050084457 0.0027389645 -0.12960319 -0.048697922 -0.006098879 0.02722221 0.0027479278 -0.10981052 0.011088791 0.06849398 -0.01362958 0.085142136 0.023237074 0.066449694 -0.04557467 -0.04289794 0.037987895 -0.019267334 0.0024446084 0.04285822 0.08928381 0.05561591 -0.040325157 0.08132842 0.039714422 -0.06839552 -0.00023195823 -0.069644816 -0.044139296 0.03603613 -0.042333882 4.7191905e-05 0.031374652 0.033701833 -0.027066462 -0.014594911 0.036068328 -0.04530878 0.004858778 -0.13225536 0.10035454 -0.008738891 0.07916911 0.07444352 -0.08152655 -0.032516185 -0.013182562 -0.01857095 -0.020664137 -0.063540824 0.011896217 0.08468697 -0.14370884 -0.014145418 -0.08272183 0.009657439 0.024746835 0.032955416 0.18070069 -0.03071538 0.017664518 0.010513345 -0.04539623 0.013763984 0.11932881 -0.032465387 -0.12043544 -0.050755028 -0.09292498 -0.0068449383 0.0063047055 -0.048669953 -0.058778577 0.017420106 -0.022097502 0.026563222 -0.04810579 -0.035688337 0.015316178 0.061648186 -0.08563443 0.043355063 0.033461146 -0.07411637 0.08594014 -0.020403365 -0.0054005655 -0.09125684 0.07537771 0.043894432 -0.07813068 -0.09007888 0.08252311 -0.07144184 0.010391978 0.08301072 0.07380414 -0.08680966 -0.06592486 -0.14332247 0.03915568 -0.057901926 0.02907472 0.06589958 -0.08818103 -0.03761364 0.035202798 0.035708044 0.041720074 -0.046145532 -0.06637981 0.027845824 -0.086827494 0.08360266 0.092883244 0.07355821 -0.018972868 0.027101645 -0.051599044 -0.049471594 -0.050418768 -0.103154734 -0.08431644 0.03650647 0.034701392 0.063043 0.016579166 -0.017069707 0.014629082 0.039998747 -0.073440835 -0.03289737 -0.051575974 0.050289236 0.027409295 -0.093706734 -0.041082907 0.035414197 -0.06776505 0.10680218 0.024817279 0.088479206 -0.005187086 -0.016018793 0.006671709 0.02784404 -0.05112505 0.03886455 0.031397704 0.10025462 0.057893004 0.025971191 -0.052429423 -0.004698723 0.039690003 -0.028662149 -0.047436584 -0.03017814 -0.0030909982 -0.054476652 0.03323468 0.015009118 0.07090835 -0.14745255 0.020297011 -0.011519433 -0.029730171 0.0054440764 0.02529573 -0.010712806 -0.018117275 -0.01914345 0.05380487 0.03588415 -0.07697814 0.041267946 -0.013009893 0.006220022 0.029219268 0.020165175 0.0409838 -0.016036183 0.046796832 -0.06705467 0.06227964 0.0037979407 -0.10494016 -0.07065374 0.061772168 -0.037966948 0.05336373 -0.09711466 0.013762557 0.05234767 0.011847749
ditabrak -0.09345015 -0.006850344 -0.046453055 -0.044458445 -0.024098445 -0.025437761 0.033178896 -0.026692864 0.06884797 -0.050666884 -0.13816623 -0.06022002 -0.023478022 -0.022466984 -0.004858613 -0.003738972 0.07783331 0.054477427 0.03658837 0.09053279 -0.04701166 -0.070154205 0.094210446 0.0004464497 -0.037648086 0.10064267 0.021392323 -0.03961152 0.006026164 -0.033074368 -0.026302814 -0.11264698 -0.09542916 -0.06922464 -0.085276715 -0.023578068 -0.026286868 -0.016880237 -0.02408355 0.041877214 0.025384746 0.010459013 -0.0200237 -0.06676593 -0.004441675 0.00914483 -0.0080968635 0.10316827 0.029886536 0.13862501 -0.052722104 -0.05890273 0.06707811 -0.0077268966 -0.010053505 0.02182568 0.037185803 -0.10328126 0.016112735 0.015394164 -0.034534015 -0.117753595 0.016400108 0.06271253 -0.05955939 -0.047048215 -0.10505598 -0.031860445 -0.052152757 0.1140446 -0.017480982 0.10159182 0.04945433 0.04438794 -0.012065059 -0.047475558 -0.065242484 0.046986297 0.018859291 0.087428994 0.0028092398 -0.015123486 -0.05778229 -0.034001093 -0.009589861 0.053537033 -0.057417843 -0.059973482 -0.00929405 -0.06476112 0.009166719 -0.00032805992 -0.04675105 0.056202844 -0.0020297486 -0.088650845 0.059091315 -0.066796444 -0.021701148 -0.034206465 0.084714286 -0.081378385 0.018350776 -0.051942747 -0.009646678 -0.049166054 0.002412235 -0.12943177 -0.048670672 -0.0066958517 0.026808523 0.0029230053 -0.10932449 0.010354157 0.06786218 -0.013368773 0.0849277 0.023435725 0.066161 -0.045393314 -0.042313874 0.038161907 -0.019021707 0.0014020635 0.04297359 0.09013304 0.05573618 -0.040109802 0.08167211 0.03967373 -0.068071015 -2.9338331e-05 -0.06947244 -0.04378536 0.03594891 -0.04280153 -8.412737e-05 0.030907532 0.03379293 -0.027140215 -0.014460779 0.036247734 -0.045328997 0.004769653 -0.13186535 0.10072969 -0.008604973 0.07906376 0.07381459 -0.08066846 -0.0325567 -0.0135244485 -0.01865143 -0.02072805 -0.06414717 0.012158846 0.085153915 -0.14358516 -0.01382688 -0.0825359 0.009360953 0.025009379 0.032890655 0.18057092 -0.030893844 0.01732546 0.010446275 -0.04486512 0.014441629 0.119893916 -0.0325969 -0.120857 -0.050627425 -0.09336945 -0.007211617 0.0064850217 -0.048449893 -0.057827085 0.016995518 -0.021807158 0.026483838 -0.0484627 -0.035929635 0.015114269 0.061981473 -0.08618008 0.043515287 0.033458527 -0.07438517 0.08583536 -0.020436356 -0.0051355967 -0.09116013 0.075823426 0.044164672 -0.07728976 -0.090210654 0.083222516 -0.071402505 0.010473792 0.08332322 0.073695704 -0.086016186 -0.06513489 -0.14362209 0.038875774 -0.058539517 0.02890461 0.06667314 -0.087652534 -0.038930323 0.035074774 0.034950763 0.04161865 -0.04669593 -0.06715799 0.028505297 -0.08702032 0.08297276 0.09239454 0.0733818 -0.019133002 0.026935836 -0.0516916 -0.04860405 -0.050713137 -0.10291292 -0.08364907 0.03690016 0.034438387 0.06326869 0.017517611 -0.016448578 0.014744616 0.040157266 -0.07242108 -0.032997224 -0.051325794 0.050567184 0.02705099 -0.093315266 -0.041631103 0.03527087 -0.0674955 0.106417954 0.02466815 0.088792354 -0.0050449315 -0.017104093 0.0065700035 0.027576264 -0.05050201 0.03953848 0.031065129 0.100439504 0.05763119 0.025900012 -0.05305779 -0.0051231356 0.039723024 -0.028570933 -0.047458407 -0.030643772 -0.0035201581 -0.054223772 0.033311386 0.0152523015 0.07154663 -0.14799783 0.0212428 -0.011329899 -0.029454432 0.0052119563 0.025550416 -0.011194086 -0.018601015 -0.018786442 0.05291927 0.036037028 -0.07657441 0.04087762 -0.012669768 0.0064767012 0.028906077 0.019490099 0.040939726 -0.016093783 0.046457198 -0.06704962 0.06348144 0.0036741698 -0.105166726 -0.07077807 0.062192693 -0.038661435 0.053722028 -0.09777377 0.014417479 0.05198836 0.011729392
istri -0.09326219 -0.0066020126 -0.0460375 -0.044046268 -0.024069518 -0.025589883 0.03346928 -0.026296904 0.0686025 -0.050005555 -0.13836977 -0.06039284 -0.023576517 -0.022580875 -0.00418304 -0.0040899487 0.07698549 0.05268023 0.0365491 0.09111658 -0.047855917 -0.07031402 0.093722135 0.00018876721 -0.037937943 0.10116795 0.021248495 -0.03976397 0.0058083506 -0.03264694 -0.02684892 -0.11179796 -0.09559404 -0.068590716 -0.08529136 -0.024064422 -0.026551088 -0.016901173 -0.025134515 0.041619822 0.025176823 0.011184718 -0.020120086 -0.066508524 -0.0044345167 0.009827792 -0.0077137942 0.10321566 0.030098531 0.1387831 -0.05253141 -0.059195854 0.067290805 -0.007947693 -0.009833337 0.021663351 0.036879502 -0.1035804 0.016046988 0.0150230685 -0.03513138 -0.11776462 0.015845528 0.0627645 -0.059455153 -0.04697 -0.1049676 -0.031647332 -0.05285498 0.11429934 -0.017907072 0.101229206 0.049792744 0.043486264 -0.012170032 -0.04697045 -0.06505876 0.04742427 0.018527979 0.08741663 0.0028652614 -0.015137102 -0.05758452 -0.033390224 -0.00893357 0.0538895 -0.057867836 -0.05957787 -0.0099545205 -0.06429981 0.009625846 -0.0003113994 -0.04659077 0.0563988 -0.002025519 -0.08907456 0.05865218 -0.06732256 -0.021979293 -0.035022713 0.0855254 -0.08142509 0.018161712 -0.05244272 -0.009729945 -0.049936567 0.0024606483 -0.12963317 -0.048224766 -0.0069452766 0.026740305 0.0027709655 -0.10973321 0.010392705 0.068477646 -0.013873131 0.08486421 0.022927854 0.065840125 -0.045731116 -0.041856922 0.038088966 -0.018646425 0.001298651 0.043038838 0.09016583 0.05554452 -0.040443767 0.08123795 0.039476186 -0.06844437 -0.00024556543 -0.06955121 -0.04403359 0.036048114 -0.042444896 7.614089e-05 0.030656898 0.033750653 -0.027009606 -0.014713468 0.036460876 -0.045037106 0.005265112 -0.13277717 0.10008799 -0.008746685 0.07958762 0.07399437 -0.08045974 -0.032699138 -0.013204092 -0.018088318 -0.02064404 -0.06478877 0.011924534 0.08436729 -0.14373906 -0.014489183 -0.082814 0.008776546 0.024497539 0.033117905 0.18096188 -0.031426825 0.016951526 0.01042433 -0.044969216 0.014504638 0.11968293 -0.032521125 -0.11983102 -0.049875196 -0.0932339 -0.0070146364 0.006901792 -0.049050122 -0.058081158 0.01650053 -0.021705616 0.027094832 -0.04814209 -0.03596281 0.015532142 0.061384108 -0.08563815 0.043005988 0.033505417 -0.07403329 0.08589333 -0.020764178 -0.0058223754 -0.09098466 0.07599866 0.04363702 -0.078123264 -0.08923824 0.08242404 -0.07179628 0.010513265 0.08286931 0.073221 -0.087167114 -0.06563419 -0.14455383 0.038610928 -0.05875423 0.029405938 0.06678208 -0.08769282 -0.03796338 0.034812707 0.03554247 0.041400485 -0.046424795 -0.06635434 0.027910745 -0.08669559 0.083256766 0.0923581 0.0734236 -0.0192141 0.0267176 -0.051108852 -0.048826534 -0.05017144 -0.10378306 -0.08381524 0.036597896 0.034736104 0.06370248 0.017075308 -0.016621366 0.014501388 0.04005305 -0.07317719 -0.032674596 -0.051398084 0.050721094 0.026449518 -0.09253809 -0.041279294 0.03520625 -0.067491665 0.10675903 0.024934825 0.08839062 -0.00558297 -0.01675536 0.00659694 0.028624373 -0.050704468 0.03984094 0.03127599 0.10055088 0.057358727 0.025594145 -0.05238684 -0.004682596 0.039498806 -0.028593503 -0.04727672 -0.030724937 -0.0025514476 -0.054800898 0.033465423 0.014860427 0.07177388 -0.14767909 0.020283274 -0.011569926 -0.030067846 0.006077327 0.025504561 -0.010425036 -0.018849477 -0.019302238 0.053331602 0.035452552 -0.07671413 0.040874295 -0.012949371 0.006844092 0.028848045 0.018736018 0.04134672 -0.016187815 0.04611056 -0.06765486 0.062159367 0.0034896135 -0.10526974 -0.07138206 0.061700225 -0.039068922 0.053751495 -0.097582795 0.014365081 0.05200332 0.012134958
menjual -0.09316787 -0.0066942372 -0.04614688 -0.044114817 -0.024038078 -0.025562767 0.03277761 -0.026690084 0.0690142 -0.04967558 -0.13836135 -0.06032598 -0.023508053 -0.022818372 -0.0044130096 -0.004048985 0.077971265 0.05346569 0.036786757 0.09054523 -0.047357615 -0.06999858 0.09443011 0.00045693872 -0.03813922 0.10106233 0.02210361 -0.03998581 0.0055683744 -0.032739222 -0.026614165 -0.11213959 -0.09477513 -0.06884199 -0.08508123 -0.02341009 -0.026238147 -0.017118238 -0.024647862 0.04182019 0.02531773 0.010577024 -0.020099983 -0.06662229 -0.004204936 0.009792234 -0.0075788037 0.10290754 0.029799346 0.13881828 -0.05330544 -0.059073795 0.06676078 -0.007141021 -0.009878294 0.021824842 0.036725435 -0.10294176 0.01636397 0.014644062 -0.034702975 -0.11762479 0.015916424 0.06233138 -0.05936365 -0.047261346 -0.10501656 -0.032232467 -0.052721094 0.114442796 -0.017022017 0.10188918 0.050336607 0.043687847 -0.011797271 -0.048104692 -0.06544909 0.04687032 0.018900268 0.0867905 0.0023912098 -0.014706328 -0.05739952 -0.0340104 -0.009791861 0.05336655 -0.057541218 -0.060142998 -0.009550993 -0.064391054 0.009266669 -0.00023000683 -0.046945903 0.056165386 -0.0020010995 -0.08848929 0.058629986 -0.067001596 -0.022104315 -0.034649678 0.084911376 -0.08150613 0.018410424 -0.052009013 -0.010025824 -0.049748406 0.002497116 -0.1287019 -0.04898763 -0.0062709968 0.027118545 0.0025000877 -0.11000965 0.010722694 0.06816324 -0.01361254 0.08509999 0.023342174 0.066404365 -0.045371857 -0.04246511 0.03818952 -0.01899815 0.0012963299 0.043006554 0.09026661 0.056087293 -0.040254872 0.08128108 0.039840683 -0.06857997 -0.0009878183 -0.06983781 -0.04402958 0.036743492 -0.043006245 0.0003173728 0.03101509 0.033087812 -0.026269255 -0.0144847315 0.036112517 -0.044994 0.0048997197 -0.132066 0.1008491 -0.008250485 0.0796677 0.074502796 -0.08110754 -0.031701665 -0.013983481 -0.018490694 -0.021169651 -0.064311564 0.012330251 0.084332876 -0.14378342 -0.014012783 -0.0822563 0.009281783 0.02508241 0.032684367 0.18077157 -0.03114365 0.017159548 0.0104253795 -0.045089323 0.014337533 0.12039007 -0.03224961 -0.12030226 -0.050362766 -0.09249185 -0.006621265 0.006265067 -0.048790753 -0.058333226 0.016345665 -0.022068303 0.026289968 -0.0481567 -0.035749387 0.015091278 0.062471412 -0.085416876 0.043343674 0.032996062 -0.0747745 0.0860593 -0.020341441 -0.005993066 -0.091000736 0.07553587 0.04403357 -0.078311846 -0.090496026 0.08272086 -0.07143146 0.010496977 0.08222187 0.07373209 -0.08641515 -0.06547103 -0.14414106 0.039573338 -0.059018772 0.028832193 0.06673804 -0.08805042 -0.038672555 0.034946922 0.034842536 0.041259855 -0.04618565 -0.06682388 0.027732745 -0.087153345 0.08347768 0.0926975 0.07361957 -0.019187633 0.027119616 -0.051677823 -0.04891893 -0.05007111 -0.102862954 -0.08409569 0.036791038 0.03449083 0.06377632 0.016780108 -0.017214833 0.014858278 0.039759587 -0.07274059 -0.03265561 -0.051584754 0.050622292 0.026708798 -0.09315079 -0.04164894 0.034924667 -0.0680779 0.10631488 0.024389144 0.08870917 -0.005049533 -0.017511757 0.006897389 0.027648581 -0.050341763 0.039381392 0.031248191 0.1005409 0.05759185 0.025500279 -0.052769594 -0.0047252653 0.039065875 -0.02849232 -0.04704603 -0.031001179 -0.002965976 -0.055062726 0.033779882 0.015295417 0.0712135 -0.14735001 0.021172505 -0.011091834 -0.029909082 0.0048676822 0.024903027 -0.010608156 -0.019070558 -0.018931124 0.053578086 0.03653014 -0.07680064 0.0406196 -0.012973103 0.007207842 0.029175159 0.019132128 0.04093901 -0.01647438 0.046504855 -0.067298226 0.062226016 0.0034198426 -0.104879014 -0.07077926 0.06200405 -0.038287602 0.053132113 -0.09743115 0.014062992 0.05140242 0.012363517
dikejar -0.09327619 -0.00693243 -0.046515748 -0.04403391 -0.024587339 -0.025602272 0.032633167 -0.026354926 0.0689903 -0.050166182 -0.1388177 -0.060400087 -0.0237116 -0.022431282 -0.004340113 -0.004070118 0.07790626 0.053409006 0.036574457 0.09032672 -0.047189858 -0.07046084 0.09421853 0.000483003 -0.037887413 0.101282574 0.02162547 -0.039963502 0.0060416865 -0.033222232 -0.026730187 -0.112179436 -0.09562826 -0.06858023 -0.085222825 -0.02350046 -0.026613573 -0.017026434 -0.023958897 0.04155169 0.025281366 0.010699331 -0.019995466 -0.06645502 -0.0040220413 0.009324173 -0.007273878 0.10270417 0.030111142 0.13833147 -0.053307213 -0.05952543 0.066928364 -0.0076011014 -0.009785065 0.022200055 0.03721735 -0.10293341 0.016291209 0.015339516 -0.034711216 -0.11772547 0.016122533 0.06270686 -0.059034213 -0.046896968 -0.10472209 -0.032148648 -0.052305453 0.11416992 -0.017228272 0.10169458 0.049860694 0.04374324 -0.0116561735 -0.047802906 -0.06529114 0.047172856 0.019132586 0.08693601 0.0030565527 -0.014875595 -0.057852194 -0.034061916 -0.009614001 0.052910347 -0.057363354 -0.05987216 -0.0095188795 -0.06418424 0.00940375 -0.0005693968 -0.046312526 0.05635619 -0.002028685 -0.0887454 0.059012633 -0.066953294 -0.021686655 -0.034451403 0.084463045 -0.081292555 0.017800953 -0.051973365 -0.009340844 -0.049711693 0.0024273493 -0.12912375 -0.048962053 -0.0062275347 0.027229961 0.0029583005 -0.10953454 0.010970429 0.06819418 -0.013779475 0.08562367 0.023872593 0.0661181 -0.045425966 -0.042169247 0.03766872 -0.018915737 0.0016284107 0.042496044 0.09013587 0.055817448 -0.040151596 0.08160524 0.039299887 -0.06816274 -0.0005521287 -0.06961448 -0.04377612 0.03674623 -0.04244876 0.00043062732 0.031042773 0.033607434 -0.026662404 -0.014542367 0.03625743 -0.044514738 0.004789626 -0.13280264 0.100233994 -0.008788738 0.079412796 0.07448104 -0.080990344 -0.032107983 -0.013976141 -0.018770775 -0.02098389 -0.06414287 0.012231144 0.0849441 -0.1438846 -0.014005346 -0.0828045 0.009045085 0.024915852 0.03302468 0.18072282 -0.03117146 0.01733855 0.010521303 -0.04522922 0.014204283 0.11995002 -0.032567345 -0.120465904 -0.050520167 -0.092914745 -0.006556561 0.0067216083 -0.048924852 -0.058061007 0.016514083 -0.022227123 0.02678178 -0.048038 -0.035694636 0.015027671 0.062317733 -0.085379034 0.04304513 0.033461314 -0.07467391 0.0857159 -0.02074099 -0.005393833 -0.09117937 0.074997805 0.04402799 -0.07824753 -0.09048084 0.08265596 -0.071721815 0.010505083 0.08251628 0.073918544 -0.08664474 -0.065749064 -0.14383201 0.038832393 -0.058755238 0.028705375 0.06627467 -0.08766023 -0.038295846 0.035116773 0.035025127 0.041819457 -0.046717346 -0.06712482 0.027829178 -0.086853355 0.08241762 0.093179025 0.074025795 -0.019205753 0.027026426 -0.05204674 -0.04893698 -0.050710224 -0.10289302 -0.08389456 0.03627771 0.034868624 0.06301584 0.017270593 -0.017154276 0.01456523 0.03983417 -0.07278822 -0.032764167 -0.05148112 0.05065799 0.02677895 -0.0930648 -0.041473858 0.03515958 -0.06745792 0.10620604 0.024806883 0.088979155 -0.0046835165 -0.01729034 0.0065976824 0.027475208 -0.05027637 0.039369736 0.031108964 0.1005479 0.05745086 0.025306847 -0.052771345 -0.004747199 0.03930921 -0.027927242 -0.04720144 -0.031529043 -0.003329426 -0.05447873 0.033819765 0.015308913 0.07161789 -0.14764214 0.020860633 -0.011221286 -0.02905656 0.0051291827 0.025071003 -0.010910375 -0.019049801 -0.019065903 0.05391034 0.035688337 -0.07632112 0.04074943 -0.01302615 0.0065946025 0.02890904 0.019147651 0.041661736 -0.015764615 0.047000166 -0.06741558 0.06283006 0.0038220158 -0.105356194 -0.070928395 0.0619475 -0.038121108 0.05356164 -0.09750663 0.014017041 0.052092772 0.012383144
disandera -0.09367617 -0.006901824 -0.04635372 -0.04386489 -0.024113797 -0.025420928 0.033210464 -0.02678498 0.06920913 -0.049976774 -0.13848458 -0.0603859 -0.023844551 -0.022781448 -0.0038647184 -0.0042436714 0.07768182 0.053547006 0.036449052 0.09134471 -0.04729144 -0.07038113 0.09414679 0.00013220285 -0.037963975 0.10130695 0.021691972 -0.0396921 0.0053825094 -0.0330434 -0.026725937 -0.112065285 -0.09589485 -0.06828274 -0.08527036 -0.023231134 -0.026045142 -0.016913505 -0.024154497 0.041462954 0.025473628 0.0104431845 -0.019760238 -0.06706415 -0.003910325 0.01023797 -0.0076972344 0.102689885 0.02975103 0.13863401 -0.05360178 -0.059232466 0.06747503 -0.007249301 -0.009728529 0.022220531 0.03757483 -0.10299267 0.015784116 0.01469276 -0.03429676 -0.117673665 0.015875127 0.0622282 -0.059647188 -0.047391918 -0.10430938 -0.032064453 -0.052360386 0.11482893 -0.017612733 0.10243449 0.05027268 0.043860354 -0.011818019 -0.048395693 -0.065196216 0.046891365 0.018317712 0.086406566 0.0028679161 -0.015355079 -0.057841174 -0.033764828 -0.009685299 0.05273276 -0.0575163 -0.06029904 -0.009652974 -0.06472906 0.009720198 0.00019605781 -0.0466575 0.056363124 -0.001775807 -0.088254906 0.057977635 -0.06705292 -0.021677345 -0.03455222 0.08529147 -0.08108053 0.01844867 -0.051738918 -0.009690013 -0.049964517 0.0020278066 -0.12895569 -0.049075034 -0.006024298 0.027398566 0.0029786744 -0.10977351 0.010891728 0.06860341 -0.013889641 0.08567522 0.023186352 0.06602695 -0.04511148 -0.0424552 0.038312677 -0.019349366 0.001619955 0.04259767 0.0905605 0.056130644 -0.03987812 0.08165433 0.039417725 -0.068806976 -0.000896574 -0.069225304 -0.044046424 0.03679284 -0.04309259 0.000114414914 0.030718911 0.034015335 -0.026613794 -0.014504059 0.03638418 -0.04534217 0.0050305775 -0.13139316 0.10078163 -0.008497571 0.0796661 0.074477 -0.081005834 -0.031780604 -0.0140759135 -0.018716637 -0.020910978 -0.06407496 0.011932031 0.0843448 -0.14344652 -0.014512225 -0.08238866 0.0085457945 0.024865443 0.033029485 0.18063454 -0.031265397 0.017078632 0.0099828625 -0.045588303 0.013887427 0.12064634 -0.031875808 -0.12036416 -0.0502837 -0.09287956 -0.0062618577 0.0064773527 -0.048583284 -0.05841299 0.015787244 -0.022246683 0.026263582 -0.04811157 -0.03565806 0.015379482 0.061997004 -0.085323885 0.04307508 0.033723623 -0.07499945 0.08553954 -0.019927172 -0.0056604343 -0.09156403 0.07511369 0.04411241 -0.077697046 -0.09072895 0.082476854 -0.07142221 0.010615776 0.08221809 0.07394637 -0.08611583 -0.06552188 -0.14336166 0.03987893 -0.05927391 0.028527712 0.065809034 -0.0874702 -0.03879021 0.035103332 0.034744486 0.041040316 -0.04654144 -0.06710985 0.027990067 -0.08678859 0.08379345 0.09300835 0.07334245 -0.018740866 0.02738968 -0.051533066 -0.049205482 -0.050438423 -0.10259303 -0.08411028 0.03686265 0.033785462 0.063766554 0.017121539 -0.016889684 0.015651591 0.03969903 -0.07220932 -0.032715444 -0.051427227 0.05072095 0.026754376 -0.09295534 -0.041486792 0.034686185 -0.06783381 0.10666323 0.025026448 0.0888304 -0.00526901 -0.017443612 0.0073737395 0.027578186 -0.050304074 0.03980823 0.03145609 0.10010528 0.057499032 0.025571438 -0.052920986 -0.004306352 0.039113425 -0.029046787 -0.0471777 -0.03107063 -0.0032653778 -0.054411437 0.03375737 0.015291859 0.070932336 -0.14759228 0.021685675 -0.011160587 -0.029628368 0.005033863 0.025210515 -0.010375504 -0.018525194 -0.01936115 0.053972956 0.0363242 -0.076853685 0.040670693 -0.013043501 0.007431398 0.028844347 0.019535646 0.041528597 -0.016395336 0.046597112 -0.067463115 0.061886635 0.0032385788 -0.1048864 -0.07068135 0.061959237 -0.03869072 0.053408097 -0.09752577 0.013998856 0.051677134 0.011912647
pencurian -0.093409926 -0.007168572 -0.046319135 -0.04409036 -0.023911595 -0.02580834 0.03294283 -0.026491936 0.06906612 -0.050180722 -0.13836735 -0.060201783 -0.023573823 -0.022416333 -0.004396279 -0.0036874388 0.07780084 0.054261457 0.03674297 0.09077029 -0.047464762 -0.07018916 0.09421198 0.00033707573 -0.03794949 0.10056008 0.02208244 -0.04017075 0.0058135316 -0.033371672 -0.026511502 -0.11226102 -0.09562606 -0.06884359 -0.0850504 -0.023513662 -0.026432559 -0.017543536 -0.02448459 0.042312697 0.025311958 0.010239237 -0.020405194 -0.06661868 -0.004044084 0.009336886 -0.0073428345 0.102783866 0.029988645 0.13831152 -0.052841134 -0.059481964 0.06700293 -0.007981598 -0.009676481 0.021824867 0.037266415 -0.10324401 0.015752709 0.0152822845 -0.0344575 -0.11805231 0.016470706 0.06266729 -0.059204075 -0.047162753 -0.104460254 -0.031972956 -0.052447896 0.11428491 -0.017407399 0.10158915 0.049646225 0.043916084 -0.011702414 -0.04784448 -0.06502407 0.04718164 0.018341165 0.087077856 0.003104439 -0.014674868 -0.058159925 -0.033684537 -0.009166008 0.05349403 -0.05733584 -0.060174607 -0.009673968 -0.064055644 0.009398118 -0.0008364757 -0.046249926 0.056492172 -0.0022761473 -0.088895895 0.05898008 -0.06720774 -0.02204055 -0.03389064 0.084997974 -0.08121435 0.018201297 -0.052057747 -0.009529648 -0.049276806 0.0025413032 -0.12939775 -0.04865363 -0.006376354 0.026902238 0.0031446884 -0.10949547 0.010770853 0.068229236 -0.013899132 0.08513443 0.023459977 0.06611635 -0.045356907 -0.042820107 0.03770757 -0.01917379 0.001705775 0.042714875 0.09006385 0.05579033 -0.040140525 0.0813898 0.039613027 -0.0683601 -0.0004799695 -0.069425344 -0.043991916 0.035878208 -0.04258807 0.00047959303 0.030825049 0.03337999 -0.02638747 -0.014124079 0.036283437 -0.045475967 0.004682362 -0.13245443 0.10068544 -0.008724044 0.079665534 0.07466618 -0.08068423 -0.032258146 -0.013815477 -0.018219227 -0.02072751 -0.06422799 0.012490499 0.08467857 -0.14380509 -0.013960243 -0.082711466 0.009669197 0.025163015 0.032870144 0.18074971 -0.031053368 0.017224051 0.010162185 -0.04539928 0.013884072 0.12045905 -0.03215576 -0.120426185 -0.050985686 -0.09306835 -0.007238014 0.0063890084 -0.048692737 -0.058427323 0.017124193 -0.021812694 0.02673707 -0.048751496 -0.03591748 0.01545266 0.061652824 -0.086077355 0.043105092 0.033369593 -0.073690504 0.085888006 -0.020319698 -0.0053768717 -0.090703696 0.075656734 0.043938704 -0.077976376 -0.09031917 0.08265346 -0.07161928 0.010279678 0.083372325 0.074080124 -0.086430594 -0.0660167 -0.14346235 0.03913252 -0.058720894 0.02914642 0.06628198 -0.08801057 -0.03821155 0.03481754 0.035383686 0.04147213 -0.046276253 -0.06649423 0.027713967 -0.08674239 0.08304334 0.0923499 0.07333405 -0.019266438 0.026708545 -0.051765002 -0.049143504 -0.050391726 -0.102996685 -0.0837547 0.03662706 0.034878846 0.06358208 0.016855752 -0.017239047 0.014321487 0.040073756 -0.07283731 -0.03232915 -0.051452734 0.050345324 0.026937852 -0.092994355 -0.041456867 0.035041273 -0.06744145 0.10630396 0.024711985 0.08879781 -0.0052169915 -0.016848026 0.0066954927 0.027763147 -0.050677225 0.039439306 0.031381402 0.10073921 0.05759927 0.025573585 -0.052919276 -0.004917159 0.03910048 -0.028805705 -0.047704984 -0.030984735 -0.0030457245 -0.05403139 0.033639535 0.014870716 0.07111953 -0.14738096 0.020682862 -0.011367744 -0.029872105 0.0050666034 0.025461031 -0.010614691 -0.018562282 -0.019360678 0.053435422 0.036224272 -0.07664732 0.041105516 -0.012408415 0.006234582 0.028868377 0.020153997 0.04125954 -0.015793411 0.04671089 -0.06705823 0.062653646 0.0034811758 -0.105137594 -0.07099105 0.06234956 -0.03864342 0.05345491 -0.09727263 0.014432002 0.051600497 0.011875782
lakilaki -0.092850484 -0.006536645 -0.04636948 -0.043566577 -0.024080068 -0.025196584 0.032962393 -0.026707815 0.06875267 -0.050122447 -0.13864358 -0.060602132 -0.023885405 -0.022984294 -0.0049880133 -0.004422621 0.07703648 0.053192705 0.036580645 0.09104029 -0.048112195 -0.07004186 0.09379281 2.8197246e-06 -0.038259584 0.101169154 0.021021308 -0.04008959 0.005646417 -0.033273406 -0.027082004 -0.11184415 -0.09569848 -0.06893522 -0.08532646 -0.023942772 -0.026533015 -0.017100131 -0.025612308 0.04168041 0.02499653 0.0116749145 -0.020747015 -0.06630755 -0.0044622086 0.00982384 -0.007256374 0.103380695 0.030528074 0.13858983 -0.052870143 -0.05922431 0.06719189 -0.007859409 -0.009643257 0.021944206 0.036753286 -0.10315706 0.016158383 0.015249137 -0.03449793 -0.117631644 0.015581095 0.062984005 -0.05927923 -0.046888087 -0.10543186 -0.031905327 -0.053026784 0.114556916 -0.017538296 0.1011235 0.049748383 0.043637514 -0.012837166 -0.047283728 -0.06484066 0.047296084 0.018755306 0.08733286 0.0027695824 -0.015001712 -0.05737393 -0.034098543 -0.0089751035 0.05362079 -0.058091633 -0.05978082 -0.009524025 -0.06406094 0.009363477 -0.00028690207 -0.04651386 0.055872183 -0.001655767 -0.08862991 0.059032053 -0.06767399 -0.021592285 -0.035111 0.08551864 -0.081869975 0.01885106 -0.051970184 -0.009544145 -0.050160956 0.0023123776 -0.13007344 -0.048556946 -0.0067982394 0.026994722 0.0030045458 -0.109677 0.010899695 0.068590015 -0.013602168 0.08486474 0.023138894 0.06598281 -0.045612436 -0.04222284 0.037540257 -0.018831886 0.0016039705 0.042696647 0.089823045 0.05570327 -0.040836234 0.0811154 0.039250754 -0.06863836 -0.00034805704 -0.069124 -0.04409242 0.0363431 -0.04217058 -0.00026205968 0.030771207 0.033758093 -0.026870983 -0.014481582 0.036118656 -0.045176342 0.0048477044 -0.13264436 0.10032618 -0.0091328975 0.07931771 0.07371577 -0.08125821 -0.032728713 -0.013286959 -0.018352523 -0.02022081 -0.064661436 0.011993168 0.08425842 -0.14353423 -0.014932946 -0.0827055 0.009103156 0.024527868 0.032806985 0.1801797 -0.031789366 0.017239623 0.010533116 -0.04491134 0.014601912 0.11955503 -0.0324025 -0.1200838 -0.050186425 -0.09363872 -0.0071980283 0.006842124 -0.04888126 -0.05838246 0.016373249 -0.021520155 0.026822675 -0.04785972 -0.036186423 0.015534742 0.061568093 -0.08655038 0.043171797 0.033563558 -0.07405699 0.08548327 -0.020541146 -0.005443617 -0.09141377 0.076220006 0.043637976 -0.07784752 -0.089546144 0.0821479 -0.07190137 0.010451886 0.082869895 0.07333822 -0.08684167 -0.06543699 -0.14411965 0.03916894 -0.058413837 0.029479468 0.06659482 -0.0873924 -0.037484568 0.034601808 0.03580069 0.04177233 -0.046792377 -0.066402666 0.028337978 -0.08662141 0.0828362 0.09231692 0.07339648 -0.019433245 0.02650705 -0.05146817 -0.049491774 -0.05098172 -0.10356915 -0.084135674 0.036756907 0.034289837 0.063605875 0.01732624 -0.016110584 0.014109741 0.039884854 -0.073109694 -0.03265767 -0.0515661 0.05089736 0.026900886 -0.09299606 -0.04116129 0.035401873 -0.06723271 0.106325984 0.024845092 0.088385254 -0.005083909 -0.016947933 0.0068064355 0.02819436 -0.050447386 0.03925197 0.03153138 0.100948595 0.056966417 0.025846148 -0.053275455 -0.0048614736 0.039545164 -0.02874288 -0.04759932 -0.03123003 -0.002532318 -0.054045264 0.033484783 0.014859804 0.07126018 -0.14758383 0.02027831 -0.011062496 -0.030186137 0.0063602547 0.025586257 -0.010084417 -0.018420449 -0.019147387 0.053696588 0.035630215 -0.07665073 0.041191846 -0.012047487 0.0071422867 0.028471898 0.018964998 0.040750332 -0.0158812 0.046293393 -0.06762613 0.06207149 0.0039845463 -0.10463338 -0.07152545 0.061405934 -0.03858374 0.05340554 -0.097865224 0.013878409 0.052133355 0.012229192
paman -0.09332635 -0.006723377 -0.04633169 -0.04362193 -0.02425198 -0.0253232 0.0334459 -0.026707062 0.06851556 -0.050053686 -0.13865456 -0.060319003 -0.024072936 -0.022699453 -0.0044955933 -0.004542576 0.07728408 0.053144988 0.036080502 0.090967245 -0.04835055 -0.070178926 0.09385765 -5.3917785e-05 -0.038114123 0.10092015 0.020983966 -0.040112928 0.005661535 -0.033204727 -0.027268678 -0.11170829 -0.09557081 -0.068671815 -0.085312165 -0.024500854 -0.026147317 -0.01730877 -0.025767077 0.041834313 0.025659917 0.011512738 -0.020412974 -0.06603725 -0.0046565086 0.009967655 -0.007440696 0.10343474 0.02999393 0.13886173 -0.05293738 -0.05976744 0.067133605 -0.008045628 -0.009629343 0.022103837 0.0366353 -0.10319424 0.015934447 0.015077319 -0.034847528 -0.11768411 0.015665235 0.06263261 -0.059390914 -0.047070533 -0.10520245 -0.031889904 -0.053195752 0.11438383 -0.017514646 0.10107814 0.049185663 0.04334479 -0.012648347 -0.047483273 -0.065034084 0.047236722 0.018882403 0.0874591 0.0027505327 -0.015245149 -0.057551496 -0.034021843 -0.009035873 0.053663276 -0.05767142 -0.059775133 -0.009692107 -0.06440929 0.009292941 -0.0005864296 -0.046422325 0.05601345 -0.0018232743 -0.08840853 0.058631845 -0.067601755 -0.021264153 -0.03506867 0.08538241 -0.08140003 0.018759618 -0.05236122 -0.009841629 -0.050095487 0.0024221437 -0.1300943 -0.048500255 -0.006686812 0.0266113 0.0027233935 -0.10983897 0.010676148 0.06849637 -0.0134539865 0.08448378 0.023556188 0.065829016 -0.04591515 -0.041960806 0.037830394 -0.019092994 0.0018941414 0.04292023 0.089545965 0.055653565 -0.040615946 0.081204064 0.03927045 -0.068944946 -0.00021457137 -0.06897851 -0.044329394 0.03631049 -0.042426027 -0.0002601939 0.030472664 0.033941537 -0.027122894 -0.014453444 0.03620279 -0.044836167 0.005106024 -0.13254616 0.100195974 -0.008955247 0.07932662 0.07426573 -0.08091056 -0.032412 -0.01272623 -0.018217178 -0.020103013 -0.06471584 0.012178288 0.08461816 -0.14391269 -0.014626764 -0.08282111 0.008956423 0.024366276 0.03276476 0.18025659 -0.0313026 0.01696216 0.010594213 -0.045148715 0.01423166 0.11946733 -0.032716278 -0.12026815 -0.050184548 -0.09351496 -0.0071089687 0.0066334363 -0.048776794 -0.058365438 0.01657707 -0.021506064 0.02698627 -0.04811005 -0.03646325 0.015741002 0.06119437 -0.08649874 0.042955533 0.033160485 -0.07397262 0.08540534 -0.021006528 -0.005745982 -0.09143661 0.07611238 0.043455068 -0.0781295 -0.08930718 0.08259182 -0.07151151 0.010511931 0.082853176 0.073625505 -0.08723428 -0.06554087 -0.14362581 0.038497403 -0.058006912 0.029226514 0.06627504 -0.087570824 -0.037391134 0.034587026 0.035649735 0.04194921 -0.04635991 -0.06633812 0.028205385 -0.08713763 0.08305198 0.09258278 0.07331333 -0.019515792 0.02681307 -0.051530484 -0.049387176 -0.050721902 -0.10345747 -0.08377964 0.03705381 0.034492996 0.063879564 0.017237952 -0.016335882 0.014319263 0.03999244 -0.07313068 -0.032604624 -0.051741634 0.05094031 0.027190058 -0.09304427 -0.04091504 0.035605498 -0.067569 0.1066755 0.024801789 0.08841241 -0.00527913 -0.016896 0.0070020864 0.02826392 -0.050712507 0.039590094 0.031486206 0.10075151 0.057061035 0.026077915 -0.0532645 -0.004972543 0.039712604 -0.028345797 -0.047601447 -0.031091262 -0.0020830818 -0.054380197 0.03334054 0.014830297 0.07182012 -0.14746341 0.020363143 -0.011408517 -0.030710153 0.006158092 0.025282385 -0.009868244 -0.018857287 -0.019180832 0.05340771 0.035740174 -0.07662727 0.04146205 -0.012005826 0.007028225 0.028649732 0.018862205 0.040910628 -0.016116204 0.04606328 -0.06773588 0.06182196 0.0039262394 -0.10462784 -0.071176924 0.06185992 -0.038456146 0.05369549 -0.09713495 0.0142817935 0.0519821 0.01190158
kpk -0.09263456 -0.006346784 -0.044896573 -0.043263823 -0.024112761 -0.025113983 0.0338475 -0.027423086 0.06729078 -0.050165188 -0.13759878 -0.06116461 -0.023197236 -0.022002626 -0.004167396 -0.004237829 0.07906598 0.05346958 0.036527056 0.08991616 -0.046484664 -0.07088583 0.094499685 0.00020571866 -0.037732694 0.10118075 0.02195474 -0.039347805 0.006665221 -0.03301653 -0.026257612 -0.11238948 -0.09493866 -0.070213586 -0.08495467 -0.024680302 -0.025630709 -0.018499961 -0.024926508 0.04250045 0.025057644 0.010431431 -0.020568226 -0.06680641 -0.0034822058 0.009450236 -0.008125988 0.10238513 0.030695908 0.1390864 -0.05294634 -0.059740696 0.06720814 -0.007150064 -0.009623964 0.02098118 0.037034716 -0.103205666 0.015824694 0.016777588 -0.034765918 -0.1172278 0.015927684 0.06431082 -0.058245268 -0.04739854 -0.104688734 -0.03195427 -0.052253414 0.11545473 -0.016550414 0.10121213 0.04981831 0.043372385 -0.012095081 -0.047767106 -0.06466564 0.04782168 0.018949019 0.08590003 0.0037479575 -0.015951196 -0.05698576 -0.033675015 -0.00855447 0.053252447 -0.057525788 -0.059859693 -0.00985334 -0.063783675 0.009359306 -0.00039904725 -0.04511748 0.057361986 -0.001779701 -0.087666616 0.05858519 -0.06652369 -0.021130798 -0.033867784 0.085049234 -0.0806577 0.01905109 -0.05275198 -0.010094639 -0.050827928 0.0030113265 -0.12974896 -0.04922069 -0.005672837 0.02720258 0.0026991602 -0.11040512 0.011336389 0.06797553 -0.013807201 0.08487015 0.023883516 0.066648774 -0.045797285 -0.04222056 0.038139418 -0.019113796 0.0026492437 0.043664046 0.08847928 0.05594674 -0.03972557 0.08125472 0.03880913 -0.068025306 -0.00023829532 -0.06895351 -0.043763015 0.036148418 -0.042111736 0.00032939552 0.031277012 0.03346297 -0.027324708 -0.013925553 0.03619228 -0.04484958 0.0050346144 -0.13186763 0.100122035 -0.009870029 0.078721926 0.07488231 -0.08187012 -0.03300931 -0.014708912 -0.018656947 -0.02065081 -0.06372311 0.011501058 0.08477041 -0.14300501 -0.014454393 -0.083354205 0.009693185 0.02567993 0.03316913 0.1804867 -0.031195592 0.016439158 0.011476455 -0.045674555 0.01419409 0.11955174 -0.032882787 -0.12045266 -0.0502772 -0.09355066 -0.0070684734 0.005671235 -0.04923845 -0.05857833 0.016605819 -0.020940509 0.026159918 -0.04825297 -0.035632413 0.015573845 0.061694752 -0.086593 0.04262489 0.032803632 -0.07441928 0.08583814 -0.019315517 -0.0051360987 -0.09141193 0.0753675 0.043576792 -0.077718526 -0.090649456 0.08210727 -0.071824245 0.01030889 0.08287671 0.07412598 -0.086027354 -0.06597935 -0.14277443 0.038231414 -0.057196956 0.029462937 0.06668678 -0.08797751 -0.037550043 0.035786472 0.03631809 0.041180678 -0.04640204 -0.0663955 0.027685296 -0.08696076 0.08362401 0.093506664 0.07421975 -0.019275159 0.027311498 -0.05184271 -0.04931747 -0.04963845 -0.10289709 -0.08357096 0.03700396 0.034131628 0.0623961 0.016995551 -0.016902113 0.016044058 0.039796386 -0.073520295 -0.032670364 -0.051706042 0.050076634 0.027435381 -0.09424118 -0.04121216 0.036387384 -0.06793179 0.10712965 0.024483275 0.08919376 -0.004767756 -0.016358646 0.006202606 0.027755305 -0.0517614 0.03868436 0.030019337 0.10142904 0.05844655 0.025465036 -0.05377837 -0.005401699 0.039654978 -0.028206442 -0.04672253 -0.03044177 -0.0018496182 -0.054570243 0.033886194 0.015856272 0.07192516 -0.1480843 0.019883338 -0.011769449 -0.03084863 0.0041484637 0.025478825 -0.010821888 -0.019644976 -0.019221945 0.05284399 0.035466682 -0.076949954 0.040916648 -0.013151034 0.005647287 0.029030355 0.020237735 0.04076647 -0.01610465 0.045405846 -0.066998795 0.06255921 0.004244397 -0.10570915 -0.0710213 0.06152313 -0.038637433 0.05402994 -0.0977887 0.013351982 0.05177665 0.01170783
prajurit -0.09343561 -0.0067312126 -0.04712535 -0.04376553 -0.023711571 -0.025514513 0.03242012 -0.0260101 0.06897243 -0.04996393 -0.13865617 -0.060856346 -0.023253497 -0.022315044 -0.0036246784 -0.0040197554 0.077989236 0.053671062 0.036311604 0.0904184 -0.04676282 -0.069867715 0.0938092 0.00018940293 -0.03801022 0.10079128 0.02188152 -0.039303835 0.0054828045 -0.03298226 -0.02655224 -0.11189013 -0.09586807 -0.06854153 -0.08551717 -0.02344289 -0.025853552 -0.017491285 -0.02433701 0.04107003 0.025631951 0.009727906 -0.019366456 -0.06665438 -0.004371592 0.009615543 -0.006916276 0.10271304 0.030171286 0.13894065 -0.05324948 -0.05934419 0.06705907 -0.0076250606 -0.0098306965 0.022007726 0.037463184 -0.103157155 0.015616544 0.014699091 -0.034752853 -0.1178337 0.01652327 0.06266512 -0.059669264 -0.04744568 -0.10501788 -0.031915348 -0.052541967 0.11441745 -0.017812207 0.10236442 0.049798798 0.04377384 -0.011851359 -0.048342343 -0.06536745 0.047466774 0.018647622 0.086988896 0.0032352558 -0.014923062 -0.057615608 -0.033642318 -0.009658764 0.052701283 -0.057577204 -0.0599179 -0.009340621 -0.06475758 0.009729453 -5.836552e-05 -0.0465482 0.056023914 -0.0017802793 -0.08890034 0.058618177 -0.06756483 -0.02195154 -0.03443386 0.0848046 -0.081356816 0.017750533 -0.05239701 -0.00953134 -0.04933525 0.0022224106 -0.12874563 -0.048809174 -0.0067515625 0.027972106 0.002899707 -0.10949073 0.010905887 0.06807631 -0.013271405 0.08565678 0.023119854 0.066212445 -0.045558564 -0.042225674 0.037794497 -0.018750533 0.0012816901 0.04253409 0.09049279 0.055930555 -0.04017211 0.08149776 0.039515123 -0.06896478 -0.00019878084 -0.069280386 -0.044046327 0.036995213 -0.04234035 -1.4498076e-05 0.030766886 0.033575263 -0.026753554 -0.014789626 0.03649203 -0.04519622 0.005347486 -0.1316375 0.10092729 -0.008045824 0.079875395 0.074346244 -0.080905475 -0.031286012 -0.013848467 -0.018727208 -0.021095933 -0.063809015 0.0121286735 0.08466072 -0.14361313 -0.014697202 -0.0819865 0.009247034 0.025030263 0.033197787 0.18044779 -0.030960409 0.017223861 0.010071704 -0.045208037 0.014730351 0.12002428 -0.032006055 -0.1198983 -0.05024503 -0.09284619 -0.006656577 0.0063548093 -0.048015006 -0.05833675 0.016443308 -0.021493066 0.026409443 -0.04861393 -0.035997447 0.015216988 0.06207952 -0.08534292 0.04289017 0.033272564 -0.07480673 0.08619767 -0.019560562 -0.005921839 -0.09096966 0.07538907 0.04396937 -0.07771811 -0.09056096 0.082848996 -0.071334064 0.011004339 0.08309762 0.07405642 -0.086030126 -0.0657249 -0.14400461 0.03965894 -0.05919736 0.028925348 0.06626795 -0.08791109 -0.0385042 0.034872126 0.03472533 0.041202135 -0.04664235 -0.06667942 0.028395968 -0.08671949 0.08346494 0.09280633 0.07324399 -0.018804751 0.02709282 -0.051811934 -0.048850108 -0.05036014 -0.102521606 -0.083982 0.03717617 0.034402035 0.0639632 0.01704327 -0.017536104 0.014821083 0.039837837 -0.073118486 -0.033013016 -0.05100951 0.051037375 0.026592007 -0.0926484 -0.04147313 0.034827698 -0.06799613 0.10658738 0.024534255 0.08896551 -0.005037306 -0.017661821 0.0066103027 0.027663628 -0.050865777 0.03990177 0.03164578 0.10045631 0.0570501 0.025562787 -0.052505575 -0.0049583255 0.039341718 -0.02825887 -0.047605414 -0.031631004 -0.003315139 -0.0549144 0.03380345 0.015456882 0.07141322 -0.14729874 0.021235544 -0.011400151 -0.029679248 0.005276521 0.025053972 -0.010196333 -0.018814387 -0.019093335 0.054035697 0.035961367 -0.07645981 0.040798802 -0.012347508 0.006846221 0.028968977 0.019622333 0.041552622 -0.016257131 0.04702771 -0.067008704 0.062313184 0.003429169 -0.1052201 -0.07086064 0.061999533 -0.03830286 0.053709004 -0.0976508 0.014361922 0.05177315 0.0117969485
kepolisian -0.09295129 -0.0066865967 -0.046245623 -0.044014797 -0.024307227 -0.025550812 0.03262178 -0.026555063 0.06920243 -0.05030993 -0.13856286 -0.060066905 -0.02340768 -0.022467425 -0.0042932383 -0.0041659763 0.07794099 0.054107387 0.03679805 0.09073656 -0.047213815 -0.06986014 0.09430944 0.00073297933 -0.03760517 0.100946724 0.021699307 -0.039716978 0.006355022 -0.033489913 -0.026820662 -0.111858666 -0.09547974 -0.069417566 -0.0853377 -0.023565764 -0.026702328 -0.017386116 -0.024654264 0.042142022 0.025478126 0.010559728 -0.020046523 -0.06676055 -0.004499277 0.009948881 -0.007359641 0.10265632 0.0300825 0.13865006 -0.053146575 -0.059331913 0.06708538 -0.007851348 -0.009283836 0.02202646 0.037080072 -0.10308002 0.015977861 0.015134649 -0.034962904 -0.118156396 0.016121892 0.06268214 -0.059240814 -0.047067873 -0.10467919 -0.03163939 -0.052712098 0.11418656 -0.017422974 0.101717584 0.04927589 0.043902345 -0.012113712 -0.04819228 -0.064818546 0.046838745 0.018808594 0.087033525 0.002940712 -0.014746662 -0.057822265 -0.033731773 -0.009532853 0.0530757 -0.0574568 -0.06001501 -0.009765949 -0.064368606 0.009499169 -0.00043698607 -0.046472836 0.056368038 -0.0018810141 -0.08901418 0.05888276 -0.06722799 -0.021567432 -0.034295768 0.08526303 -0.08080617 0.018154586 -0.052222583 -0.009959252 -0.049629755 0.0023754912 -0.12953953 -0.049057048 -0.006387855 0.027001947 0.002753363 -0.109597094 0.010478521 0.06797035 -0.013637951 0.08477959 0.023156933 0.06633855 -0.04546772 -0.04227606 0.037684564 -0.019100986 0.0018929575 0.04287361 0.08979826 0.05637079 -0.040260907 0.081207685 0.039691273 -0.06854057 -0.00021500005 -0.069498725 -0.043654617 0.03610436 -0.042271614 0.00012706657 0.031045577 0.033239614 -0.026744414 -0.014556998 0.03640765 -0.045102827 0.0048056436 -0.13198496 0.100535065 -0.008650894 0.079419784 0.07445162 -0.081213355 -0.032414302 -0.01398087 -0.018340394 -0.02032467 -0.06387274 0.011970968 0.08501652 -0.14314744 -0.014198328 -0.082690485 0.008850013 0.025120098 0.03291171 0.1807072 -0.030834856 0.017650804 0.010679987 -0.044794068 0.01434441 0.12018697 -0.032476887 -0.12078568 -0.05052079 -0.092723936 -0.007196211 0.006200584 -0.04844391 -0.05854014 0.01703693 -0.021589253 0.02671546 -0.048684552 -0.035804115 0.015365599 0.06203715 -0.085393436 0.04326875 0.03355605 -0.07378582 0.08541657 -0.019933846 -0.0053908364 -0.09136472 0.0755801 0.04379539 -0.07799064 -0.090304844 0.0825249 -0.07189305 0.010616805 0.08282315 0.07378685 -0.08644048 -0.06590335 -0.14367042 0.03906845 -0.058683716 0.029094195 0.06647152 -0.087666325 -0.038074065 0.035131328 0.035144903 0.04148157 -0.046247076 -0.066801384 0.028171463 -0.08695885 0.08317536 0.09273839 0.07334108 -0.019390399 0.026850909 -0.051444188 -0.048786674 -0.050973356 -0.10310585 -0.08412299 0.036752533 0.034765694 0.063275605 0.016920125 -0.01724782 0.014382272 0.039819743 -0.07309856 -0.0326421 -0.05121817 0.05088474 0.027027685 -0.09349618 -0.041744348 0.034678694 -0.067592315 0.10642142 0.02447156 0.08887977 -0.0048786346 -0.016931206 0.006474554 0.027726525 -0.05053593 0.03964323 0.031278864 0.10061427 0.057719294 0.025738858 -0.05289545 -0.004592398 0.03917751 -0.028813293 -0.04771169 -0.030867752 -0.0033608014 -0.054512206 0.033377066 0.014996358 0.071425185 -0.14788496 0.020892702 -0.011702591 -0.029535992 0.0053630965 0.025098085 -0.011052709 -0.018383846 -0.018976258 0.053382073 0.03619818 -0.07650625 0.040809352 -0.012787313 0.006645005 0.028762706 0.019896165 0.04095088 -0.015689392 0.046553772 -0.066715874 0.062453277 0.0037008766 -0.10510588 -0.07097909 0.061946742 -0.038801406 0.05335734 -0.09779448 0.013831823 0.051797148 0.011984137
bareskrim -0.093488336 -0.006651396 -0.04578791 -0.044669986 -0.024672668 -0.025090763 0.033004485 -0.02683211 0.068975344 -0.050059497 -0.13809113 -0.060039286 -0.023961356 -0.021908257 -0.0038876168 -0.004205564 0.078146756 0.05403556 0.036557663 0.09070604 -0.047430497 -0.07051807 0.09462716 0.0005537202 -0.037615616 0.10025601 0.021737466 -0.040120956 0.006090879 -0.033349555 -0.026260572 -0.11251442 -0.09480977 -0.0686574 -0.08573467 -0.023265814 -0.026421493 -0.017182704 -0.024597028 0.04229423 0.025630152 0.010322188 -0.020173687 -0.06681131 -0.004671915 0.009360013 -0.0072774612 0.102891505 0.029979741 0.13818069 -0.05313897 -0.05912583 0.066485874 -0.0079628695 -0.00928623 0.02215492 0.03729976 -0.10252044 0.015980717 0.015024147 -0.03509441 -0.11827561 0.016598945 0.06292441 -0.059647165 -0.046984907 -0.10468223 -0.031855542 -0.052679818 0.114522666 -0.017533462 0.10159598 0.048938666 0.043909673 -0.0117156515 -0.047693662 -0.06464661 0.047061697 0.018644853 0.087738484 0.0026708364 -0.0155002745 -0.05762632 -0.03387941 -0.009368695 0.053731915 -0.057726204 -0.0598688 -0.009913476 -0.06434491 0.009122286 -0.00059018075 -0.046681274 0.056811504 -0.0022392431 -0.08923433 0.05936868 -0.06689698 -0.021427868 -0.03442458 0.085238494 -0.08116589 0.017888123 -0.051968183 -0.009489729 -0.04965078 0.0019709272 -0.12950496 -0.04908657 -0.0063485666 0.027347771 0.00286497 -0.109651 0.010917486 0.0682671 -0.013094477 0.08471936 0.02317948 0.06609463 -0.045937654 -0.04213797 0.037670404 -0.019484922 0.001981312 0.043141022 0.08920698 0.05576219 -0.040768854 0.08122176 0.03952396 -0.06809744 -0.00019924543 -0.068982966 -0.044168837 0.036051877 -0.042085815 -0.00041311127 0.031096498 0.03383052 -0.027127106 -0.014364551 0.03604519 -0.044805698 0.0046007806 -0.13253221 0.10032887 -0.008831075 0.07906247 0.074194424 -0.08069328 -0.032649484 -0.013917769 -0.018300831 -0.02052947 -0.06418278 0.0120303985 0.08448193 -0.14338496 -0.014122584 -0.082257904 0.009086672 0.024832085 0.03300116 0.18077506 -0.030700952 0.017804684 0.010879763 -0.045469016 0.014188735 0.119702466 -0.032583624 -0.12049793 -0.05037054 -0.09338954 -0.006949179 0.0067466437 -0.048764847 -0.058642216 0.017830366 -0.021818884 0.026017416 -0.048067536 -0.03542378 0.015204888 0.06197671 -0.08592368 0.042925216 0.03333282 -0.07391603 0.08601316 -0.02077923 -0.0051022796 -0.09107856 0.075764485 0.04406371 -0.078636065 -0.09099318 0.082723044 -0.07169492 0.010464011 0.08323 0.073301904 -0.08675027 -0.06538252 -0.14370175 0.03896419 -0.05839977 0.029462945 0.066184826 -0.08760532 -0.037445486 0.035222914 0.0349519 0.041379742 -0.0462814 -0.06670404 0.027841147 -0.08698205 0.084145784 0.09219805 0.073430076 -0.01886673 0.027139377 -0.051352922 -0.049056973 -0.050591998 -0.10331915 -0.08416073 0.036548212 0.03454484 0.06304996 0.017027749 -0.016934605 0.014736956 0.039573833 -0.07341249 -0.03268208 -0.05180229 0.050561715 0.027570836 -0.09351695 -0.041759904 0.035281047 -0.068021715 0.10657827 0.024164129 0.088543475 -0.004805406 -0.016625665 0.006667 0.027643582 -0.051007748 0.03909044 0.031307418 0.1013027 0.05725539 0.02600021 -0.052957095 -0.0050975434 0.03916449 -0.028225135 -0.04770563 -0.030822689 -0.0033554048 -0.054633867 0.0332928 0.014769585 0.07118947 -0.14793645 0.020840723 -0.01149165 -0.029911457 0.0054104617 0.024976792 -0.011052538 -0.018003024 -0.018623663 0.053312976 0.035869885 -0.07681161 0.040741898 -0.01268632 0.0065367464 0.028961632 0.019372605 0.04130372 -0.016133746 0.046350554 -0.06668961 0.062749416 0.0038090919 -0.10435705 -0.07066117 0.061947066 -0.03866538 0.05329954 -0.09702467 0.013921953 0.052297466 0.011566986
