siswi -0.14888358 -0.01045672 -0.074993305 -0.069741726 -0.03937819 -0.04151439 0.05272151 -0.04411226 0.110775426 -0.081809476 -0.22430275 -0.09877229 -0.03797604 -0.0369875 -0.007796195 -0.0067655845 0.12460279 0.08642519 0.058883213 0.14761636 -0.077089496 -0.11208236 0.15223053 -0.0007711468 -0.060573008 0.16361183 0.034792095 -0.06361563 0.009045488 -0.05484198 -0.04295023 -0.17898513 -0.15466382 -0.11010805 -0.13821137 -0.037456747 -0.043086525 -0.028927576 -0.041444454 0.06783602 0.04094967 0.017785298 -0.032700066 -0.10740182 -0.006743616 0.016349165 -0.011948938 0.16613983 0.049542915 0.22445036 -0.08556244 -0.09647169 0.10908082 -0.011579874 -0.015373092 0.03457696 0.059590515 -0.1665996 0.0246751 0.024610352 -0.056431357 -0.19005364 0.025736332 0.10069484 -0.09487045 -0.0765233 -0.17018221 -0.050786253 -0.08556956 0.185362 -0.027605617 0.16381988 0.08024585 0.070518844 -0.020930009 -0.07686261 -0.103926904 0.07654118 0.029941881 0.13989958 0.004162827 -0.021912256 -0.093037315 -0.054274168 -0.015648806 0.08586566 -0.09398689 -0.09756067 -0.014652089 -0.103585504 0.014528167 0.00021741704 -0.07579053 0.09111161 -0.0025986037 -0.14309071 0.09434354 -0.11004856 -0.035744846 -0.056622922 0.13664463 -0.13137612 0.03003818 -0.08414703 -0.016264299 -0.08064947 0.0040014167 -0.20937376 -0.078584775 -0.010473824 0.043089543 0.003932696 -0.17687418 0.0172386 0.110562295 -0.020558206 0.13740456 0.03738079 0.10648015 -0.074083716 -0.06953451 0.059934925 -0.02986005 0.0016326732 0.070497796 0.14631899 0.08853822 -0.06420361 0.13191397 0.064569764 -0.111918524 -0.0010337912 -0.111689 -0.0716765 0.058688756 -0.069433086 -0.00042146732 0.0501096 0.054961696 -0.042515427 -0.023575515 0.058676682 -0.07132279 0.008090679 -0.21273723 0.16252734 -0.01493201 0.12788846 0.1191225 -0.13007055 -0.0508811 -0.02097271 -0.02859239 -0.031722248 -0.10522825 0.02034423 0.13586353 -0.23224133 -0.0253304 -0.1341725 0.013516423 0.04005061 0.05304365 0.29135668 -0.049836196 0.02631353 0.016980447 -0.07326082 0.022897033 0.194214 -0.05174804 -0.19375671 -0.080395445 -0.15071954 -0.011263138 0.0112109985 -0.0789387 -0.09321462 0.027061494 -0.03489198 0.042988546 -0.07870156 -0.057413664 0.024547808 0.098333865 -0.1386859 0.06947101 0.053776395 -0.118608825 0.13799699 -0.033306763 -0.009465495 -0.14598806 0.1213854 0.070233814 -0.12731113 -0.14373928 0.13336393 -0.11623299 0.016648607 0.13314396 0.1181099 -0.14060341 -0.105060905 -0.23127066 0.06304806 -0.09595783 0.047098637 0.106987864 -0.14068133 -0.061449554 0.05585381 0.056613445 0.06646788 -0.07478779 -0.10744882 0.04677035 -0.13952886 0.13472709 0.14859723 0.11806505 -0.032639112 0.04280695 -0.082536526 -0.07931311 -0.08081723 -0.16737199 -0.13565998 0.06024629 0.054451488 0.10287437 0.026408307 -0.0270631 0.022149876 0.06296272 -0.117922075 -0.052680537 -0.08196989 0.08185155 0.04339495 -0.14913179 -0.06687527 0.056302916 -0.108067565 0.17171986 0.04089503 0.14137405 -0.008985653 -0.027400129 0.011569831 0.045412444 -0.08163249 0.06386971 0.051382266 0.16282311 0.0920449 0.04144818 -0.08681394 -0.007895501 0.06320674 -0.045880686 -0.07617432 -0.049169894 -0.0040219408 -0.08703514 0.05521154 0.022655386 0.11482193 -0.23725533 0.03440532 -0.017562086 -0.047700044 0.010875802 0.040720087 -0.01573089 -0.030369915 -0.030854436 0.08556035 0.057864413 -0.12218995 0.06669159 -0.020130275 0.010675437 0.04697089 0.03037317 0.065535836 -0.024969893 0.07468282 -0.10933978 0.09938683 0.005160481 -0.17007853 -0.11522834 0.10008292 -0.06165677 0.08645977 -0.15763423 0.02246364 0.08421761 0.019779759
tersangka -0.16814135 -0.012339367 -0.0833928 -0.07901365 -0.04342129 -0.045249905 0.059343975 -0.04750989 0.12343082 -0.090456694 -0.24951273 -0.109024756 -0.042616833 -0.040454745 -0.007791684 -0.008388198 0.13963807 0.09570402 0.06550673 0.16341199 -0.086726226 -0.12606755 0.16905083 0.001413612 -0.06770194 0.18103918 0.03900882 -0.0713117 0.009915732 -0.059651665 -0.048724692 -0.20177607 -0.1721555 -0.123670794 -0.15507765 -0.04336428 -0.047251422 -0.031462207 -0.0459657 0.07508621 0.04508043 0.0202354 -0.03653643 -0.119979754 -0.008696011 0.0171904 -0.013162642 0.18593481 0.054745387 0.24928194 -0.09504884 -0.10712987 0.12030306 -0.014302262 -0.01681331 0.039276052 0.065884955 -0.1852159 0.029212406 0.027087992 -0.06260598 -0.21174105 0.02819364 0.11312225 -0.10599895 -0.08499543 -0.18982457 -0.056610305 -0.09540194 0.2053381 -0.031735357 0.18109474 0.08825586 0.07857807 -0.022638077 -0.084778436 -0.11806351 0.084760584 0.034102183 0.15697911 0.004728958 -0.026984278 -0.10221311 -0.06126669 -0.016701443 0.09683344 -0.104176074 -0.10753861 -0.017889915 -0.116120175 0.015616652 -0.0015276587 -0.08344856 0.1004502 -0.0031609382 -0.15978725 0.10563335 -0.120985515 -0.03874342 -0.06361277 0.1530464 -0.14703701 0.033192266 -0.09466445 -0.018213235 -0.09028283 0.0040335893 -0.23361273 -0.08816589 -0.01222731 0.048071735 0.005264356 -0.19784524 0.019399714 0.12299484 -0.024547406 0.15201804 0.042092726 0.1191641 -0.082042776 -0.0760436 0.06754823 -0.034392554 0.0037387793 0.07677985 0.1613593 0.099584654 -0.07304875 0.1454173 0.07048773 -0.12340771 -0.00016839393 -0.124265045 -0.079875335 0.065522656 -0.07567167 -0.00029123202 0.055726197 0.060974553 -0.048842147 -0.026505455 0.06459147 -0.08084181 0.00901608 -0.23880142 0.18022774 -0.014973744 0.14345884 0.13322352 -0.14583811 -0.059309747 -0.023282956 -0.033247575 -0.036462143 -0.11667565 0.022246566 0.1521383 -0.25830966 -0.02595492 -0.14914745 0.01646299 0.043865446 0.059037186 0.32418823 -0.05682112 0.03089496 0.019710952 -0.080902584 0.026042145 0.21559417 -0.05925507 -0.2156361 -0.090293296 -0.16770202 -0.012476108 0.012042851 -0.08817624 -0.10394889 0.029975502 -0.038690977 0.0484097 -0.08691657 -0.06517876 0.027461842 0.11143271 -0.15527126 0.07723429 0.059297033 -0.13344797 0.1535898 -0.037016876 -0.009744271 -0.16336708 0.13681468 0.07792558 -0.14083707 -0.1617273 0.14861001 -0.12931475 0.017964968 0.14909518 0.13258255 -0.15717351 -0.11752553 -0.25902528 0.06914673 -0.10461575 0.05295852 0.11886877 -0.15718476 -0.06779723 0.062347706 0.06465005 0.075204544 -0.08375391 -0.1187177 0.050092936 -0.15666524 0.14947654 0.16611864 0.1331664 -0.03465605 0.047872063 -0.09288567 -0.08965321 -0.09123705 -0.18616867 -0.15083191 0.06565938 0.062498767 0.11386037 0.031084375 -0.029255614 0.025187 0.071574636 -0.13145563 -0.057801843 -0.0923544 0.091072835 0.04834025 -0.1677559 -0.074288756 0.063544095 -0.1221008 0.19189125 0.044380825 0.15911405 -0.00886188 -0.030220866 0.011448955 0.05064856 -0.090614654 0.07033577 0.056280494 0.18064941 0.10195503 0.04658308 -0.09526832 -0.008988793 0.07090317 -0.050752323 -0.0859877 -0.05560673 -0.004517634 -0.09769565 0.060891654 0.026780961 0.12844437 -0.2650391 0.036418565 -0.020886859 -0.053598143 0.011749334 0.044948895 -0.01859125 -0.033557497 -0.034333233 0.09557834 0.06338949 -0.13785349 0.074467294 -0.022499481 0.011937002 0.0513653 0.034918826 0.074317925 -0.029182432 0.08364824 -0.12117482 0.112227246 0.0063446197 -0.18802105 -0.1285862 0.11187663 -0.06999132 0.09601999 -0.1758364 0.02486339 0.094653934 0.02224707
kelompokkriminalbersenjata -0.16881827 -0.011873179 -0.084222525 -0.07873871 -0.04385899 -0.04611232 0.059372973 -0.04821984 0.12481845 -0.090546004 -0.2511662 -0.10972851 -0.043009024 -0.041104645 -0.0077547817 -0.00818617 0.14016719 0.096713305 0.06611548 0.16503577 -0.08621482 -0.12653956 0.17027088 -0.00011658632 -0.06867499 0.18362275 0.03908016 -0.072497904 0.010150832 -0.05921938 -0.048440773 -0.20269768 -0.17295583 -0.12436938 -0.15528756 -0.043739136 -0.04687035 -0.031157296 -0.045633394 0.07488757 0.04600405 0.01947931 -0.03587534 -0.119826086 -0.008622374 0.01806171 -0.013249829 0.1862265 0.054642163 0.25145698 -0.0961157 -0.107484326 0.12234171 -0.013543224 -0.01767936 0.039704278 0.06680673 -0.18654147 0.02821047 0.026165454 -0.06293087 -0.21327546 0.028937718 0.11265594 -0.10730371 -0.0852281 -0.19055769 -0.057479594 -0.09595772 0.20774288 -0.031417936 0.18406586 0.090299085 0.07867298 -0.022601392 -0.08679918 -0.11777241 0.08595709 0.03440415 0.15757227 0.0051927143 -0.02730575 -0.103910945 -0.061112136 -0.017177137 0.09607338 -0.10469406 -0.10917033 -0.01716504 -0.11771259 0.017013017 0.00021767757 -0.085130505 0.10074102 -0.0023792724 -0.16034864 0.10537194 -0.122865885 -0.039937533 -0.06421691 0.1546266 -0.1474533 0.0332607 -0.094164185 -0.018134847 -0.09028214 0.0033608514 -0.2340143 -0.08784995 -0.012422673 0.049193032 0.0051396764 -0.19852875 0.01955849 0.12323919 -0.024669096 0.15393567 0.04223835 0.11961947 -0.08270241 -0.07573545 0.06794807 -0.03415993 0.0016296797 0.077759795 0.16415583 0.100933395 -0.0731922 0.14723504 0.072132744 -0.12566595 -0.00023489003 -0.1256505 -0.08074388 0.06644172 -0.07783195 -0.000458732 0.054900583 0.061174408 -0.048543006 -0.026133696 0.06550946 -0.08232133 0.009823618 -0.23941855 0.1819894 -0.015679508 0.14487812 0.13489646 -0.14631517 -0.05746773 -0.024703618 -0.03337026 -0.037084475 -0.11676793 0.022271072 0.15279031 -0.26035678 -0.027056392 -0.14885 0.01610179 0.044510055 0.05976238 0.3274307 -0.05753025 0.030907862 0.018668978 -0.08226046 0.026115475 0.2174195 -0.05862182 -0.21782923 -0.090478204 -0.16912073 -0.012270351 0.011965517 -0.088255584 -0.10579369 0.029078798 -0.039485272 0.04839731 -0.08739892 -0.06507144 0.027925747 0.11081892 -0.15592791 0.077334665 0.060450025 -0.13454685 0.15501 -0.036707167 -0.011321588 -0.16512807 0.13763756 0.07898097 -0.14165641 -0.16269736 0.14938405 -0.12978122 0.019596856 0.14982584 0.1344643 -0.15756328 -0.11798944 -0.26068914 0.07081867 -0.10645236 0.05289529 0.11976062 -0.15876178 -0.06896461 0.063614346 0.06340929 0.07581812 -0.08432322 -0.12090141 0.05119921 -0.15696551 0.15113835 0.16781391 0.13302016 -0.034525078 0.048803672 -0.09297766 -0.089788646 -0.09183955 -0.18680322 -0.15269732 0.066851094 0.06207543 0.11639546 0.030459043 -0.030110538 0.026713667 0.07226739 -0.1322941 -0.058450818 -0.0924535 0.092149705 0.04866451 -0.16819671 -0.075092465 0.063078135 -0.12251956 0.19317494 0.045190908 0.16087085 -0.009450828 -0.031566422 0.012918507 0.05085692 -0.09171928 0.071912944 0.057339765 0.18232304 0.103155375 0.046517834 -0.096708275 -0.008612923 0.07161055 -0.051128175 -0.08661419 -0.056402367 -0.005088142 -0.09855679 0.060888834 0.027139049 0.12967378 -0.26741531 0.03784161 -0.020856967 -0.05454746 0.011048917 0.04568888 -0.017751802 -0.03449381 -0.03476559 0.09692213 0.0652624 -0.13890113 0.074132584 -0.021930328 0.012957594 0.05173935 0.03405873 0.0750059 -0.029387096 0.08452399 -0.12221898 0.11192829 0.006322919 -0.18977289 -0.12903182 0.11214184 -0.06993387 0.09777128 -0.17732212 0.025485564 0.09433154 0.021965235
ditangkap -0.16555609 -0.012873246 -0.082983635 -0.07715212 -0.04199519 -0.044958066 0.058221124 -0.046249606 0.12196751 -0.08877044 -0.2455487 -0.106905915 -0.042171933 -0.040248793 -0.007856048 -0.007701949 0.13699095 0.09420415 0.06494986 0.16128401 -0.085526355 -0.124198675 0.16653977 0.0006455734 -0.066887714 0.17770924 0.03705971 -0.07072074 0.009667076 -0.057946756 -0.046953328 -0.19826378 -0.16861293 -0.12217314 -0.15244082 -0.04241169 -0.046752527 -0.030197542 -0.04377353 0.07488474 0.04419788 0.020109259 -0.037099626 -0.117187366 -0.008392432 0.017058823 -0.012711376 0.18268402 0.053803716 0.24522704 -0.093071036 -0.105895445 0.11877164 -0.014584393 -0.016345613 0.039193947 0.06478876 -0.18312554 0.029111963 0.027274722 -0.061699614 -0.20847958 0.027516939 0.111759156 -0.10411061 -0.08346066 -0.18632556 -0.056648415 -0.09338338 0.2008335 -0.03112217 0.17811804 0.08683076 0.07722202 -0.021827357 -0.082956985 -0.115351915 0.0836155 0.034140415 0.15502487 0.0050342698 -0.026518177 -0.10141096 -0.060769416 -0.016481254 0.09521378 -0.10160658 -0.105487175 -0.017055426 -0.1137978 0.015399533 -0.00090087904 -0.082278445 0.09864363 -0.0037988247 -0.1569485 0.10387983 -0.118713535 -0.038597636 -0.06164156 0.15088007 -0.14461091 0.032229833 -0.092366755 -0.017503412 -0.08872336 0.003892283 -0.22990777 -0.08636112 -0.012222339 0.04746163 0.005650182 -0.19352211 0.019119881 0.12133622 -0.023192259 0.15007074 0.041167006 0.1168591 -0.08065462 -0.07523112 0.06615369 -0.03284742 0.002879038 0.075328924 0.15919246 0.09818502 -0.07199476 0.14356478 0.06912613 -0.12123112 -0.00058267906 -0.12214705 -0.07816686 0.06489981 -0.074722044 0.0004015756 0.05445071 0.05936999 -0.04870703 -0.025219608 0.064062454 -0.079497434 0.008577705 -0.2352965 0.17688215 -0.014828632 0.13998732 0.13028483 -0.14303084 -0.05833375 -0.023219403 -0.032696594 -0.03566941 -0.11385024 0.022001624 0.14949669 -0.25427455 -0.025297686 -0.14737403 0.016412672 0.043204207 0.057831902 0.31917837 -0.055537708 0.031167893 0.019041173 -0.07939789 0.025818462 0.21138494 -0.057753596 -0.2123936 -0.08856161 -0.16507027 -0.011889154 0.011488492 -0.08621548 -0.10408988 0.029290438 -0.03902369 0.048314173 -0.08519317 -0.064001255 0.027554752 0.10913254 -0.15322885 0.07600846 0.058353387 -0.13198422 0.1515547 -0.036762603 -0.008954733 -0.16117246 0.13505465 0.07693717 -0.13839445 -0.15951796 0.14566025 -0.12719586 0.018924918 0.1470819 0.12961544 -0.15397893 -0.11557647 -0.2547326 0.06760164 -0.102624685 0.052079678 0.11702332 -0.15494019 -0.06704538 0.061437 0.06319123 0.07318483 -0.08234261 -0.116768524 0.04976074 -0.15392496 0.14632972 0.16333732 0.13055296 -0.034394994 0.04675252 -0.09109629 -0.08753606 -0.090608545 -0.18329419 -0.14805153 0.065109655 0.06208407 0.11184377 0.029463978 -0.028409362 0.025068127 0.070751496 -0.12996568 -0.05702771 -0.09152608 0.089299984 0.04751196 -0.16591492 -0.07229308 0.06267719 -0.11935668 0.18714944 0.04349507 0.15667334 -0.009045352 -0.030030861 0.011372864 0.04965639 -0.088766955 0.0693872 0.054571252 0.17806679 0.10022086 0.045444287 -0.09310219 -0.008674082 0.07040405 -0.049563274 -0.08369112 -0.054786082 -0.004532545 -0.09585718 0.060068827 0.026594957 0.12721717 -0.2612011 0.035286378 -0.020399597 -0.05300308 0.0104183955 0.044695742 -0.018878099 -0.033721544 -0.033266507 0.09404234 0.063309655 -0.13575713 0.07266193 -0.021944596 0.012500708 0.050083563 0.034549877 0.07286249 -0.028199833 0.08264823 -0.119710706 0.11135277 0.0065593817 -0.18457517 -0.12591073 0.10976693 -0.06785812 0.09418872 -0.17258285 0.024086412 0.09248019 0.021799767
menangkap -0.15749763 -0.011758242 -0.07936184 -0.073798805 -0.040118836 -0.04333381 0.055383336 -0.044212133 0.11602794 -0.085117765 -0.23443232 -0.10155037 -0.040298544 -0.038204018 -0.007608207 -0.007349642 0.13117048 0.08963634 0.06201797 0.1537979 -0.08168122 -0.11790739 0.15891458 0.0005418405 -0.06390256 0.16943477 0.034620382 -0.0677305 0.008824203 -0.056006867 -0.04543859 -0.18851043 -0.16077156 -0.11687054 -0.14528127 -0.041222345 -0.04473818 -0.028998284 -0.042738244 0.07138618 0.04261189 0.019232588 -0.035118535 -0.1116484 -0.00773465 0.016376788 -0.012773729 0.17378408 0.05111893 0.23401657 -0.08839182 -0.101121776 0.11324161 -0.01432268 -0.015812317 0.037146684 0.061975952 -0.17436703 0.02785375 0.025572903 -0.058495652 -0.19934529 0.026154825 0.10665444 -0.10023574 -0.07935222 -0.17732799 -0.054095816 -0.08936925 0.19232796 -0.029681288 0.17058213 0.08315076 0.07346392 -0.020920448 -0.079319894 -0.1103641 0.08002131 0.032120954 0.14815716 0.0049867067 -0.024991713 -0.09689203 -0.057802256 -0.016566165 0.0907716 -0.09671429 -0.10073428 -0.01612677 -0.108311355 0.014799572 -0.001109306 -0.07880442 0.09350733 -0.0035903545 -0.14909197 0.09963515 -0.11344453 -0.036791325 -0.058671642 0.14340892 -0.13777189 0.031339698 -0.08858969 -0.017128602 -0.085143454 0.0037896582 -0.2188099 -0.0827583 -0.011958365 0.045380037 0.0057662525 -0.18451725 0.017955152 0.11571349 -0.02326565 0.1430992 0.03899687 0.11182044 -0.07705602 -0.071208574 0.063373715 -0.031604674 0.003202409 0.072184525 0.15170215 0.09414626 -0.069083616 0.13641927 0.066377036 -0.1152133 -0.0008589819 -0.1162298 -0.07512645 0.06189375 -0.07135374 -7.184763e-05 0.052326694 0.05639313 -0.045532342 -0.024511885 0.060688093 -0.075739115 0.0077550164 -0.22412401 0.16941419 -0.014553934 0.13451338 0.12505785 -0.13703549 -0.055433087 -0.022736574 -0.031522337 -0.033917353 -0.108597726 0.020577408 0.14267416 -0.24255861 -0.024547655 -0.13976376 0.015880061 0.04151159 0.054884486 0.30498502 -0.052583016 0.029628715 0.018078309 -0.075953305 0.024433354 0.20203653 -0.05605929 -0.20304269 -0.08473442 -0.15783732 -0.012398131 0.011095365 -0.082519256 -0.09830856 0.02782406 -0.036811035 0.04630625 -0.08119022 -0.06166044 0.025878558 0.10424954 -0.14604373 0.07267619 0.05559622 -0.12521602 0.14475067 -0.034705505 -0.009278625 -0.15328763 0.12886557 0.07385436 -0.13211721 -0.15202278 0.13880749 -0.12126438 0.017852664 0.13989878 0.12379328 -0.14734422 -0.11018342 -0.2430127 0.064766735 -0.098216034 0.049624328 0.112338886 -0.14816754 -0.06364466 0.058669385 0.060591407 0.06929465 -0.078104064 -0.110759005 0.047366638 -0.14694111 0.14059538 0.15544522 0.12470096 -0.032568626 0.044539552 -0.0871547 -0.08357073 -0.08588661 -0.17432839 -0.14221139 0.062246762 0.05797202 0.10700376 0.027350027 -0.027740872 0.024767173 0.067474596 -0.123693265 -0.054475736 -0.087417096 0.08603407 0.045601167 -0.15801036 -0.069191925 0.05958307 -0.11375862 0.17931977 0.041276667 0.14917044 -0.008409241 -0.029077273 0.010306902 0.04762764 -0.0845769 0.066003606 0.05214874 0.17046095 0.09584866 0.043240253 -0.08901486 -0.0080568995 0.067132816 -0.047909502 -0.07964588 -0.052320674 -0.0033981516 -0.092027426 0.05779622 0.025002133 0.12125163 -0.24836807 0.033536423 -0.019325653 -0.05090439 0.010304579 0.0422365 -0.018204698 -0.032126993 -0.03125495 0.09006866 0.060318 -0.12909772 0.069047034 -0.020493472 0.012122214 0.047583874 0.032489125 0.06933551 -0.0267369 0.078944676 -0.11476355 0.10600569 0.0056982464 -0.17643355 -0.12061501 0.10487279 -0.0649269 0.08969035 -0.16456881 0.023030328 0.087923296 0.020921277
melecehkan -0.16643657 -0.011420174 -0.082639694 -0.077953584 -0.042607766 -0.04486307 0.059174582 -0.04687725 0.12205461 -0.08950288 -0.24705523 -0.10727733 -0.042390823 -0.03926097 -0.007615238 -0.007298294 0.13812874 0.094635785 0.06543502 0.16258116 -0.085548595 -0.12453698 0.16778837 0.00079852494 -0.06763891 0.17971995 0.03740944 -0.071454816 0.010189832 -0.059163142 -0.04800902 -0.19955054 -0.17076054 -0.122718036 -0.1526145 -0.04302468 -0.046502233 -0.031154616 -0.045526262 0.07501064 0.045187 0.020613158 -0.036236703 -0.11777812 -0.008329413 0.016936863 -0.013365357 0.18375799 0.054456122 0.24592689 -0.09367312 -0.10553703 0.12051385 -0.013417979 -0.016899025 0.039679654 0.06538074 -0.18383864 0.028891547 0.027207205 -0.061506923 -0.20987597 0.027917383 0.11229192 -0.10501391 -0.0833745 -0.18702479 -0.05667176 -0.09405025 0.2034867 -0.03154925 0.18073033 0.08836536 0.07811017 -0.021034943 -0.08388373 -0.11620313 0.084650405 0.03325591 0.15499955 0.0049794037 -0.02698932 -0.10185122 -0.05979843 -0.016780673 0.09585375 -0.10324648 -0.106634855 -0.017090555 -0.114181325 0.017025027 -0.00050065777 -0.08264469 0.10012083 -0.003380738 -0.15730818 0.10439873 -0.120042704 -0.03747955 -0.06282865 0.15179175 -0.1450222 0.03295601 -0.09301869 -0.017436242 -0.0894399 0.003812473 -0.23045442 -0.08596999 -0.012263364 0.047990054 0.005384688 -0.19588973 0.019193396 0.12115088 -0.023905704 0.1510418 0.04186487 0.11806453 -0.0810348 -0.075192645 0.06702315 -0.033395503 0.0032184145 0.07638076 0.16051108 0.09936248 -0.07238294 0.14403354 0.07054171 -0.1218783 -0.0014216602 -0.12294154 -0.07865611 0.064385846 -0.07568223 -0.00024334082 0.055166926 0.059851214 -0.047518976 -0.025663404 0.06416372 -0.07983952 0.009051667 -0.23630273 0.17862587 -0.015711563 0.14078437 0.13165791 -0.14404042 -0.057874713 -0.02349298 -0.03162915 -0.036045507 -0.11403974 0.02168094 0.14959118 -0.2567698 -0.025877073 -0.1471185 0.015342025 0.043813087 0.0578358 0.32135665 -0.056031276 0.030581014 0.018747948 -0.08007956 0.026048573 0.21236649 -0.05747351 -0.21413518 -0.08923591 -0.16646747 -0.0124416435 0.01135134 -0.08665343 -0.10429145 0.028680965 -0.037863556 0.047026653 -0.08558492 -0.06444741 0.02726204 0.108863115 -0.1540559 0.0766106 0.059421733 -0.13205263 0.152438 -0.036641154 -0.009929887 -0.16215432 0.1351524 0.07829809 -0.13982956 -0.15950301 0.14678343 -0.12798023 0.018154955 0.14800154 0.1314559 -0.15553205 -0.116380155 -0.2558417 0.069218986 -0.10302307 0.05254763 0.117476396 -0.15560478 -0.06677107 0.061666455 0.06300405 0.073797435 -0.08299473 -0.11847995 0.05055196 -0.15540102 0.14788583 0.1645282 0.13063076 -0.03507238 0.047974356 -0.09130238 -0.08787869 -0.09064001 -0.18428347 -0.14937855 0.065871306 0.06178982 0.11289674 0.03030112 -0.02927758 0.024915602 0.0711867 -0.1306461 -0.058580145 -0.0915039 0.09022144 0.047858756 -0.16555844 -0.07377552 0.06370925 -0.12010551 0.1894645 0.044615824 0.15751947 -0.0090702 -0.029834712 0.012211161 0.05053549 -0.09011282 0.07020026 0.055800844 0.18001635 0.10172955 0.045165654 -0.09480012 -0.008594028 0.07018052 -0.050248332 -0.08506247 -0.055471245 -0.003852579 -0.09678039 0.060499523 0.02709449 0.12712601 -0.2622419 0.036421422 -0.0204143 -0.053298227 0.010660769 0.044912435 -0.018034719 -0.033647038 -0.03401518 0.09502884 0.063420355 -0.13642843 0.072752476 -0.02140145 0.0123712085 0.051013418 0.0340195 0.07393324 -0.027935745 0.08289143 -0.120992646 0.110899195 0.006989232 -0.18674125 -0.1268504 0.10967118 -0.06934385 0.096360154 -0.17367633 0.02486991 0.092812076 0.021360172
pembunuhan -0.16235223 -0.012155761 -0.08063673 -0.07621542 -0.0428014 -0.044219326 0.057431616 -0.04668194 0.12048563 -0.087243654 -0.24258137 -0.105569154 -0.04016443 -0.039140612 -0.008062344 -0.0070698536 0.13531573 0.09210978 0.06394613 0.15819974 -0.08351312 -0.122822 0.16426067 0.0004929541 -0.06552946 0.17657037 0.036066633 -0.06956426 0.010141914 -0.057126608 -0.04672715 -0.19596037 -0.1681127 -0.12030304 -0.14859472 -0.041868463 -0.046659715 -0.029774798 -0.04387949 0.07307771 0.044049434 0.019798078 -0.034337223 -0.11636619 -0.00799575 0.016672062 -0.013092076 0.181062 0.052793585 0.24238123 -0.09206077 -0.10401442 0.11674948 -0.014522318 -0.016974453 0.03830862 0.06467999 -0.18011992 0.02841212 0.026048105 -0.05964715 -0.20568281 0.026909467 0.10989342 -0.10307042 -0.0823588 -0.18456991 -0.055059 -0.09268913 0.20039321 -0.03117951 0.17666821 0.08703747 0.07681836 -0.022115415 -0.08256885 -0.1138821 0.08261842 0.03326732 0.15324257 0.0047904444 -0.025929665 -0.09977628 -0.059316035 -0.015536945 0.09367492 -0.100536846 -0.10493915 -0.017160527 -0.11189255 0.01634275 -0.0012140628 -0.08044263 0.09714687 -0.003476798 -0.1554633 0.102987975 -0.11851022 -0.03790951 -0.06207841 0.14895281 -0.1428256 0.03239241 -0.09076294 -0.017342713 -0.087225996 0.004236169 -0.22645782 -0.08485361 -0.011768785 0.04667191 0.0055171535 -0.1919779 0.018098984 0.12048351 -0.023828773 0.14854579 0.04117882 0.11411415 -0.07928916 -0.07341174 0.066552855 -0.03262973 0.002275727 0.07534599 0.15699734 0.097439885 -0.070757866 0.14194609 0.068385296 -0.119914584 0.00034714997 -0.12100374 -0.07638047 0.06461499 -0.07421116 -9.18866e-05 0.053408705 0.058646087 -0.046757225 -0.025622645 0.06277239 -0.07839721 0.008580254 -0.23254733 0.17517312 -0.016734777 0.1383814 0.12939563 -0.14047828 -0.05684155 -0.022396116 -0.03255613 -0.035691414 -0.11256335 0.02128635 0.14756843 -0.250852 -0.02429253 -0.14475468 0.014497372 0.04266747 0.057424217 0.31538954 -0.055145495 0.029692523 0.017424896 -0.07867662 0.025688121 0.20960182 -0.057364736 -0.2101108 -0.08749942 -0.16272146 -0.012931505 0.011607871 -0.08503762 -0.10125171 0.028392674 -0.03791994 0.047576822 -0.08365452 -0.063957214 0.026981086 0.10728564 -0.15042487 0.07455688 0.05918199 -0.1300625 0.14890066 -0.036731705 -0.010234494 -0.15943182 0.13266392 0.075916335 -0.13694733 -0.15714757 0.14414778 -0.12551649 0.018647272 0.1449488 0.12841225 -0.15178354 -0.114801146 -0.2512845 0.067101166 -0.102165796 0.051234066 0.11630244 -0.15298025 -0.06647895 0.06065603 0.06205295 0.073727325 -0.08149097 -0.11586663 0.04931246 -0.15183157 0.14449412 0.16113517 0.1289102 -0.033885 0.046231244 -0.09003174 -0.08645952 -0.08827812 -0.18093741 -0.14641418 0.06420458 0.060362604 0.11136991 0.030115932 -0.028360441 0.024452925 0.070022866 -0.12823732 -0.05661602 -0.09048416 0.08916668 0.046864092 -0.16194183 -0.0722967 0.06217968 -0.1177186 0.18638392 0.042648103 0.15424384 -0.009320582 -0.029781403 0.011584331 0.048148427 -0.08824174 0.068504214 0.05485665 0.17604575 0.09987813 0.044892475 -0.09331863 -0.0090180775 0.06863959 -0.049565144 -0.08277089 -0.054831438 -0.004545694 -0.09469452 0.059169926 0.025942774 0.12529354 -0.25836715 0.03664529 -0.019773718 -0.051837623 0.010641502 0.044635125 -0.01777536 -0.033176634 -0.033705413 0.09334056 0.06283672 -0.1323163 0.07244642 -0.021521961 0.011891778 0.05016867 0.032506887 0.07192584 -0.028215654 0.08100776 -0.11882854 0.10904177 0.0063897474 -0.18348962 -0.12392123 0.10792905 -0.06776904 0.09333837 -0.16983871 0.024288658 0.09103456 0.021588812
pria -0.15124245 -0.010789615 -0.07456509 -0.07219102 -0.03974519 -0.041435715 0.054535426 -0.042847227 0.11149273 -0.081960075 -0.22545327 -0.09834923 -0.039719455 -0.0370524 -0.00851999 -0.0070150564 0.12523724 0.08621311 0.059255354 0.1468397 -0.07736186 -0.11369058 0.15287255 0.00032956005 -0.06151641 0.16318233 0.03447222 -0.06511204 0.010134742 -0.054762546 -0.043394893 -0.18195766 -0.15605228 -0.11189057 -0.13963303 -0.039404683 -0.042691004 -0.027250612 -0.041003034 0.06898097 0.041288346 0.018734187 -0.032127738 -0.108800836 -0.007350635 0.015605035 -0.011889364 0.1680182 0.049804993 0.22468421 -0.08618305 -0.09706563 0.1091631 -0.013151038 -0.015394382 0.035626292 0.05934131 -0.16765334 0.027069336 0.025364503 -0.056706537 -0.19155459 0.025703253 0.10274999 -0.096728295 -0.07610467 -0.17036688 -0.052125853 -0.08515908 0.18591788 -0.029260444 0.16443634 0.08134383 0.070921324 -0.01988597 -0.076424465 -0.10552937 0.07668287 0.030717188 0.14241053 0.004689722 -0.024381995 -0.09351899 -0.053373374 -0.014657529 0.088045575 -0.09396118 -0.0971478 -0.015950728 -0.10433557 0.015448653 -0.000103054605 -0.07537279 0.09116008 -0.002801983 -0.14476508 0.096131206 -0.10889569 -0.034374658 -0.05677003 0.13848086 -0.13176148 0.03001015 -0.08456986 -0.015596365 -0.08135194 0.003412527 -0.21033983 -0.078779325 -0.0109055415 0.04280218 0.0053194305 -0.17821856 0.017350351 0.110836506 -0.021341084 0.13788742 0.03855124 0.10719031 -0.07372822 -0.06929392 0.061159004 -0.030925838 0.0026978736 0.06948493 0.14612983 0.089986496 -0.065575376 0.13156828 0.06456583 -0.1113129 -0.00023930147 -0.11295828 -0.07185867 0.058405288 -0.06867614 -0.00018665264 0.049740277 0.054865863 -0.044041865 -0.023567924 0.05836604 -0.072765954 0.0074950936 -0.21599466 0.1622076 -0.01462 0.12799467 0.12012878 -0.13163126 -0.052752186 -0.021414315 -0.02900585 -0.033539977 -0.10504212 0.019494262 0.13658994 -0.23316152 -0.024043879 -0.13464263 0.014265409 0.04012117 0.053342473 0.29287702 -0.05096373 0.02781809 0.016850868 -0.07400371 0.023552107 0.19371617 -0.05371182 -0.19541931 -0.08164228 -0.15173258 -0.010880235 0.010894223 -0.0794147 -0.09443118 0.026233377 -0.03466908 0.043580104 -0.07809351 -0.059022576 0.02477673 0.099536605 -0.14014639 0.0702649 0.054338455 -0.11986775 0.1392167 -0.034331325 -0.0093571795 -0.14806138 0.12336117 0.07070877 -0.12741372 -0.14646275 0.13453281 -0.11730911 0.016911307 0.13430208 0.11965872 -0.14179932 -0.10584253 -0.23368792 0.062928736 -0.09513824 0.04753598 0.107377306 -0.14254098 -0.061080135 0.05741357 0.05840032 0.06784258 -0.07709376 -0.10787339 0.04638709 -0.14163388 0.13438146 0.15028982 0.119293466 -0.03162384 0.044238333 -0.08316741 -0.0806734 -0.08316295 -0.16883035 -0.13538785 0.0595435 0.056320723 0.10339859 0.027573489 -0.02699704 0.023009736 0.065839246 -0.119059965 -0.052983228 -0.08344238 0.08236409 0.043842953 -0.15129833 -0.067153 0.0572572 -0.109870784 0.17144985 0.040841725 0.1437469 -0.00802632 -0.027080363 0.010178161 0.04543109 -0.08178304 0.06501033 0.050907087 0.16349876 0.093100846 0.040845912 -0.085532404 -0.008331551 0.064321466 -0.04651319 -0.07759208 -0.050293107 -0.0039165784 -0.08890859 0.05454293 0.02400017 0.11645695 -0.2393718 0.034217607 -0.017894296 -0.04931928 0.010272897 0.040723626 -0.016858742 -0.03023159 -0.031296216 0.08671074 0.0579571 -0.12428286 0.06698957 -0.019779317 0.010502685 0.046388417 0.03127437 0.06676367 -0.02653828 0.07509725 -0.10923166 0.100909434 0.0057588853 -0.1701705 -0.1151723 0.09975528 -0.06284947 0.08621338 -0.15877819 0.022924615 0.08462406 0.020089438
penganiayaan -0.16271941 -0.011743344 -0.08049039 -0.07703674 -0.042597488 -0.044476468 0.058157034 -0.046458073 0.11974421 -0.087687425 -0.24325497 -0.10551629 -0.0416522 -0.039064657 -0.007654525 -0.0073210862 0.13501458 0.09223329 0.063405 0.15868036 -0.08465887 -0.12369018 0.1651765 -0.00013201075 -0.06697188 0.17671292 0.03640158 -0.07029979 0.010007849 -0.057811916 -0.046301197 -0.19557345 -0.1678781 -0.121566564 -0.14932452 -0.042930186 -0.04581887 -0.029907754 -0.045290384 0.07266915 0.04463566 0.020364303 -0.03602032 -0.11630306 -0.007825414 0.017661987 -0.01290807 0.18108578 0.05265403 0.24284555 -0.0926975 -0.10487071 0.11787593 -0.01413565 -0.016570468 0.03790018 0.06457728 -0.1811985 0.028224038 0.026800884 -0.06114978 -0.20678698 0.027928887 0.11043453 -0.10381706 -0.081847854 -0.18413737 -0.05572233 -0.09274506 0.20060633 -0.030650364 0.17704831 0.086717226 0.07684701 -0.022151781 -0.082540154 -0.11487568 0.083372585 0.033043772 0.15307616 0.005014403 -0.026242819 -0.10090197 -0.059471823 -0.015653014 0.09413358 -0.10155272 -0.104544275 -0.017140472 -0.11181405 0.015761528 -0.00036456436 -0.08180509 0.09864592 -0.002624638 -0.15517889 0.102637514 -0.11859628 -0.037202872 -0.061759755 0.14929062 -0.14299214 0.03275555 -0.09188519 -0.016933205 -0.08734944 0.0046991226 -0.22693679 -0.085095614 -0.011365534 0.04699044 0.0049529704 -0.19173482 0.019066943 0.11984862 -0.023727316 0.1488379 0.040788535 0.115226544 -0.079260446 -0.07371069 0.0660174 -0.032960054 0.0033345288 0.07512837 0.15701793 0.098078474 -0.07189918 0.14244357 0.068937145 -0.12007554 -0.0007826026 -0.12086964 -0.07757941 0.062817454 -0.07450688 -0.000109457826 0.053594355 0.0592065 -0.047131285 -0.025185652 0.06311586 -0.07882117 0.0087931845 -0.23289712 0.17584166 -0.016113667 0.13881098 0.12945335 -0.14197269 -0.057296585 -0.02296295 -0.031946193 -0.03582689 -0.11324983 0.020306367 0.14769955 -0.25203452 -0.025535487 -0.14470094 0.015278658 0.04271196 0.057592645 0.3159665 -0.055555105 0.029104142 0.018301142 -0.0793379 0.025196923 0.2093321 -0.056502726 -0.21109146 -0.08749338 -0.16377461 -0.012548867 0.01224331 -0.08554187 -0.10204637 0.028286844 -0.037070084 0.047807682 -0.08430631 -0.063953094 0.02689785 0.10741559 -0.15068607 0.075208865 0.05969292 -0.1302217 0.14939293 -0.036479637 -0.009855071 -0.16017346 0.1329415 0.076429196 -0.1365739 -0.1574813 0.14371611 -0.12493513 0.01828447 0.14543468 0.12885348 -0.15253316 -0.11574937 -0.25212204 0.06799566 -0.10138175 0.051353954 0.116282284 -0.15283361 -0.06580267 0.060481116 0.06251723 0.07283261 -0.08143853 -0.11663399 0.048654273 -0.15248083 0.14535536 0.16167718 0.12880483 -0.033803053 0.046630148 -0.08997372 -0.086396694 -0.0886878 -0.18095921 -0.14670357 0.06432049 0.06064786 0.111744605 0.029637614 -0.028902434 0.0252407 0.070057265 -0.12850484 -0.05745792 -0.09109611 0.08946486 0.047063965 -0.16313143 -0.0720847 0.062198717 -0.11794302 0.18665789 0.043772735 0.15473624 -0.009757816 -0.028936513 0.011959434 0.04953656 -0.08924519 0.0692131 0.05499497 0.17696942 0.09994212 0.04431921 -0.09284219 -0.0074885357 0.06957987 -0.05084451 -0.0833701 -0.053864345 -0.0033946151 -0.09527751 0.059169292 0.02596854 0.12539281 -0.25841886 0.03611188 -0.020394864 -0.05354156 0.010118001 0.044959787 -0.01808687 -0.03273724 -0.033822414 0.093560465 0.062084876 -0.1338378 0.07228586 -0.021536598 0.012610291 0.05021815 0.033482723 0.071692795 -0.027672188 0.08025588 -0.11899698 0.109435074 0.006020354 -0.18419002 -0.12476706 0.10798532 -0.06803474 0.09419796 -0.16994666 0.02514257 0.09163203 0.02092702
wanita -0.16335447 -0.010223647 -0.081791036 -0.07645891 -0.0433211 -0.043987323 0.05791253 -0.045451626 0.11970483 -0.0863435 -0.2422646 -0.105929516 -0.041584548 -0.039332017 -0.00838102 -0.007897379 0.13421361 0.09264734 0.06395648 0.15978569 -0.08372013 -0.122288465 0.16202049 0.00043337926 -0.06692818 0.1774122 0.037848722 -0.07084729 0.010897079 -0.057537403 -0.047630977 -0.19467945 -0.16800013 -0.12107103 -0.1493562 -0.041927602 -0.045503877 -0.028307855 -0.043237783 0.07320319 0.042269822 0.01990987 -0.033973947 -0.11567902 -0.007992543 0.016790967 -0.012458733 0.18109812 0.052710656 0.242961 -0.09277553 -0.10348476 0.11686232 -0.015058147 -0.017535605 0.03703142 0.06539443 -0.18090105 0.029430823 0.02611372 -0.060111906 -0.20609407 0.026961366 0.11076848 -0.10263161 -0.08244493 -0.1845661 -0.05559826 -0.09228056 0.19852754 -0.03222347 0.17765985 0.086336136 0.07511017 -0.020930503 -0.08254122 -0.113500975 0.08198865 0.033616114 0.15354313 0.0046870923 -0.026204081 -0.10114415 -0.058136 -0.015539868 0.092797585 -0.100784175 -0.10480235 -0.018032627 -0.11279162 0.016358882 -0.0004884603 -0.08153043 0.097720236 -0.0040689064 -0.15518622 0.103396565 -0.11805078 -0.037376974 -0.06203052 0.14840361 -0.14335972 0.03150274 -0.092172936 -0.017635604 -0.08766794 0.0043791756 -0.22718821 -0.08524726 -0.012795508 0.046276372 0.0047520497 -0.19090717 0.018439896 0.120157905 -0.02455806 0.14849924 0.040573526 0.11413855 -0.07906304 -0.07416158 0.06614034 -0.032470573 0.0020501304 0.075731225 0.15735692 0.09799615 -0.07108161 0.14178437 0.067548886 -0.11937534 0.00078079535 -0.12065089 -0.077809215 0.0631778 -0.073178 -0.0010513569 0.052162014 0.059063245 -0.04692453 -0.02591983 0.0644555 -0.07809457 0.009270127 -0.23167537 0.174888 -0.015355273 0.13752674 0.12914757 -0.14080057 -0.057334628 -0.02286089 -0.032420587 -0.03546327 -0.11380486 0.021501552 0.14771977 -0.2511706 -0.025215605 -0.14573373 0.015220273 0.043366253 0.05820079 0.31541538 -0.056201655 0.029643187 0.01733511 -0.0795774 0.025802854 0.21017049 -0.05741651 -0.21004365 -0.0877975 -0.16346455 -0.012572555 0.011962919 -0.08507295 -0.10212519 0.028946193 -0.037716825 0.048596937 -0.08521785 -0.06335927 0.027963959 0.10785678 -0.15071282 0.07593172 0.058058057 -0.12979633 0.14852116 -0.035005625 -0.009306724 -0.15985136 0.13371041 0.07560268 -0.13638566 -0.15526794 0.14530931 -0.12591794 0.018494556 0.14382248 0.12812205 -0.15343468 -0.11456313 -0.25267228 0.06829292 -0.10282052 0.050782096 0.11556395 -0.15310976 -0.06645225 0.06077197 0.062369216 0.07398608 -0.08243383 -0.11680128 0.047826573 -0.15223385 0.14510298 0.16245933 0.1297887 -0.03554199 0.046068653 -0.08927871 -0.08627313 -0.08894475 -0.18061934 -0.14723839 0.06459436 0.06075322 0.11047778 0.030830313 -0.02824234 0.024246518 0.070795536 -0.12950125 -0.057516884 -0.08984426 0.08863855 0.046966214 -0.16280112 -0.071454845 0.06121885 -0.11848484 0.1869872 0.04388159 0.1557183 -0.009852449 -0.029097375 0.012321903 0.049779613 -0.08829424 0.070775695 0.05465134 0.17536588 0.10017977 0.045722388 -0.091956906 -0.0073253363 0.068654045 -0.049578056 -0.08331782 -0.052763883 -0.0043867445 -0.09569006 0.05933299 0.02581278 0.12547915 -0.25853765 0.036067225 -0.019135395 -0.05218542 0.010112104 0.045084134 -0.018686805 -0.033688914 -0.03316287 0.09369448 0.06343945 -0.13367718 0.070583485 -0.022754071 0.011866597 0.049879074 0.03304757 0.07200458 -0.02826652 0.08034965 -0.11856778 0.10930125 0.0059970873 -0.1834763 -0.12539801 0.10894575 -0.06891998 0.093059555 -0.17066927 0.024321593 0.09140828 0.021565648
pengejar -0.15817337 -0.010794846 -0.078935936 -0.07360548 -0.04141171 -0.042654425 0.05602585 -0.045312908 0.11618017 -0.08502534 -0.23585758 -0.10261371 -0.040689014 -0.03808952 -0.00750517 -0.0073198057 0.13119583 0.08991523 0.06251984 0.15495154 -0.08169232 -0.11882356 0.15956478 0.00025735688 -0.064451665 0.17123602 0.03596697 -0.068400815 0.010125411 -0.056374643 -0.04550802 -0.18983032 -0.16191429 -0.11693046 -0.1452901 -0.040820446 -0.044930343 -0.03007166 -0.042444967 0.070512615 0.04238336 0.019336328 -0.03481889 -0.11245655 -0.007900393 0.016323678 -0.0121307 0.17524175 0.051512256 0.23584767 -0.09003609 -0.10070195 0.114534885 -0.013508777 -0.015806295 0.037257843 0.062105004 -0.17563276 0.027395267 0.02611284 -0.059242286 -0.19958045 0.02685507 0.10668849 -0.1005202 -0.080248915 -0.17846093 -0.054034695 -0.08932632 0.19435504 -0.030180508 0.17224513 0.084395684 0.073884904 -0.02141883 -0.0794364 -0.109403096 0.08008265 0.032263186 0.14879255 0.0046420344 -0.025568921 -0.09753169 -0.057302237 -0.014896709 0.091083415 -0.098301515 -0.100963816 -0.01688575 -0.10927329 0.014984379 -0.0009298589 -0.07895985 0.094721705 -0.0031720193 -0.14987664 0.099697255 -0.114527695 -0.03667174 -0.059275985 0.14471625 -0.13861424 0.031475253 -0.0886452 -0.016185882 -0.08472976 0.0031648523 -0.22023997 -0.08288185 -0.012187562 0.045498103 0.0048762886 -0.1860816 0.018043526 0.11612821 -0.022734506 0.14418039 0.040173057 0.11232393 -0.077564344 -0.071494825 0.06385161 -0.03283892 0.0025913948 0.07277352 0.1530288 0.09491929 -0.06905508 0.13761565 0.067282066 -0.11712162 -0.00056698045 -0.117440924 -0.07539722 0.06188276 -0.07149364 0.00025969013 0.05214148 0.05738004 -0.045130882 -0.024522377 0.06100164 -0.07597634 0.008269063 -0.2248147 0.16996555 -0.014863988 0.13499184 0.1261064 -0.13739675 -0.055271726 -0.022027912 -0.030586395 -0.034356322 -0.108988576 0.020034991 0.14363751 -0.24402875 -0.024329696 -0.13965161 0.015315156 0.041743003 0.055493336 0.30553442 -0.05297976 0.028592682 0.017505623 -0.07704482 0.024638236 0.20334779 -0.054968946 -0.20406866 -0.084007844 -0.15805694 -0.011547578 0.01088216 -0.08279767 -0.09901746 0.02790741 -0.036765117 0.045620326 -0.08108378 -0.061585244 0.026315445 0.10409466 -0.14657056 0.072997555 0.056650624 -0.12539701 0.14483574 -0.034398593 -0.009707581 -0.15430026 0.12944837 0.07443469 -0.13224971 -0.15226632 0.13978443 -0.1218153 0.018094579 0.14069161 0.12481055 -0.14756525 -0.1114586 -0.24404807 0.0657883 -0.0988237 0.050094206 0.11235983 -0.14845182 -0.06405862 0.058711503 0.060023617 0.07075516 -0.07891251 -0.11247591 0.04737096 -0.14725167 0.14106499 0.1561092 0.1247378 -0.03232741 0.044902228 -0.08736901 -0.08376114 -0.08587726 -0.1744545 -0.14271948 0.063066475 0.058560237 0.10778081 0.029058382 -0.028266404 0.023578208 0.0681542 -0.123386726 -0.055115055 -0.087762214 0.08661734 0.04518988 -0.15897581 -0.069663 0.060065188 -0.115122505 0.18061785 0.042018536 0.149531 -0.009262132 -0.028006269 0.011934932 0.047172174 -0.08576404 0.0670476 0.053133097 0.17101936 0.09656289 0.043948952 -0.08984852 -0.0076624984 0.067410946 -0.049082987 -0.0804121 -0.052191712 -0.004065322 -0.0921478 0.056330834 0.025256678 0.12112546 -0.25076658 0.034820776 -0.019534372 -0.051825404 0.009970336 0.04321839 -0.017116673 -0.03174332 -0.032527465 0.09188134 0.0608778 -0.12999277 0.07052326 -0.020375356 0.012239828 0.048242774 0.033063807 0.069044046 -0.02738257 0.0790141 -0.114685595 0.105839305 0.0071723955 -0.17797792 -0.12157831 0.1049907 -0.0662462 0.09144191 -0.16523255 0.023669256 0.08791547 0.020407107
kenatipu -0.1677211 -0.011393567 -0.084165685 -0.07783264 -0.044086877 -0.0444605 0.059349597 -0.04755461 0.12311881 -0.08894603 -0.24817266 -0.1080356 -0.04240967 -0.040726542 -0.007406611 -0.007564864 0.13781935 0.095472686 0.06490173 0.16449116 -0.085779205 -0.12624662 0.16809605 0.00034884465 -0.068990245 0.18147647 0.039115053 -0.07269898 0.009596986 -0.059542246 -0.047036983 -0.20031945 -0.1715671 -0.123509146 -0.15324156 -0.0431877 -0.04710573 -0.0305863 -0.045670968 0.07418379 0.04501768 0.020371087 -0.035640843 -0.11814177 -0.008176038 0.017286832 -0.0131133385 0.18433644 0.053826373 0.24907787 -0.094942644 -0.10811462 0.121064074 -0.013944358 -0.016913459 0.039512236 0.06658302 -0.1853429 0.029175231 0.025974244 -0.062179115 -0.21199349 0.028211046 0.11237884 -0.10704918 -0.08378287 -0.18827926 -0.0569356 -0.09578292 0.205095 -0.03236231 0.18133743 0.08892788 0.07711455 -0.021262592 -0.08560466 -0.11597411 0.08495628 0.03360778 0.1554288 0.0054067927 -0.02693034 -0.103005245 -0.060868807 -0.016970638 0.09506521 -0.103658 -0.108265966 -0.017022504 -0.11462986 0.016453356 -0.0006582935 -0.08393165 0.100293554 -0.0026444464 -0.15890059 0.10432761 -0.12044185 -0.039247166 -0.06280268 0.15300511 -0.14634667 0.0330231 -0.094318174 -0.017217217 -0.08979454 0.00393407 -0.23208556 -0.08732384 -0.01181667 0.049158633 0.0049520833 -0.19632442 0.018723479 0.12292532 -0.024801023 0.15241757 0.04230397 0.119062096 -0.08108628 -0.07485934 0.06739698 -0.033647332 0.0027047233 0.07664096 0.1623075 0.10072736 -0.0725191 0.14576367 0.07040075 -0.12286389 -0.0006987039 -0.12269515 -0.08027262 0.06502418 -0.076266676 -0.0002123531 0.055240314 0.06043204 -0.04830577 -0.02557374 0.06444609 -0.081968315 0.008332861 -0.23719507 0.18037975 -0.015216749 0.14316334 0.13235994 -0.14517033 -0.057072125 -0.024707621 -0.032594305 -0.036461037 -0.115369864 0.021257618 0.15139256 -0.25758544 -0.026235148 -0.14761129 0.015493948 0.043486018 0.058567822 0.32311505 -0.056743886 0.029945653 0.018097213 -0.08133598 0.025492942 0.21540876 -0.057754457 -0.21518666 -0.08896285 -0.16758853 -0.012280688 0.011784233 -0.08756161 -0.10522797 0.028320385 -0.03866111 0.04755941 -0.08607502 -0.06382704 0.027489942 0.110630296 -0.15437308 0.07630363 0.06006929 -0.13348715 0.15262437 -0.036763903 -0.0107034 -0.1629472 0.13554913 0.07844177 -0.14012228 -0.16145419 0.14626367 -0.12828183 0.01841823 0.14813611 0.13251774 -0.15678446 -0.11670164 -0.25906453 0.07143569 -0.10426676 0.051589284 0.11945236 -0.15736255 -0.068528526 0.06275628 0.06317725 0.07449447 -0.083578154 -0.11934771 0.049865477 -0.15568134 0.14906259 0.16567045 0.13192181 -0.033610374 0.048627783 -0.09276091 -0.08914328 -0.09104355 -0.18446387 -0.1506239 0.06661866 0.061762284 0.11479563 0.030070355 -0.030130714 0.026004385 0.0707699 -0.13075168 -0.05876698 -0.09303851 0.09109257 0.047663566 -0.167116 -0.07432383 0.0638161 -0.121498995 0.19134766 0.044360194 0.15874587 -0.009501572 -0.031203426 0.012841283 0.050671443 -0.090809986 0.07038498 0.0569443 0.1806689 0.10218712 0.04466324 -0.09590977 -0.0074835853 0.07018524 -0.050825767 -0.08521405 -0.055819087 -0.0046193455 -0.097108595 0.06022392 0.026498398 0.12783478 -0.26474 0.036836907 -0.020667462 -0.054719813 0.010322986 0.045762103 -0.018270234 -0.033459604 -0.035054736 0.09712421 0.06307781 -0.13721737 0.074009836 -0.022150928 0.013162058 0.0508369 0.0336486 0.0742734 -0.028987728 0.0833202 -0.12178109 0.11130945 0.0054367175 -0.18771064 -0.12745936 0.110564396 -0.069790915 0.096674874 -0.17536426 0.025987085 0.09239577 0.021835
membunuh -0.16344005 -0.012167194 -0.08128769 -0.07644529 -0.043025263 -0.043865472 0.057891816 -0.046197098 0.12096869 -0.087530784 -0.24324058 -0.10551611 -0.040248174 -0.039849073 -0.008017601 -0.007651983 0.1355788 0.09298399 0.064129874 0.15885271 -0.083979085 -0.12223882 0.16593407 0.0007091685 -0.06633118 0.17754313 0.036126107 -0.06968137 0.010010356 -0.05756297 -0.047320943 -0.19669443 -0.16830991 -0.12064889 -0.1501221 -0.041903585 -0.046365526 -0.029080847 -0.044256255 0.073416024 0.044037636 0.019860886 -0.03403393 -0.11664089 -0.008848472 0.017288096 -0.0133675635 0.18104905 0.052637953 0.24344502 -0.092602864 -0.104018 0.11725534 -0.014065157 -0.016836794 0.03841978 0.06490915 -0.18122253 0.029082986 0.025855195 -0.059728414 -0.20686401 0.02689029 0.11027716 -0.10378162 -0.08209659 -0.18576843 -0.05510358 -0.09284444 0.20077603 -0.031399082 0.17826487 0.0876785 0.07638492 -0.021682004 -0.082164444 -0.11464315 0.08301171 0.033537373 0.1539522 0.0043075015 -0.026538154 -0.10042038 -0.059228174 -0.016885225 0.093615115 -0.10125162 -0.10518427 -0.016617995 -0.113357075 0.016913999 -0.00081341935 -0.08098122 0.09760723 -0.0039116256 -0.15648603 0.103348345 -0.11888818 -0.03861627 -0.06295996 0.1494285 -0.14308168 0.032115277 -0.091021664 -0.018723289 -0.08831958 0.004398766 -0.22749692 -0.085816085 -0.011202655 0.04714704 0.0054343133 -0.19297045 0.018794607 0.12098784 -0.024054851 0.14934741 0.041399367 0.11513076 -0.079464905 -0.07355461 0.066203915 -0.033377357 0.001842878 0.075776294 0.15759756 0.09831386 -0.07135588 0.14315964 0.0685486 -0.12074169 -0.00031324849 -0.12184462 -0.07713188 0.0644698 -0.07465104 -0.0005103971 0.05437799 0.058910463 -0.047082014 -0.026018439 0.062873185 -0.078366086 0.008987755 -0.23373373 0.17660409 -0.016548814 0.13981384 0.13009636 -0.14125827 -0.057458237 -0.022563795 -0.032573923 -0.036065463 -0.11325094 0.021023326 0.1488673 -0.25226232 -0.02463057 -0.14551222 0.014149793 0.043124393 0.05775545 0.31746584 -0.05509178 0.030119114 0.018526264 -0.07912573 0.025800578 0.21051311 -0.057694886 -0.21029986 -0.08750182 -0.16299403 -0.013468451 0.0123980455 -0.08588499 -0.1014269 0.028377218 -0.038395952 0.04780145 -0.08421207 -0.06466319 0.02724971 0.10752994 -0.15082128 0.07443706 0.058713406 -0.13070948 0.1493167 -0.036963426 -0.010082258 -0.15991344 0.13298786 0.07609708 -0.13774462 -0.15806635 0.14434616 -0.12619674 0.018598594 0.14573608 0.12890853 -0.15217355 -0.11480128 -0.25244927 0.068215005 -0.1029181 0.05160833 0.11670741 -0.15358628 -0.067015156 0.06082683 0.062015064 0.074167386 -0.08164244 -0.11653466 0.049105484 -0.15235433 0.14556706 0.16217507 0.12894239 -0.033913117 0.046763632 -0.09070698 -0.08651204 -0.089649566 -0.1809738 -0.14736572 0.06399623 0.060464904 0.11247897 0.030537343 -0.028434161 0.025506208 0.069854766 -0.1282914 -0.057318952 -0.0902649 0.08918752 0.046938322 -0.16375221 -0.07225658 0.062148336 -0.11857058 0.18748619 0.043334655 0.15455164 -0.009404806 -0.030895509 0.011375875 0.047866326 -0.0885558 0.069748916 0.055229254 0.17689678 0.09992183 0.045548674 -0.09295868 -0.009407001 0.06911591 -0.049529817 -0.083239704 -0.05562119 -0.004307484 -0.09588896 0.059384257 0.026187697 0.12530461 -0.25946057 0.03645137 -0.020030864 -0.051556747 0.010939436 0.04418535 -0.017495397 -0.033968505 -0.034081653 0.09291404 0.06265246 -0.13333 0.07241863 -0.021682777 0.01151888 0.049871292 0.03198156 0.072109476 -0.028308019 0.08094787 -0.11875831 0.10954036 0.0064500035 -0.18365866 -0.12460985 0.10963718 -0.066736765 0.093534954 -0.1709354 0.024485966 0.091082685 0.021876812
pencuri -0.17220007 -0.012506132 -0.08598868 -0.08027955 -0.04430212 -0.04671634 0.060923573 -0.04915478 0.12623864 -0.0932322 -0.25531703 -0.11132531 -0.0431426 -0.04216514 -0.0086627705 -0.007775434 0.1424016 0.09845591 0.06754063 0.16734646 -0.08788613 -0.12900631 0.17307189 0.0001775954 -0.069280155 0.18575466 0.039360616 -0.07336802 0.010711992 -0.06111462 -0.050102834 -0.20635165 -0.17553852 -0.12670887 -0.15754499 -0.044618864 -0.04839037 -0.03136892 -0.04685274 0.07682494 0.046740286 0.021363446 -0.03734592 -0.12204255 -0.008310447 0.017811237 -0.014435547 0.19067755 0.05511708 0.25582618 -0.09732484 -0.108998 0.12428793 -0.014547978 -0.017958509 0.041352514 0.0672453 -0.19023578 0.029386222 0.027858471 -0.06308258 -0.21672823 0.028768782 0.115810074 -0.10904864 -0.087326385 -0.19371678 -0.058120344 -0.09645189 0.21018563 -0.03218074 0.18613349 0.091356054 0.080904156 -0.023843167 -0.086871475 -0.11997983 0.08695506 0.03511465 0.16088659 0.00488243 -0.027283236 -0.105592065 -0.06256582 -0.017339787 0.0989164 -0.106608376 -0.110299885 -0.017189734 -0.11910499 0.016801042 -0.00020413783 -0.085699275 0.10273944 -0.0038128926 -0.16273639 0.10860055 -0.123504795 -0.04032708 -0.06459146 0.15618505 -0.14999646 0.03465887 -0.09540122 -0.018088955 -0.09168791 0.0041749063 -0.23829524 -0.08987535 -0.011872405 0.0488118 0.0062932256 -0.20188978 0.019626716 0.12562533 -0.025300637 0.15547691 0.042715415 0.12143423 -0.08356261 -0.077381596 0.06911927 -0.034927588 0.0019567553 0.07848794 0.16550432 0.10206608 -0.074681275 0.14929768 0.07290813 -0.12629835 0.0002712224 -0.12811153 -0.0815678 0.066798985 -0.07837666 -0.00042917338 0.055880632 0.061377414 -0.049559038 -0.026378019 0.06646776 -0.0830264 0.009388214 -0.24369104 0.18550241 -0.015860274 0.14623196 0.13549793 -0.14852394 -0.05964013 -0.024277378 -0.034311805 -0.03767709 -0.118550606 0.021588884 0.1557585 -0.26523924 -0.026527451 -0.15227276 0.01625494 0.045805886 0.060300674 0.3320112 -0.05779352 0.031887583 0.019035688 -0.08354086 0.026694827 0.21988378 -0.06055719 -0.22174902 -0.09263682 -0.17310232 -0.013612001 0.012544844 -0.09000591 -0.10664331 0.03036133 -0.039645858 0.049498156 -0.088601775 -0.066985846 0.029315472 0.11296275 -0.15932658 0.07909827 0.061053902 -0.13683222 0.15781829 -0.037405584 -0.010430655 -0.16765946 0.13971885 0.08044332 -0.14365438 -0.16536711 0.15301123 -0.13202016 0.019387713 0.15317956 0.13527682 -0.1597115 -0.12044635 -0.26533 0.07103384 -0.10722677 0.054382034 0.12237532 -0.16113836 -0.06978105 0.06462935 0.06519267 0.07696095 -0.08564487 -0.12196846 0.05182875 -0.15990196 0.15196358 0.17005326 0.13502158 -0.03655748 0.048926875 -0.09495921 -0.09092526 -0.09374451 -0.19039255 -0.15407956 0.06834468 0.06315908 0.11740845 0.03188843 -0.029680176 0.026419535 0.073698334 -0.13378836 -0.05929242 -0.094689876 0.09333102 0.050191004 -0.17212589 -0.07630222 0.06590373 -0.12329498 0.19529878 0.04607575 0.16297847 -0.009605984 -0.03191338 0.012937583 0.051417198 -0.09290062 0.07302677 0.05731495 0.18562685 0.10528774 0.047377452 -0.09811605 -0.01012702 0.07343882 -0.05204764 -0.088413365 -0.057408497 -0.0047900947 -0.10030799 0.06200516 0.027423814 0.13159454 -0.2716675 0.037880134 -0.02142967 -0.054734126 0.011002849 0.046878014 -0.018762557 -0.034861106 -0.035397876 0.09731369 0.0665322 -0.1408173 0.07599684 -0.022379985 0.012216388 0.051862128 0.035303053 0.07532166 -0.029402554 0.08445977 -0.12424696 0.11586541 0.0068529267 -0.19300528 -0.13046277 0.11398206 -0.07096781 0.0991311 -0.1798604 0.026404576 0.096538894 0.022372356
penyidik -0.15185423 -0.010983992 -0.07489237 -0.071452945 -0.039562486 -0.041144505 0.054797377 -0.044349346 0.1111793 -0.08152237 -0.22622775 -0.09826134 -0.03883657 -0.03663596 -0.0069150003 -0.00725225 0.12635404 0.08725727 0.0593968 0.14803083 -0.078492075 -0.11485342 0.1541227 -0.00022652173 -0.06239136 0.16485466 0.0348682 -0.06550037 0.009079533 -0.05422098 -0.043913987 -0.18295176 -0.15604553 -0.11223823 -0.13959233 -0.039712526 -0.04317716 -0.028438268 -0.043284886 0.06806745 0.041445177 0.01884384 -0.0337707 -0.10871049 -0.007408013 0.014939744 -0.01179326 0.16810665 0.048859216 0.225372 -0.08623934 -0.09751797 0.11022406 -0.012706552 -0.015559063 0.036010828 0.060067967 -0.16879968 0.025954153 0.02544218 -0.05700057 -0.19266179 0.025311371 0.10254737 -0.09681922 -0.076287135 -0.17236097 -0.05106458 -0.08691095 0.18651666 -0.027785167 0.16460848 0.08071122 0.0713951 -0.020726467 -0.07722692 -0.1057835 0.07703415 0.030266186 0.14225549 0.004510533 -0.025416728 -0.093746774 -0.05538342 -0.014721515 0.08790788 -0.0953227 -0.09789361 -0.016923688 -0.10461168 0.014812736 -0.00038751436 -0.075610965 0.09195384 -0.0023120577 -0.1439784 0.09605775 -0.110205986 -0.034876253 -0.05659068 0.13944292 -0.13363492 0.030189583 -0.08477836 -0.016116021 -0.082549855 0.004315322 -0.21235691 -0.07894146 -0.010958754 0.04421577 0.0050189975 -0.17947805 0.018114563 0.11226592 -0.02260655 0.13850333 0.03799625 0.108030476 -0.07477352 -0.06956784 0.061884258 -0.031493455 0.0033294498 0.069762774 0.14605787 0.090833664 -0.06669982 0.13253225 0.064555615 -0.11251814 5.737939e-06 -0.11310012 -0.07317148 0.05922749 -0.06916503 -0.00041580343 0.050595615 0.055477962 -0.04432034 -0.023604663 0.058742236 -0.074014574 0.008334102 -0.21677254 0.16367953 -0.014468939 0.12944059 0.120969355 -0.13315657 -0.05356758 -0.020293113 -0.029997664 -0.03297242 -0.1046467 0.018962136 0.13774817 -0.23512551 -0.023902686 -0.1352951 0.014835654 0.039929315 0.053399175 0.29462194 -0.051104754 0.028548427 0.016872792 -0.07419011 0.02291907 0.19421476 -0.053502075 -0.1962356 -0.08197079 -0.15268698 -0.011129148 0.010524881 -0.08001099 -0.096036896 0.027546167 -0.035884783 0.043899372 -0.077769145 -0.058925662 0.025396787 0.09961897 -0.1412419 0.07038381 0.054551896 -0.12060243 0.13948028 -0.03367242 -0.009634261 -0.14929913 0.12391491 0.07127699 -0.12775655 -0.14591841 0.13450278 -0.11683532 0.017042326 0.1357177 0.12031393 -0.1425175 -0.107102446 -0.23450078 0.06380848 -0.09391304 0.047901224 0.10763344 -0.14334336 -0.06078155 0.057171278 0.05883973 0.06867724 -0.075604066 -0.10773072 0.045536224 -0.14157255 0.13606164 0.1512993 0.12008719 -0.031551544 0.04397651 -0.08398241 -0.08170739 -0.082334824 -0.1689502 -0.13758023 0.059628885 0.05640345 0.10380895 0.027110908 -0.026941232 0.023276344 0.065458946 -0.11989325 -0.05314506 -0.08448208 0.08279835 0.044779267 -0.15271899 -0.06679377 0.05872834 -0.110307984 0.17433503 0.04100175 0.14396861 -0.00873749 -0.026591917 0.011297564 0.04638469 -0.083261676 0.063655056 0.051403925 0.16397241 0.09334882 0.042450525 -0.08642765 -0.007727814 0.065359555 -0.046496257 -0.07789118 -0.049765334 -0.0041104355 -0.08864574 0.05421926 0.02421607 0.11612363 -0.24070588 0.032412715 -0.01890149 -0.049331028 0.010556261 0.041535236 -0.016289813 -0.029916951 -0.031686943 0.08755743 0.05835664 -0.12545492 0.067863666 -0.019997912 0.0107843 0.046738535 0.032178547 0.06654613 -0.026292397 0.07605161 -0.110414654 0.10087742 0.006360066 -0.17055003 -0.11595566 0.10038957 -0.062089365 0.087726586 -0.15877907 0.02225375 0.08578641 0.019651627
ditabrak -0.16026166 -0.011652787 -0.08010452 -0.07534284 -0.04120858 -0.043248862 0.05709016 -0.04590529 0.117495485 -0.08693381 -0.23715992 -0.10312637 -0.040426448 -0.03902112 -0.008707751 -0.006678675 0.13237467 0.0922286 0.06244953 0.15551026 -0.08165251 -0.12012426 0.1608918 0.00024181366 -0.06463369 0.17286757 0.035652217 -0.06818288 0.01014994 -0.056431744 -0.045654178 -0.19269265 -0.16398609 -0.11850667 -0.14627737 -0.041531283 -0.045112275 -0.028883127 -0.042691678 0.07168147 0.043300137 0.019082503 -0.034622744 -0.11380245 -0.007902071 0.015617875 -0.013664789 0.17727515 0.051751234 0.23813377 -0.09014078 -0.10104459 0.11564575 -0.013324485 -0.017248128 0.03754938 0.06317676 -0.17728682 0.027238151 0.026309319 -0.058892615 -0.20192869 0.027158322 0.107204005 -0.10205864 -0.08042207 -0.18083352 -0.054189127 -0.09007877 0.19516207 -0.030409053 0.17341766 0.08472722 0.07588526 -0.021914808 -0.08072947 -0.111731306 0.080841474 0.0328541 0.15000638 0.004808241 -0.025891105 -0.09866548 -0.058377296 -0.016432961 0.09218731 -0.09889336 -0.10262022 -0.01568236 -0.11070576 0.01522675 -7.5048854e-05 -0.08049384 0.095598824 -0.002713507 -0.15170658 0.10103073 -0.115393646 -0.037366357 -0.0597287 0.14580376 -0.14000635 0.031860113 -0.08883742 -0.016721828 -0.084974825 0.0039982577 -0.22256729 -0.082946144 -0.012358146 0.04576044 0.00547852 -0.18759982 0.017760351 0.11672944 -0.023230363 0.14515957 0.040229816 0.11302533 -0.07814426 -0.072131746 0.06530567 -0.032643277 0.0018229535 0.07349084 0.15477931 0.095583625 -0.06952201 0.13980229 0.067768164 -0.1174498 0.00028700667 -0.11857372 -0.07603793 0.061976355 -0.073422566 -0.0005766165 0.052437272 0.058334153 -0.046644036 -0.024595557 0.06201693 -0.07774908 0.00852931 -0.22681448 0.17254895 -0.014929172 0.13571088 0.12604827 -0.13834523 -0.056236975 -0.02210818 -0.031693753 -0.034865603 -0.11077079 0.020441702 0.14553702 -0.24660322 -0.024413966 -0.14171106 0.015231315 0.042461175 0.056032676 0.30922428 -0.05380485 0.02944727 0.017653285 -0.076982394 0.025151582 0.2050158 -0.05632121 -0.20685472 -0.08601201 -0.16092813 -0.012323268 0.011321182 -0.083545886 -0.09920287 0.028352408 -0.037217505 0.04587016 -0.082409345 -0.06217673 0.026255008 0.10535797 -0.14900419 0.07425276 0.05729315 -0.12717336 0.14642982 -0.035353072 -0.009521242 -0.15655749 0.13073851 0.07537714 -0.13267927 -0.15365112 0.142478 -0.12258563 0.01802305 0.14301798 0.12618534 -0.14815868 -0.11120362 -0.24667194 0.0665449 -0.099817105 0.049933903 0.11434322 -0.1497245 -0.06619202 0.059867423 0.060394686 0.07184567 -0.080288656 -0.114571996 0.048934903 -0.14902593 0.14187081 0.15809892 0.12580049 -0.03330689 0.04594157 -0.08839237 -0.08415004 -0.086960025 -0.17690489 -0.14334016 0.06328579 0.05882092 0.109242715 0.030070445 -0.027385855 0.024745276 0.06898243 -0.12415118 -0.056075614 -0.08823652 0.08730193 0.046402533 -0.15974344 -0.0711275 0.061266784 -0.115427285 0.18241379 0.04271596 0.15180027 -0.008884896 -0.029708834 0.011619005 0.04808879 -0.08639935 0.067963675 0.053383563 0.17245144 0.09777745 0.044446167 -0.09169051 -0.008832827 0.06859292 -0.04872026 -0.081753 -0.052970644 -0.0052139573 -0.09270296 0.05707346 0.025895765 0.122972645 -0.25370204 0.03578313 -0.01950687 -0.051192038 0.010398669 0.044011377 -0.018138386 -0.032186393 -0.032587077 0.09047378 0.061581198 -0.13108458 0.07050902 -0.020631067 0.011655799 0.04870939 0.03276126 0.06986673 -0.027688822 0.07933893 -0.115773946 0.10812932 0.0064388355 -0.17961527 -0.12187219 0.10621855 -0.06637214 0.09263057 -0.16782267 0.024528563 0.08941137 0.020379618
istri -0.15918854 -0.011179415 -0.07838066 -0.07488741 -0.041465286 -0.044566043 0.057398207 -0.04451192 0.11733413 -0.08561416 -0.23642276 -0.10329408 -0.039957155 -0.0390218 -0.0073006866 -0.0065702493 0.13160856 0.090110615 0.06232564 0.15622157 -0.08177425 -0.11984 0.159771 -0.00020851758 -0.064174004 0.17308825 0.03712638 -0.067324385 0.010032675 -0.05518403 -0.04669732 -0.1911348 -0.16349697 -0.11707248 -0.14558414 -0.04105724 -0.04585969 -0.028250502 -0.0419331 0.07149909 0.042292487 0.018635 -0.034392394 -0.113262385 -0.007797185 0.01664685 -0.013937738 0.1763402 0.05123365 0.23737572 -0.08940854 -0.10007467 0.11463308 -0.013726787 -0.016884234 0.036354817 0.062092494 -0.17694488 0.027029382 0.025351344 -0.06008001 -0.20096506 0.02645968 0.1076968 -0.101674356 -0.080221646 -0.17951979 -0.05367101 -0.09050806 0.1945893 -0.031221505 0.17265145 0.08532657 0.07428005 -0.020563949 -0.079889685 -0.11071677 0.08148611 0.031304132 0.14919789 0.0046346937 -0.026287757 -0.09835338 -0.056565985 -0.014903775 0.09208698 -0.0994713 -0.10172937 -0.017162252 -0.10973478 0.01684382 -0.00011058993 -0.07932939 0.09640651 -0.004110151 -0.15311979 0.09988049 -0.1151794 -0.038140465 -0.059851777 0.14607511 -0.13927256 0.031182293 -0.09052208 -0.016750153 -0.08520834 0.004519335 -0.22162451 -0.08200165 -0.012145475 0.04518176 0.0043755127 -0.18733568 0.017582517 0.11697029 -0.024125392 0.14409934 0.038891304 0.1122768 -0.07838033 -0.07100515 0.06531095 -0.031309906 0.0018056624 0.0730954 0.15409645 0.09438811 -0.06863073 0.1386996 0.06783811 -0.11684272 4.1494364e-05 -0.11933378 -0.07512632 0.061312065 -0.07183484 0.00040046632 0.052544218 0.056942172 -0.04595774 -0.025895484 0.06316584 -0.07667296 0.009197604 -0.22728701 0.17091337 -0.0143658975 0.13561349 0.12639806 -0.13652214 -0.056244574 -0.022376804 -0.03049053 -0.035286646 -0.111375205 0.02030414 0.14432648 -0.24585985 -0.024134895 -0.14125516 0.0148149 0.041539416 0.056683604 0.30938998 -0.05372305 0.029384486 0.017486671 -0.07634978 0.025037058 0.20448703 -0.055350114 -0.20435907 -0.08462021 -0.15897144 -0.0121542765 0.011553875 -0.084018245 -0.099187724 0.027973434 -0.03746178 0.04651523 -0.08216476 -0.06077326 0.026629874 0.10442761 -0.14609355 0.07407103 0.057143133 -0.12664457 0.14734696 -0.03505944 -0.009703809 -0.15516713 0.1300163 0.07374988 -0.13334401 -0.15194055 0.14099208 -0.122620806 0.018093446 0.1416818 0.12476562 -0.14931625 -0.11200473 -0.2476743 0.06545054 -0.101173714 0.05018464 0.114790395 -0.15016267 -0.06598446 0.059692223 0.060292646 0.07075866 -0.078794606 -0.11332815 0.047658477 -0.14810109 0.14176008 0.15803938 0.1257005 -0.033001713 0.04477475 -0.08697642 -0.08232283 -0.08522332 -0.17716615 -0.14306541 0.06261376 0.059824895 0.108686365 0.029482791 -0.027963081 0.024676625 0.06847116 -0.12445305 -0.055813376 -0.08679696 0.08609916 0.044734463 -0.15741624 -0.07034488 0.059903085 -0.11561425 0.18253794 0.04287336 0.15160635 -0.009584197 -0.029369067 0.010919559 0.049328454 -0.08627004 0.06887414 0.052925225 0.1709247 0.098293096 0.04414149 -0.08913681 -0.008250352 0.06767586 -0.048766438 -0.080295675 -0.052183095 -0.004821705 -0.094387315 0.057102103 0.025761731 0.12327656 -0.25299636 0.033902563 -0.020068532 -0.05003663 0.0104607595 0.04383629 -0.018135494 -0.032927256 -0.032788273 0.09112783 0.060161967 -0.13094996 0.06939801 -0.022054788 0.011480372 0.049157623 0.031246664 0.07045676 -0.028010868 0.078755535 -0.11526584 0.10595439 0.005873108 -0.17984286 -0.122233756 0.105048485 -0.06686669 0.09132818 -0.16680107 0.02452644 0.08874926 0.020719297
menjual -0.16360684 -0.011647142 -0.08153683 -0.07644263 -0.042076655 -0.0444621 0.05777548 -0.047015194 0.12053777 -0.08728167 -0.2432104 -0.10576711 -0.041466575 -0.04062918 -0.0081768185 -0.007413373 0.13566355 0.09252633 0.06426064 0.15928768 -0.08433403 -0.12270869 0.16505669 0.00020640121 -0.06705288 0.17777814 0.03763774 -0.0705027 0.009568424 -0.05716286 -0.04735715 -0.196364 -0.16680545 -0.12065106 -0.1494435 -0.042356465 -0.046111498 -0.029985743 -0.044863787 0.07328382 0.04419364 0.019877454 -0.035618674 -0.11619824 -0.0077082226 0.017121442 -0.013057561 0.18110545 0.052895036 0.24422564 -0.093294 -0.10376993 0.11792964 -0.01262352 -0.017354658 0.038461417 0.06381486 -0.18095836 0.028287152 0.02561253 -0.06056297 -0.20654055 0.026849912 0.10906482 -0.1041515 -0.08269372 -0.1851742 -0.056089792 -0.09330825 0.20049083 -0.030380974 0.178004 0.08829724 0.07644769 -0.02210916 -0.083690435 -0.11475403 0.082605176 0.03377163 0.15248841 0.00418845 -0.025774084 -0.10030933 -0.059800357 -0.017179955 0.094139926 -0.10152839 -0.105350934 -0.01648014 -0.11266866 0.015710965 0.000150803 -0.08280129 0.097734705 -0.0026408897 -0.15502174 0.10260704 -0.11861512 -0.03898681 -0.062059708 0.1497037 -0.14363687 0.03277273 -0.09105533 -0.017808555 -0.08810864 0.0042273323 -0.22668801 -0.085431166 -0.012007999 0.047377013 0.0049202982 -0.19331177 0.018833451 0.12009531 -0.02424965 0.14888555 0.04103413 0.116111614 -0.08001321 -0.07407655 0.06690334 -0.033386752 0.0016148126 0.07528649 0.1587467 0.09849073 -0.07152663 0.14243655 0.06965467 -0.1212392 -0.0013505542 -0.12199231 -0.07839698 0.064893834 -0.07554393 6.528022e-05 0.05381823 0.058537558 -0.04624412 -0.02520386 0.0632492 -0.07902565 0.009001879 -0.23267914 0.17687146 -0.014684167 0.14003743 0.13021599 -0.14243208 -0.05612951 -0.023320401 -0.03213783 -0.036398914 -0.11380086 0.021185873 0.14752679 -0.25290266 -0.025405323 -0.14463535 0.015363759 0.04355824 0.0569709 0.31693676 -0.05562667 0.02983154 0.018009908 -0.07922567 0.025615416 0.21073249 -0.057108972 -0.2107917 -0.08751635 -0.16333568 -0.011577066 0.011229057 -0.08619861 -0.10247272 0.02780056 -0.0385474 0.04668052 -0.08376726 -0.06341405 0.026881982 0.10863652 -0.15137294 0.07568847 0.057844434 -0.13086002 0.15024431 -0.036068503 -0.011336179 -0.16005503 0.13344721 0.076912135 -0.13766852 -0.15771444 0.14498408 -0.12558962 0.018502643 0.14452589 0.12925075 -0.1524834 -0.11440206 -0.2535367 0.06935022 -0.1029853 0.05104491 0.11719778 -0.15394364 -0.06726077 0.061045412 0.061703987 0.07299129 -0.08134057 -0.11666287 0.048756957 -0.15280722 0.14610924 0.16237968 0.1292277 -0.03425736 0.047336593 -0.090457454 -0.086810306 -0.087915696 -0.18110408 -0.14754666 0.06461136 0.060295485 0.112836346 0.029499518 -0.029293895 0.025476309 0.069950506 -0.1276822 -0.05676136 -0.090830386 0.08955721 0.046915125 -0.16325037 -0.07283298 0.06221594 -0.119179286 0.18659459 0.043296654 0.15523832 -0.009132443 -0.031179415 0.01251231 0.049458966 -0.08816486 0.06933459 0.05499671 0.17678554 0.0999314 0.04481284 -0.09346156 -0.008351301 0.069136545 -0.049718294 -0.08302975 -0.054915246 -0.0042722514 -0.096364886 0.059257716 0.02656236 0.1253661 -0.25863275 0.036443632 -0.019565122 -0.053294465 0.010209662 0.043951567 -0.01742383 -0.03381479 -0.033664122 0.09376691 0.06389774 -0.13459644 0.071792044 -0.02153323 0.013281273 0.050250962 0.032842424 0.07150088 -0.02903075 0.08128618 -0.119074665 0.10843257 0.0061623068 -0.18333055 -0.12485102 0.108383045 -0.0673144 0.09387175 -0.17125976 0.024471648 0.090554364 0.022011474
dikejar -0.16300406 -0.012019189 -0.08172993 -0.07604716 -0.042847965 -0.044364214 0.057218894 -0.04618543 0.11998648 -0.08771077 -0.24280302 -0.105403565 -0.041600503 -0.039692875 -0.00796151 -0.007380108 0.13503547 0.09213343 0.063616894 0.15810235 -0.08350004 -0.1229463 0.16397467 0.0003183766 -0.06627939 0.17726743 0.03675328 -0.07009007 0.010372851 -0.057767257 -0.04726029 -0.19554615 -0.16744602 -0.11963659 -0.14896324 -0.042168185 -0.046540145 -0.029688617 -0.043263905 0.072477356 0.043946184 0.01984742 -0.03522716 -0.11543322 -0.0073146634 0.016229117 -0.012489976 0.17982863 0.053119704 0.24214126 -0.09288082 -0.10405287 0.11757294 -0.013356835 -0.01710685 0.03891543 0.06444199 -0.18004644 0.02807385 0.026715344 -0.060326822 -0.20571813 0.027204517 0.10923721 -0.103082284 -0.08169059 -0.18367718 -0.055729713 -0.09204797 0.19909726 -0.030538885 0.1769061 0.0870491 0.07620494 -0.021598026 -0.08284663 -0.113942586 0.08270007 0.033948224 0.15199535 0.005331907 -0.025950821 -0.100669734 -0.0595922 -0.01678771 0.09283889 -0.1006714 -0.10439742 -0.016377263 -0.11180768 0.015937978 -0.0005056929 -0.081252776 0.097696126 -0.002775092 -0.15476054 0.10281847 -0.117848165 -0.038048994 -0.061275546 0.14812821 -0.1425108 0.03149902 -0.090583324 -0.016502554 -0.08753329 0.0041028103 -0.22625054 -0.08504001 -0.011761254 0.047369972 0.00563713 -0.19153106 0.019174691 0.11952299 -0.024384852 0.14914243 0.041757252 0.1151056 -0.079682134 -0.07325688 0.06568747 -0.03307828 0.002262084 0.0740566 0.15772323 0.09754255 -0.07090518 0.14234693 0.06840732 -0.11983164 -0.0006262074 -0.12108461 -0.0774525 0.064542525 -0.074201524 0.00031852085 0.053679105 0.059112996 -0.046694264 -0.025208794 0.06321498 -0.077804066 0.008720933 -0.23275323 0.17496581 -0.015531381 0.13889855 0.12961708 -0.14153734 -0.05651568 -0.023334434 -0.032509256 -0.035985917 -0.112857096 0.020962933 0.14794454 -0.2518084 -0.025179025 -0.14487153 0.014981645 0.04311151 0.05733772 0.3153745 -0.055299945 0.030033987 0.018123984 -0.07908126 0.02520902 0.20902011 -0.05733367 -0.2101097 -0.08747211 -0.16318022 -0.011413641 0.011946675 -0.08595679 -0.10149681 0.02806243 -0.038661543 0.04725569 -0.08324461 -0.06293937 0.026597593 0.1079627 -0.15041819 0.07484849 0.05838842 -0.13010135 0.14901647 -0.036552634 -0.010142397 -0.15956359 0.1317702 0.07657675 -0.13687277 -0.15706022 0.14420018 -0.12547167 0.018419372 0.1443247 0.12897639 -0.15206325 -0.11439828 -0.25172195 0.067735955 -0.1021003 0.050529335 0.11582048 -0.1525932 -0.06635047 0.0610832 0.06166559 0.073554926 -0.081849046 -0.116701186 0.048682958 -0.1515702 0.14360414 0.16248032 0.12931772 -0.034059472 0.046977032 -0.09069706 -0.086319014 -0.088608086 -0.18022642 -0.14649555 0.063401125 0.060694464 0.110866025 0.030209986 -0.029152181 0.024910577 0.06972738 -0.12715335 -0.056742247 -0.09018183 0.0891111 0.04680907 -0.16234677 -0.07220891 0.062224872 -0.11756074 0.18551229 0.043763973 0.1550195 -0.008418692 -0.030593168 0.011882789 0.048813995 -0.08765065 0.0689583 0.054473225 0.17591576 0.09933732 0.044254158 -0.09292212 -0.008343139 0.06916647 -0.048525948 -0.08285239 -0.05551788 -0.0049925293 -0.094915055 0.059047453 0.02649096 0.12543045 -0.2579047 0.035805576 -0.019686706 -0.05145944 0.010429128 0.044007316 -0.018003825 -0.033577926 -0.033689097 0.093929544 0.062145922 -0.1331374 0.07161904 -0.021662887 0.012074884 0.049653806 0.03279591 0.07246164 -0.027638631 0.08180091 -0.118601896 0.10905799 0.0068174247 -0.18337199 -0.12444388 0.10781597 -0.0666886 0.09410337 -0.17054373 0.024298185 0.09128947 0.021905199
disandera -0.16777012 -0.012268413 -0.083445325 -0.07768512 -0.043071322 -0.045163065 0.05966342 -0.04809568 0.12339209 -0.08954831 -0.24822685 -0.10800529 -0.04286287 -0.041278128 -0.0072866576 -0.0078590885 0.13805138 0.09473767 0.06498981 0.16383897 -0.0856979 -0.12586875 0.16795847 -0.00027209165 -0.06805925 0.18169987 0.03784434 -0.07133115 0.00946068 -0.05889868 -0.048395783 -0.20022795 -0.17206477 -0.12208814 -0.15274748 -0.04267121 -0.04667674 -0.030227734 -0.044609997 0.074126855 0.04539557 0.019816669 -0.035665046 -0.11943157 -0.007280135 0.018272359 -0.013570942 0.1842511 0.053766318 0.24867629 -0.09573155 -0.10611176 0.12143819 -0.013054546 -0.01743023 0.039912146 0.066717006 -0.1846164 0.027885722 0.026226105 -0.06110232 -0.2107371 0.027492378 0.11111366 -0.10674567 -0.08462144 -0.18746357 -0.056989126 -0.09439686 0.20524767 -0.0319616 0.18267216 0.08995436 0.078321464 -0.022354815 -0.086005606 -0.11661238 0.08423574 0.03330338 0.15481955 0.0051271287 -0.027456721 -0.10317546 -0.060536936 -0.017333217 0.09480615 -0.10342227 -0.10776871 -0.017038865 -0.115581356 0.0169287 0.0008247005 -0.083871104 0.10018049 -0.002434864 -0.15774569 0.103537105 -0.12090662 -0.038969107 -0.0629178 0.15326211 -0.14564636 0.0334193 -0.09242777 -0.017527664 -0.090123355 0.003497169 -0.23153669 -0.0873848 -0.011639737 0.048861012 0.005787175 -0.19671105 0.019509962 0.12320545 -0.025170695 0.15296786 0.041563656 0.117827006 -0.08108177 -0.075613685 0.06848055 -0.034675345 0.0023362255 0.07609025 0.16239049 0.10052687 -0.07213523 0.14598627 0.07033326 -0.12392197 -0.0012777575 -0.12342833 -0.07980687 0.066211015 -0.0771968 -0.00021520403 0.0544651 0.06129039 -0.047761634 -0.025778102 0.06502082 -0.08121806 0.009349187 -0.23597373 0.18030463 -0.015386076 0.14279619 0.13286087 -0.14508139 -0.05731059 -0.02415459 -0.033236634 -0.03678821 -0.11549608 0.02097146 0.15057531 -0.25725943 -0.026672348 -0.14771673 0.0145065505 0.044116717 0.05879209 0.32307717 -0.05679522 0.030329814 0.017624969 -0.0816867 0.025246039 0.21549395 -0.057495933 -0.21517088 -0.08926805 -0.16712563 -0.011171996 0.011794744 -0.08745474 -0.10464692 0.027503246 -0.039667387 0.047476117 -0.085484445 -0.06440577 0.027869342 0.11012398 -0.1539877 0.076782964 0.060313694 -0.133939 0.15244694 -0.03598609 -0.010831174 -0.16420406 0.13521136 0.07865109 -0.13928013 -0.16146669 0.14747594 -0.12804486 0.019071743 0.14736943 0.13224192 -0.15485741 -0.116862066 -0.25711274 0.07129998 -0.10559845 0.051445875 0.11786405 -0.1560779 -0.068916686 0.06259287 0.06266917 0.073960334 -0.083555765 -0.11960795 0.05017773 -0.15523186 0.1496597 0.16623156 0.13130951 -0.03404506 0.048808977 -0.09204514 -0.08889908 -0.0903234 -0.18414333 -0.15052797 0.06602351 0.060276393 0.11492266 0.030692004 -0.02944946 0.027505582 0.071211204 -0.1292785 -0.058093917 -0.09231362 0.091404684 0.04792737 -0.16620056 -0.07404131 0.06287882 -0.12117304 0.19094495 0.045221057 0.1586315 -0.009663027 -0.031606313 0.013547684 0.050165836 -0.0898898 0.071447805 0.056442022 0.1794822 0.10195171 0.045825783 -0.095458925 -0.007758326 0.070507556 -0.051752098 -0.08484759 -0.056052554 -0.0050486843 -0.09716907 0.060405806 0.027133439 0.12730354 -0.26422906 0.03820936 -0.02006276 -0.053723224 0.010434472 0.045339458 -0.017553562 -0.03345646 -0.035033785 0.096391276 0.064841084 -0.13741228 0.0732343 -0.02229457 0.013842123 0.05082069 0.034343217 0.07404303 -0.029449675 0.08313043 -0.121588856 0.110120095 0.0059342072 -0.18712868 -0.12706532 0.110540606 -0.06936148 0.09613795 -0.17480682 0.024880484 0.0927988 0.021591887
pencurian -0.16421725 -0.01248943 -0.08195316 -0.07644233 -0.04189613 -0.044925775 0.05814045 -0.046726298 0.120737396 -0.08827033 -0.24350625 -0.10566121 -0.041636974 -0.039992306 -0.008174894 -0.0067992024 0.13546371 0.09397154 0.06424188 0.15987556 -0.08466773 -0.12317336 0.16482715 -2.948443e-05 -0.06679856 0.17710947 0.037592843 -0.07091968 0.010001198 -0.05832512 -0.04725676 -0.19677562 -0.16850576 -0.12078008 -0.14955986 -0.04263963 -0.046506893 -0.030764004 -0.044694997 0.07422576 0.04422213 0.019361835 -0.036209162 -0.11628941 -0.007448042 0.016337266 -0.012646841 0.18110968 0.053311724 0.24363041 -0.092570014 -0.10460612 0.11851826 -0.014118846 -0.01701989 0.03851075 0.06480901 -0.18170224 0.02722557 0.02675889 -0.06018388 -0.20752491 0.027807582 0.10976182 -0.10398477 -0.08260114 -0.18443818 -0.055675212 -0.0929646 0.20041968 -0.031113598 0.17763871 0.087179475 0.076923765 -0.022026857 -0.083294235 -0.11412915 0.083258525 0.032851912 0.15316933 0.0054463777 -0.025745757 -0.10173853 -0.05929846 -0.016098674 0.094488606 -0.10130281 -0.10551438 -0.01670247 -0.11218922 0.015935803 -0.00089134614 -0.08168703 0.09838144 -0.003090066 -0.15589593 0.10332348 -0.11915241 -0.03892609 -0.060847484 0.15005058 -0.1433081 0.032461118 -0.09123221 -0.01696521 -0.08741125 0.004303049 -0.22819653 -0.08491535 -0.012249261 0.04703994 0.006081498 -0.19263208 0.01893956 0.12036406 -0.02479555 0.14909077 0.041289467 0.11571541 -0.08009183 -0.07476319 0.06612506 -0.0337343 0.0023080865 0.0748489 0.1585798 0.09808007 -0.07144224 0.14277601 0.06932015 -0.12102435 -0.0004430411 -0.12137767 -0.07846546 0.063462116 -0.07489529 0.00032949052 0.053517483 0.05913582 -0.046509054 -0.024588533 0.06361405 -0.079962745 0.008646981 -0.23365758 0.1767742 -0.015541505 0.1401978 0.13062419 -0.14184919 -0.057190727 -0.022998752 -0.031682808 -0.035629794 -0.11381963 0.02147158 0.14827707 -0.25324425 -0.025375767 -0.145607 0.016022164 0.043728355 0.057343736 0.31723505 -0.055570856 0.029965783 0.017554956 -0.07986205 0.024866022 0.21106306 -0.057028938 -0.21122803 -0.08867082 -0.16457273 -0.012672076 0.011469305 -0.08614597 -0.10275554 0.029161869 -0.03813293 0.047541115 -0.08487338 -0.06380837 0.027563836 0.10727502 -0.15276378 0.075336546 0.058562193 -0.12908351 0.15007555 -0.03608592 -0.0103005655 -0.15972468 0.13384478 0.076814726 -0.13724089 -0.15753065 0.14501767 -0.12606826 0.018144581 0.14671743 0.12999897 -0.1527143 -0.115466274 -0.25264823 0.06864773 -0.10255023 0.05167262 0.1165288 -0.15401877 -0.066498764 0.060873233 0.062747076 0.073469855 -0.08160188 -0.11618621 0.048781503 -0.15224749 0.14549044 0.16193515 0.12886974 -0.03445863 0.046655335 -0.09070054 -0.08734187 -0.08857816 -0.18156403 -0.14710861 0.06439639 0.061034065 0.11265844 0.029667232 -0.029329622 0.024535324 0.0705874 -0.12799425 -0.05622682 -0.09071149 0.08919989 0.04737134 -0.16314605 -0.07256473 0.06252908 -0.1181796 0.18678214 0.043933045 0.15554664 -0.00944843 -0.030066283 0.012188661 0.049754955 -0.08884404 0.06952241 0.055298306 0.17734386 0.1000061 0.04499377 -0.093864284 -0.0087003205 0.06929837 -0.050311875 -0.084299564 -0.054968737 -0.0043773036 -0.09464707 0.059075404 0.025833214 0.12535597 -0.25897443 0.03559277 -0.020075938 -0.0533227 0.0106417695 0.044991486 -0.01740361 -0.03297353 -0.03447514 0.09360856 0.063421644 -0.13446762 0.07274703 -0.020511758 0.011612215 0.04972664 0.0346435 0.072128475 -0.027870944 0.08172407 -0.11882569 0.10927099 0.0062837754 -0.1839564 -0.12538831 0.109091595 -0.06801934 0.09456956 -0.17118184 0.025138382 0.09101726 0.021191897
lakilaki -0.16048089 -0.011195863 -0.08044494 -0.07626869 -0.04151473 -0.043528173 0.057047248 -0.04617787 0.11921496 -0.087275155 -0.24034107 -0.10505137 -0.0409818 -0.039690275 -0.008364419 -0.007520993 0.13329062 0.09216359 0.06385579 0.15744078 -0.08329848 -0.12146947 0.16296543 0.00015501385 -0.06673826 0.17489114 0.03645192 -0.06995105 0.009884729 -0.057884905 -0.046957936 -0.19460063 -0.16587621 -0.1200455 -0.14837176 -0.041843906 -0.046326216 -0.029999537 -0.0444642 0.07220643 0.04392708 0.020233272 -0.035949003 -0.11592223 -0.007992394 0.016715998 -0.0118724415 0.17914113 0.052508745 0.23949927 -0.09124885 -0.103292115 0.11641227 -0.013572932 -0.01700021 0.038357798 0.06381327 -0.17906338 0.027953874 0.02610916 -0.059957657 -0.20474003 0.027519356 0.10941881 -0.102838516 -0.08097539 -0.18286917 -0.055450115 -0.09174627 0.19882338 -0.030268308 0.17535056 0.08643258 0.075388394 -0.02161212 -0.081710145 -0.11268014 0.08210963 0.03273427 0.15159762 0.004166689 -0.02549611 -0.10027751 -0.058775693 -0.01520536 0.09283871 -0.100662336 -0.10349731 -0.017151559 -0.11097493 0.015980735 -0.00012897662 -0.08105962 0.09691397 -0.0025999718 -0.15369603 0.10207219 -0.11736012 -0.037331052 -0.060591236 0.14855434 -0.14153388 0.031931546 -0.09074858 -0.016734865 -0.08707737 0.0042753303 -0.22556958 -0.0840473 -0.011920298 0.04725985 0.005442603 -0.19126761 0.019217346 0.118657485 -0.023060314 0.1469905 0.040543996 0.114762984 -0.07959682 -0.073179655 0.0650189 -0.032745715 0.0030401277 0.07395898 0.15527783 0.09720276 -0.07116851 0.14091569 0.06890763 -0.118918 -0.0006296537 -0.120027915 -0.07643402 0.06286416 -0.07316392 -0.00038656106 0.053423915 0.058630243 -0.04666147 -0.024570875 0.062388305 -0.07809298 0.008208622 -0.23041742 0.17431612 -0.016296245 0.1379691 0.12784198 -0.14132036 -0.05681663 -0.023064476 -0.031429715 -0.034899034 -0.11154805 0.020440752 0.1461576 -0.24943314 -0.02519716 -0.14317524 0.01607737 0.042228825 0.05741706 0.3125564 -0.054889224 0.02973131 0.018004464 -0.07799302 0.025168857 0.20701908 -0.05583553 -0.20885085 -0.08705221 -0.16235107 -0.012671328 0.011962004 -0.08455281 -0.10139951 0.02810088 -0.037270516 0.046641223 -0.08304521 -0.062235303 0.02691695 0.106908165 -0.14963639 0.07505678 0.057912994 -0.12822828 0.14814293 -0.035585165 -0.00965898 -0.15820041 0.13213779 0.07564897 -0.1348734 -0.15519914 0.14241613 -0.12411509 0.017822683 0.14385156 0.12762053 -0.15031055 -0.11359387 -0.24961552 0.06790081 -0.10139576 0.050783664 0.11491694 -0.1516299 -0.064705335 0.059870396 0.062405095 0.07265578 -0.08134789 -0.1149812 0.04899605 -0.15016384 0.14434907 0.16030708 0.12740354 -0.033516116 0.045890853 -0.08942856 -0.08595656 -0.08843731 -0.17957874 -0.1459382 0.06344437 0.059345275 0.110414185 0.0301222 -0.028478045 0.024561113 0.06920751 -0.12692338 -0.056989163 -0.08940587 0.08846596 0.046807695 -0.16138372 -0.071413495 0.06130866 -0.11690904 0.18398383 0.0432988 0.15366812 -0.0088372 -0.029214762 0.0116462475 0.04884968 -0.08819135 0.068187006 0.0547505 0.1753522 0.09931749 0.04476542 -0.09204121 -0.008329498 0.06843598 -0.050034575 -0.082561664 -0.053647913 -0.0041269595 -0.093682274 0.05788656 0.02567744 0.12345136 -0.25603426 0.035201978 -0.019298272 -0.052550457 0.010224321 0.044197876 -0.017708598 -0.032101963 -0.032785293 0.09333385 0.062328126 -0.13310236 0.07144879 -0.021031123 0.012325668 0.049654715 0.033680297 0.07041787 -0.02766719 0.0801843 -0.117152296 0.10777478 0.0068130274 -0.18148382 -0.12385113 0.10667528 -0.066891216 0.09242384 -0.16964965 0.024276987 0.09029056 0.021091636
paman -0.1759105 -0.012636824 -0.08742894 -0.08262171 -0.04577298 -0.047757357 0.06381817 -0.0506849 0.12863292 -0.09424475 -0.26069203 -0.113570996 -0.04541457 -0.04235858 -0.0075277854 -0.008223526 0.14608786 0.10031598 0.068056375 0.17100644 -0.091203794 -0.13210946 0.17746465 7.571365e-05 -0.072310306 0.1900922 0.03925097 -0.075517826 0.010870659 -0.06267797 -0.051249217 -0.21035415 -0.18010055 -0.12969665 -0.16070588 -0.046464015 -0.049162943 -0.033070337 -0.048656266 0.07861734 0.04896771 0.021482568 -0.03852654 -0.124458715 -0.008382616 0.01883019 -0.01395437 0.19502017 0.056810506 0.26130703 -0.09949113 -0.112600386 0.1264757 -0.014452603 -0.017930457 0.041433997 0.06892113 -0.1946579 0.030004116 0.028366523 -0.06606008 -0.2215678 0.029794078 0.11750843 -0.112012364 -0.08847595 -0.19788614 -0.05968999 -0.100624435 0.21530181 -0.03248739 0.19031726 0.092569806 0.08181656 -0.023785003 -0.08926949 -0.123108365 0.088997826 0.03469272 0.16497445 0.004753886 -0.028977798 -0.10848478 -0.06446872 -0.016376667 0.101093926 -0.10893166 -0.11251421 -0.018735748 -0.121373765 0.017987007 -0.0009347163 -0.087202795 0.1058095 -0.0037578738 -0.16602553 0.11023062 -0.12721448 -0.03930387 -0.06598096 0.1606611 -0.15340249 0.034810394 -0.09871127 -0.018530456 -0.09441244 0.0046023587 -0.24512096 -0.09142001 -0.012202277 0.050467025 0.0051135137 -0.20699055 0.020297166 0.12887433 -0.024957543 0.15916003 0.04479158 0.12400644 -0.0866754 -0.07952706 0.071169734 -0.036250822 0.0044177333 0.080022015 0.16821267 0.104939654 -0.076624915 0.1525769 0.07385363 -0.12928638 -0.00087804557 -0.12989661 -0.08267871 0.068083346 -0.079246506 -0.0004934502 0.05773303 0.06365999 -0.051257614 -0.026931902 0.06782339 -0.08440536 0.0095302565 -0.2497419 0.18871224 -0.017557086 0.1493883 0.14015569 -0.15297537 -0.06060686 -0.023621049 -0.03454112 -0.03764981 -0.12156512 0.022517012 0.1593002 -0.27126083 -0.027607223 -0.15588813 0.016843792 0.04619454 0.061644945 0.3394404 -0.059091702 0.03161309 0.019968024 -0.08496476 0.027338425 0.22492692 -0.06160861 -0.22714126 -0.09481938 -0.17598848 -0.013396182 0.012375354 -0.092218384 -0.1097775 0.031126743 -0.040447645 0.05064313 -0.090371385 -0.06856456 0.029558267 0.11460116 -0.16261359 0.08057125 0.06238073 -0.13919847 0.16056202 -0.039199043 -0.010365948 -0.17228892 0.14325473 0.0819778 -0.14740247 -0.16822076 0.15587048 -0.13432303 0.01972054 0.15614994 0.13889064 -0.16381684 -0.124050274 -0.26975524 0.07277424 -0.10851026 0.0553119 0.12454823 -0.16520324 -0.07038438 0.06584353 0.06709599 0.07880135 -0.08733901 -0.12512006 0.053045835 -0.16335753 0.15645751 0.1741821 0.13812819 -0.036563285 0.050642606 -0.09664905 -0.09302653 -0.09545161 -0.1953298 -0.15685602 0.07016476 0.0651531 0.11989433 0.03239939 -0.031461954 0.026755529 0.07604791 -0.13744392 -0.06129589 -0.09755184 0.095669255 0.051725596 -0.17549272 -0.07671185 0.06773686 -0.12693353 0.20141824 0.046641994 0.16659725 -0.010592968 -0.031689037 0.013161111 0.053037155 -0.09639771 0.074372694 0.058843978 0.18955247 0.10789189 0.049563706 -0.09993176 -0.008786819 0.07519182 -0.053812683 -0.089217536 -0.057962 -0.0038927256 -0.10225212 0.062905036 0.028362278 0.13538219 -0.27772325 0.038187996 -0.022251135 -0.05809507 0.011672509 0.04726777 -0.018599099 -0.035407893 -0.03601959 0.100583166 0.066873915 -0.14497475 0.078095235 -0.022943612 0.013053036 0.053675126 0.03578192 0.07704419 -0.030361777 0.08704784 -0.12653974 0.116252 0.0072708786 -0.1974455 -0.1336462 0.11643987 -0.07250908 0.100616716 -0.18280612 0.026880326 0.09801943 0.022217175
kpk -0.13612701 -0.009252654 -0.06631868 -0.06287535 -0.03534126 -0.036612906 0.049886998 -0.04039825 0.098436914 -0.07375152 -0.20236766 -0.0897666 -0.034215365 -0.03271567 -0.006416463 -0.0064348965 0.11532732 0.07764212 0.05344513 0.13232823 -0.06911147 -0.104021914 0.13834314 -0.00010541128 -0.055502333 0.14889646 0.03145724 -0.05801751 0.009650742 -0.048293028 -0.03901098 -0.16477503 -0.13977014 -0.103015736 -0.124866724 -0.037120935 -0.03768932 -0.027134424 -0.03771128 0.062348925 0.0366408 0.01622105 -0.030445462 -0.09762947 -0.005339061 0.013836509 -0.0117692305 0.150726 0.045494888 0.20469911 -0.07759105 -0.08781219 0.099237956 -0.010564229 -0.014147949 0.0309252 0.053959705 -0.15178987 0.022947595 0.024583763 -0.050830748 -0.1722575 0.022653194 0.09423657 -0.08552786 -0.0694476 -0.154361 -0.046606828 -0.07728461 0.16933557 -0.024655959 0.14810388 0.07314264 0.06355121 -0.018726518 -0.069658004 -0.09490524 0.07047844 0.028243806 0.12628576 0.005500087 -0.023405286 -0.083407916 -0.049538072 -0.012560846 0.07854616 -0.08486522 -0.08778436 -0.014279808 -0.093453564 0.0133692175 -0.00020685144 -0.06654856 0.08368169 -0.002017955 -0.128574 0.085851915 -0.098412 -0.03116878 -0.05059918 0.12538771 -0.11887497 0.02829877 -0.07733114 -0.014972834 -0.07520359 0.0043171463 -0.19113302 -0.07192409 -0.0090177255 0.03980713 0.004329022 -0.1623297 0.016661437 0.10016249 -0.020526042 0.12433827 0.035127096 0.09760035 -0.067530654 -0.06170535 0.05593719 -0.028105011 0.0034401391 0.06400367 0.13018161 0.08221334 -0.05894989 0.11920128 0.056820165 -0.100517645 -8.754622e-05 -0.100885764 -0.065048315 0.053373996 -0.061899375 0.00014740492 0.04551994 0.04947079 -0.040231664 -0.020305082 0.053071164 -0.06591642 0.007670495 -0.19430386 0.14697672 -0.014637776 0.115776494 0.10961963 -0.12031088 -0.048821777 -0.02076957 -0.027188854 -0.02981571 -0.09423468 0.01658181 0.12418358 -0.21042904 -0.021786856 -0.122618936 0.0136040775 0.037403066 0.048451815 0.26487988 -0.046483167 0.023951383 0.01666093 -0.0671509 0.021158038 0.17521833 -0.0486478 -0.17668803 -0.073251195 -0.13809958 -0.010352738 0.008489563 -0.07271175 -0.08610641 0.023784367 -0.030631816 0.038793948 -0.070361964 -0.05279755 0.023146432 0.08993156 -0.1281908 0.06234691 0.04813802 -0.10905354 0.1255378 -0.028622588 -0.008103317 -0.1345038 0.11130228 0.06375401 -0.114310145 -0.1323884 0.120467365 -0.10565057 0.015196549 0.12188382 0.108773746 -0.1269203 -0.09656828 -0.21009445 0.05608418 -0.08360397 0.043579258 0.09799851 -0.12882037 -0.054735538 0.05236729 0.05372435 0.060882743 -0.068349816 -0.09710146 0.040722705 -0.12762655 0.122556604 0.13713382 0.109030925 -0.02871013 0.039938223 -0.075983934 -0.07309239 -0.07293626 -0.15153085 -0.12271973 0.054380655 0.04997062 0.09226797 0.024997514 -0.024197344 0.023155471 0.058570556 -0.10800167 -0.04761016 -0.076150075 0.07404106 0.040325373 -0.13826427 -0.060353313 0.054077774 -0.09957401 0.15735963 0.036298633 0.13070188 -0.0071877716 -0.024332179 0.0093887085 0.04140697 -0.075900845 0.056969564 0.04419833 0.14920853 0.08506464 0.037443735 -0.07957185 -0.0079743005 0.058639187 -0.041233726 -0.06894288 -0.045059986 -0.0020777835 -0.079967156 0.049754005 0.023097506 0.10590773 -0.2175281 0.028715236 -0.017354898 -0.04586074 0.0072332993 0.03759217 -0.015078646 -0.02909134 -0.028534193 0.07743671 0.051947106 -0.11289435 0.060443398 -0.018471548 0.008725963 0.04198849 0.02922305 0.05963986 -0.023735052 0.06646545 -0.09906816 0.09135693 0.0063443417 -0.15476413 -0.10474891 0.09006738 -0.056832347 0.07978666 -0.14381473 0.019467985 0.076284 0.017410515
prajurit -0.16700262 -0.011940342 -0.084649384 -0.07736558 -0.042267725 -0.045245413 0.058127925 -0.04661207 0.12272995 -0.08934447 -0.24803059 -0.108631045 -0.04171776 -0.040353727 -0.006837037 -0.007438874 0.13834056 0.094787784 0.06461813 0.16184989 -0.08456435 -0.12470093 0.16702792 -0.00016098292 -0.06800383 0.18040837 0.0381234 -0.07048975 0.009623815 -0.058675494 -0.047979288 -0.19951983 -0.17166542 -0.1223083 -0.15288065 -0.04294632 -0.04623992 -0.031200502 -0.04482427 0.07327765 0.045590878 0.018480277 -0.03488504 -0.11847004 -0.008085276 0.017124293 -0.012151502 0.1839162 0.054401238 0.24871747 -0.09491369 -0.10609743 0.12044076 -0.013698626 -0.017577626 0.03944963 0.06639271 -0.1845362 0.027536416 0.026186086 -0.061799724 -0.21059921 0.02861074 0.11167637 -0.106571645 -0.084551424 -0.18834183 -0.056615148 -0.094521224 0.20410597 -0.032246917 0.18219219 0.08892781 0.07801304 -0.022349926 -0.085748166 -0.11668621 0.08509036 0.033817798 0.15554756 0.005773433 -0.02663013 -0.102571554 -0.060195107 -0.017251128 0.094553165 -0.10331624 -0.1068744 -0.016450457 -0.11540541 0.01691904 0.00036060147 -0.08350194 0.09938522 -0.0024501747 -0.15858689 0.10447837 -0.12156476 -0.039378315 -0.06256269 0.15207529 -0.1458399 0.032098215 -0.0934217 -0.017205993 -0.08880697 0.0038401126 -0.23068582 -0.08674215 -0.012902069 0.04979108 0.005626992 -0.19580804 0.019495953 0.12200998 -0.024010368 0.15263484 0.04136056 0.11792837 -0.08171286 -0.07505827 0.06741894 -0.033535045 0.0017362728 0.075826794 0.16193943 0.09996702 -0.072503746 0.14541686 0.070370086 -0.12394328 -3.3538494e-05 -0.12328743 -0.07963101 0.06643425 -0.0756968 -0.00043826585 0.05445027 0.060374543 -0.047913693 -0.026239812 0.065085046 -0.080793604 0.009891153 -0.23592483 0.18020527 -0.014545057 0.14288095 0.13236845 -0.14461005 -0.05630494 -0.023716804 -0.0331933 -0.03705557 -0.11477626 0.021287207 0.15084483 -0.25703374 -0.026938079 -0.14669813 0.015743628 0.04432931 0.0589805 0.3221004 -0.056122787 0.030532537 0.017752431 -0.0808421 0.02669549 0.21395813 -0.057606317 -0.21391185 -0.08903223 -0.16671687 -0.011855615 0.011548833 -0.08625592 -0.104299575 0.028632987 -0.03824366 0.047634054 -0.08622136 -0.06487378 0.027517535 0.11006475 -0.1536926 0.076303944 0.05938762 -0.13333133 0.1533286 -0.035253633 -0.011265169 -0.16280788 0.13542019 0.07824297 -0.1390354 -0.16085833 0.14784811 -0.12762754 0.019726792 0.14864273 0.13217562 -0.15438236 -0.11699769 -0.25773853 0.07076536 -0.105258316 0.052047163 0.11844697 -0.15656121 -0.068275966 0.062058255 0.06250157 0.074093185 -0.083564654 -0.11860758 0.050801348 -0.15479934 0.14877822 0.16554165 0.13087004 -0.034082837 0.048184257 -0.09236236 -0.08807243 -0.0900019 -0.18363854 -0.1499976 0.06645089 0.061260775 0.115031034 0.030489912 -0.030558512 0.025974654 0.07131413 -0.13064384 -0.058516975 -0.09137793 0.091776974 0.04754057 -0.16532217 -0.07387217 0.06299277 -0.12122443 0.19042656 0.044243913 0.1585613 -0.009225794 -0.031926684 0.012150491 0.05020489 -0.090716064 0.071468696 0.05666571 0.17974512 0.100961104 0.045717645 -0.09451333 -0.008907102 0.07076617 -0.05024429 -0.08543542 -0.05693455 -0.0051405556 -0.097876966 0.060367472 0.027377907 0.1279024 -0.26317447 0.03733835 -0.020449292 -0.05369523 0.010823874 0.04496538 -0.017214902 -0.033901382 -0.034478802 0.096313894 0.06406571 -0.13643564 0.07330941 -0.021023368 0.012759769 0.05095489 0.03443959 0.07394243 -0.029142018 0.08373796 -0.120519586 0.11067253 0.006260672 -0.18736026 -0.1271222 0.11039716 -0.06852766 0.096474275 -0.1746762 0.025482379 0.09277961 0.021337464
kepolisian -0.15993187 -0.011409408 -0.08001227 -0.074827075 -0.041703496 -0.043585546 0.056320183 -0.045819726 0.118492045 -0.086606406 -0.23862444 -0.10320283 -0.04043891 -0.03915107 -0.0077642375 -0.0074355686 0.1329952 0.09189482 0.06301583 0.15637384 -0.082270615 -0.12001424 0.16159189 0.00073497137 -0.064773045 0.17396091 0.03629677 -0.06858938 0.01074895 -0.057332367 -0.04669616 -0.19197132 -0.16461416 -0.11922907 -0.14686462 -0.04164823 -0.045975775 -0.029848568 -0.04381575 0.07237323 0.043603297 0.019319916 -0.034776468 -0.11416767 -0.008027527 0.01705253 -0.012441346 0.17697932 0.052259527 0.23896244 -0.091167934 -0.102116115 0.11604023 -0.013582595 -0.015980927 0.038018722 0.06320254 -0.17752534 0.027095512 0.02594952 -0.05982427 -0.20328742 0.026768208 0.107504815 -0.10184701 -0.08072078 -0.18078227 -0.05398703 -0.09133872 0.19604933 -0.03040999 0.17420493 0.08469952 0.07529984 -0.02207208 -0.08222789 -0.11137024 0.080854475 0.032875758 0.14982073 0.005050259 -0.025328167 -0.099059105 -0.05810653 -0.016389057 0.09169803 -0.0992869 -0.10302978 -0.016545614 -0.110395156 0.015848346 -0.00026216032 -0.08028097 0.096197374 -0.0024657573 -0.1528315 0.10100474 -0.11651743 -0.03725969 -0.060080413 0.14722909 -0.13948406 0.031628072 -0.08961148 -0.017314881 -0.08605342 0.0039480804 -0.22348721 -0.08388376 -0.011869981 0.046243846 0.005205245 -0.18868746 0.018032864 0.11730077 -0.023770357 0.14538288 0.039882895 0.11370297 -0.07853024 -0.072304055 0.064699665 -0.032887317 0.0026728353 0.073560946 0.15471394 0.09699052 -0.07001198 0.13946402 0.068021506 -0.118645616 -3.1082545e-05 -0.11900929 -0.076064736 0.062448476 -0.07275305 -0.00021566075 0.05284704 0.05757502 -0.046117034 -0.024841964 0.062496364 -0.077616364 0.008619725 -0.22776882 0.17278285 -0.015057579 0.13677095 0.12755919 -0.1397388 -0.056177866 -0.022965102 -0.03126286 -0.034285888 -0.11066475 0.02018545 0.14577997 -0.24666366 -0.02513423 -0.14244443 0.01440167 0.04279119 0.056253243 0.31047782 -0.05388166 0.030103773 0.01811327 -0.07711403 0.025067678 0.20619528 -0.056300897 -0.20741363 -0.08611129 -0.16034912 -0.0123373475 0.0108694015 -0.08381156 -0.10075668 0.028516283 -0.036965158 0.04642035 -0.08306197 -0.062166404 0.026774304 0.10580014 -0.1481435 0.07407306 0.057649735 -0.12656118 0.14619134 -0.03460549 -0.009992497 -0.15742588 0.13075174 0.07499 -0.13432263 -0.15431865 0.1417474 -0.12383387 0.01832857 0.14262938 0.12675798 -0.14937782 -0.11289174 -0.24756882 0.067095645 -0.100393675 0.050425086 0.1143734 -0.15024126 -0.064936616 0.06016181 0.06092829 0.07184725 -0.079781435 -0.114335634 0.048522003 -0.14941132 0.14268667 0.15921135 0.12614517 -0.033860046 0.045946676 -0.08825791 -0.084742524 -0.08769439 -0.17782053 -0.14462796 0.0632405 0.05957769 0.10961561 0.02914175 -0.028850222 0.024202935 0.06862935 -0.12572597 -0.055649035 -0.08834253 0.08813671 0.04651545 -0.16058108 -0.071556546 0.06045089 -0.11597407 0.18302111 0.042519048 0.15245067 -0.008628357 -0.029509775 0.011493489 0.048506703 -0.08674235 0.06836814 0.053927388 0.17332092 0.09825027 0.04431551 -0.09171431 -0.007948961 0.06788113 -0.04929754 -0.08245868 -0.053531066 -0.0049561188 -0.09350451 0.057374574 0.025540562 0.12316949 -0.25434428 0.03529814 -0.020212421 -0.051501866 0.010694536 0.043378547 -0.017953843 -0.031919226 -0.033021465 0.091567956 0.062061243 -0.13139927 0.07062449 -0.02090013 0.011984359 0.04862242 0.03356713 0.07011591 -0.027084528 0.07976631 -0.115582354 0.10671629 0.0065061585 -0.18010202 -0.12262037 0.10614518 -0.06683184 0.09230915 -0.16841182 0.02360171 0.0893775 0.02088534
bareskrim -0.16267996 -0.0114738 -0.080140695 -0.07678002 -0.04280755 -0.043264605 0.057632245 -0.046826433 0.11941805 -0.08715457 -0.24051826 -0.104319334 -0.04186724 -0.038641613 -0.007161408 -0.007599284 0.13481782 0.09276474 0.063300505 0.15810405 -0.083621256 -0.1225126 0.1639506 0.00041074798 -0.06552853 0.1747427 0.03673395 -0.070080005 0.010403997 -0.057726953 -0.04627283 -0.19526993 -0.16532838 -0.11925037 -0.1492221 -0.04164196 -0.046009816 -0.029830577 -0.044267915 0.07345344 0.044353075 0.019170968 -0.035403278 -0.115523204 -0.008430166 0.016218815 -0.01243075 0.17940925 0.05269303 0.24087158 -0.092177756 -0.1029168 0.116337255 -0.013933548 -0.016166607 0.038678095 0.06427804 -0.17857154 0.027392194 0.026047967 -0.060718432 -0.20579976 0.027863597 0.109131895 -0.10370574 -0.08148148 -0.18286414 -0.054957595 -0.09234364 0.19884092 -0.030964069 0.17593713 0.08507003 0.07615715 -0.021678148 -0.08226572 -0.112327956 0.082169674 0.0329839 0.15274908 0.0046376227 -0.026924789 -0.0998247 -0.059025012 -0.016288795 0.093894415 -0.10089836 -0.1039347 -0.016979795 -0.111591846 0.015352878 -0.00051241874 -0.08156662 0.09802884 -0.003086686 -0.1549349 0.102983475 -0.11729612 -0.037445348 -0.061027978 0.14887674 -0.14170937 0.03153853 -0.090175584 -0.016701393 -0.08709186 0.0032835146 -0.22598517 -0.08486584 -0.011970786 0.04736148 0.005476837 -0.19092558 0.019001225 0.11916113 -0.023106363 0.14690761 0.040375955 0.11455081 -0.08025015 -0.07286665 0.06540325 -0.033929132 0.0028339091 0.07485227 0.15544792 0.097031556 -0.071718745 0.14105982 0.06849115 -0.11924826 9.291993e-06 -0.1194392 -0.07785945 0.06307823 -0.073255666 -0.0011749875 0.05351255 0.05927107 -0.047309797 -0.024780814 0.062568724 -0.077980116 0.008374852 -0.23133056 0.1743758 -0.015548619 0.13770513 0.12853701 -0.1404188 -0.05724008 -0.023072902 -0.031537026 -0.03500412 -0.112489246 0.02050158 0.1464835 -0.24988857 -0.025315175 -0.1433138 0.014944289 0.04275846 0.057032093 0.31409934 -0.054292254 0.030702433 0.018655937 -0.07916447 0.02509631 0.2076672 -0.057141643 -0.20924908 -0.08679442 -0.16335738 -0.012045723 0.0119506 -0.08533844 -0.102078214 0.030188775 -0.037776757 0.04575015 -0.08290275 -0.062231787 0.026811548 0.10685783 -0.15079385 0.07430067 0.057911728 -0.1282075 0.1488567 -0.036480833 -0.009631961 -0.15872212 0.1325832 0.07629295 -0.13697405 -0.15722466 0.14369 -0.124898806 0.018273002 0.14495961 0.12734392 -0.15163632 -0.11324613 -0.25044546 0.06767022 -0.10101549 0.051652867 0.11517176 -0.15181547 -0.064556874 0.060992215 0.061301466 0.072503515 -0.08075413 -0.11543924 0.048499554 -0.15113786 0.1459765 0.16006291 0.12772879 -0.03335248 0.04695968 -0.08908994 -0.08620528 -0.088025 -0.18022463 -0.14632931 0.06360237 0.059859652 0.110495366 0.029660624 -0.028599985 0.025073152 0.06898435 -0.1276961 -0.056329444 -0.090369165 0.08859721 0.047988407 -0.16242698 -0.07238454 0.062215194 -0.1180236 0.18536614 0.04248261 0.15357576 -0.008608007 -0.0293277 0.011972542 0.04894395 -0.0885387 0.06818793 0.054592922 0.17649224 0.09851567 0.045273926 -0.092889264 -0.008919829 0.068646856 -0.048822366 -0.08339766 -0.054076247 -0.004970454 -0.094765216 0.057876512 0.02542536 0.12416702 -0.2573141 0.035582468 -0.020077668 -0.052765988 0.010955872 0.04366711 -0.018115357 -0.031629965 -0.032797076 0.09247513 0.062185183 -0.13341138 0.071324095 -0.02091814 0.01195357 0.049485866 0.033010725 0.07151143 -0.028168298 0.08030422 -0.11687853 0.10841264 0.0067736586 -0.18081246 -0.12347726 0.1073322 -0.067355864 0.09327518 -0.16898814 0.024018424 0.0912716 0.020406859
