lakilaki 0.029102597 0.09475981 0.028545836 0.04824703 -0.011516638 -0.08144305 0.058322057 0.19841035 -0.009508913 0.0037094073 -0.014609477 -0.06299332 0.0037860314 -0.0028829505 -0.07665633 -0.027683066 0.083397396 0.05759858 -0.030597648 -0.038337804 -0.025990017 0.0037695759 0.047945976 0.014020919 0.048056267 0.0022168146 -0.098430686 -0.010818149 -0.012624484 -0.095735565 0.037041605 -0.03986904 0.05954386 0.013816172 -0.014583935 0.038494695 0.045498163 -0.097898155 0.012588504 -0.0013367007 -0.055514187 0.027167473 0.026414776 -0.055859055 0.09052977 0.071053214 0.042389605 0.031335056 0.018847404 0.029083002 0.02351939 0.019057455 -0.020987742 0.054712884 -0.064068735 0.09987717 0.010571455 -0.019625241 0.010350408 -0.0030294925 -0.03768162 -0.023132788 0.0036865068 0.010136869 -0.012873388 0.052823786 0.0009938718 -0.00015720935 -0.059011385 -0.060298365 0.005094013 0.0015605201 0.07695896 -0.06053371 -0.029126475 0.03108164 -0.06015145 0.031825256 -0.018818751 0.07259486 -0.032552212 -0.06455984 0.016829597 0.16193548 0.045191076 -0.0012148456 -0.044516556 0.01836309 0.08688668 0.05000796 0.13196307 -0.0455432 0.004853861 0.0026801112 0.054399468 0.07565043 0.049996126 -0.012603389 -0.010076375 0.067836694 -0.03167812 0.016050547 0.09256677 0.037786044 0.026036147 -0.067000926 0.0013762903 0.01268453 -0.0602612 0.04107707 -0.09352088 0.016514597 0.012582431 0.057836834 0.058055498 0.04733487 -0.013130724 0.021067236 0.10742914 -0.11187636 0.04173494 0.05735506 0.041500792 -0.028178517 -0.092464395 0.049933776 0.012756138 -0.058901448 -0.025327504 0.074476905 0.06493233 0.10750732 -0.0025624475 -0.06685786 0.019376218 0.07701341 -0.04722488 -0.04675651 -0.09353598 -0.1143216 0.03840475 -0.070661165 0.021045858 0.0324332 -0.00023589714 -0.073296964 -0.09602873 -0.031022517 0.033573154 -0.09038059 0.03153641 -0.16411103 -0.032809637 -0.01558329 0.032187786 0.037385263 -0.057917815 -0.0098428475 0.012321916 0.09399215 0.036255065 0.041345775 -0.13610259 0.060688496 -0.04493669 0.036333367 0.033914868 -0.036078427 0.0031368262 0.08923706 -0.06260924 -0.01983944 0.010951289 0.044270404 0.01370546 0.024074432 -0.004541508 -0.086295314 0.017152594 0.0058664847 -0.039648596 0.08454963 -0.04326937 -0.037725367 0.0075182673 0.024245886 0.065894656 0.07810285 0.04433072 -0.08715051 0.0045341756 -0.013988134 -0.07885424 -0.0031910236 0.051590864 -0.08139229 0.0076446976 -0.08641773 0.044452008 -0.046175156 -0.068684086 0.031150267 -0.010250608 -0.02873315 -0.012169095 -0.01829109 -0.042749014 0.025679596 0.017709607 -0.015296042 -0.008374234 -0.07141054 -0.013019405 -0.04951373 0.051401813 -0.05135257 -0.053075142 -0.17981698 -0.091149256 -0.08355382 0.07242064 0.0025244993 -0.03598098 -0.034829386 -0.06483391 -0.05274457 -0.011863579 -0.020115994 -0.03576705 0.06711519 0.069394894 -0.028324144 -0.05141586 0.0900078 -0.047087707 0.049448464 -0.04680663 -0.018980015 0.0050018686 -0.14015341 0.011388911 -0.0062455973 -0.050564393 0.016134068 0.020195149 -0.071205296 -0.010460526 0.025009204 0.015574134 0.05528955 0.018771272 0.033587243 0.00414397 -0.01502766 -0.09776668 -0.03484609 0.11955348 0.03535481 -0.15397039 -0.10179783 0.001517862 0.056726705 0.032128297 -0.13972013 -0.0768806 0.010361662 0.050798435 0.062644236 -0.08669086 0.025029462 -0.06500763 0.019582164 -0.012146292 -0.035564914 0.07841693 0.03573131 0.07454108 0.018438114 -0.0892785 -0.036248736 0.029123379 -0.0033379497 0.012147366 0.08647819 0.038330868 -0.01484154 -0.14473875 0.05591817 0.00911791 0.098213516 0.010408012 0.08854554 0.043022115 -0.040820878 0.102629945 0.11157921 0.012245799 -0.041251857 0.046058193 -0.06866045
saksi 0.026162088 0.09571722 0.027336065 0.04761234 -0.011180002 -0.081226625 0.061552644 0.20127633 -0.0029150585 0.0013950603 -0.011433867 -0.065733925 0.0057507954 -0.008527884 -0.07165852 -0.02892297 0.08370175 0.053346902 -0.027760677 -0.03031325 -0.02743277 0.0028738126 0.0507958 0.009620705 0.041267965 0.006468489 -0.10296954 -0.010559949 -0.008861947 -0.093547456 0.036531374 -0.048880905 0.053448275 0.010285688 -0.013517739 0.040629175 0.04823982 -0.09653615 0.0049689556 0.0067135086 -0.049553975 0.03093925 0.026847659 -0.056140624 0.086312324 0.06915706 0.046713475 0.032977127 0.020617487 0.029088037 0.022616727 0.014345985 -0.028141849 0.052071802 -0.06517201 0.098475344 0.011222564 -0.016588775 0.0061579025 -0.003150461 -0.037566792 -0.024572175 0.007164508 0.013905891 -0.012924429 0.048383914 -0.00089404004 0.0020215078 -0.063067295 -0.06543502 0.004471319 0.0032587596 0.07652193 -0.05623368 -0.029900478 0.03295158 -0.06242143 0.034565102 -0.016108738 0.069099605 -0.039418105 -0.06458657 0.019123122 0.1600058 0.043806754 0.00015995534 -0.042562608 0.01945199 0.0844563 0.044156834 0.13148896 -0.04668513 0.004278662 0.00042037442 0.05896444 0.073340215 0.051686544 -0.017263008 -0.012609286 0.066123895 -0.034985766 0.012750215 0.08826953 0.037877843 0.029943194 -0.070712775 0.001028324 0.008270699 -0.06569197 0.04067226 -0.09964727 0.023116281 0.005331202 0.059153765 0.056668486 0.043137256 -0.01449386 0.020977858 0.107416354 -0.11565814 0.041940913 0.05143165 0.042348288 -0.021692162 -0.09371607 0.04924555 0.014028349 -0.056325126 -0.020264288 0.06930018 0.06398208 0.1077254 -0.005028555 -0.0727066 0.021334553 0.07154913 -0.04735632 -0.04904223 -0.092127874 -0.11826347 0.0426806 -0.07059861 0.020119952 0.03655293 0.0014889642 -0.078580566 -0.096420325 -0.027581545 0.034868147 -0.09185988 0.029253943 -0.16347106 -0.026587602 -0.015738258 0.03320915 0.036470864 -0.060507573 -0.012217332 0.014543193 0.09298022 0.03414138 0.04170005 -0.14045237 0.06026345 -0.046220142 0.033469368 0.031325135 -0.028256692 0.001510741 0.0973409 -0.061827138 -0.017083423 0.011748114 0.051480703 0.015486154 0.0249603 -0.0048413347 -0.0885985 0.01966437 0.004400881 -0.038351446 0.08318615 -0.041906215 -0.034886457 0.006792929 0.02207916 0.07012888 0.07738346 0.036965176 -0.092746906 0.0061002886 -0.013179203 -0.08491899 -0.0065973043 0.052295543 -0.08249307 0.016090894 -0.08960347 0.045648526 -0.04518285 -0.0645024 0.036765583 -0.007445283 -0.03428373 -0.013705781 -0.01433315 -0.040404394 0.030991744 0.013408227 -0.014669452 -0.009811471 -0.07373308 -0.014230502 -0.04951063 0.051412985 -0.052009217 -0.05122214 -0.17670093 -0.09376142 -0.08059188 0.07110761 -0.0026992871 -0.036506694 -0.029813921 -0.06548066 -0.050714217 -0.01360857 -0.0220052 -0.03572471 0.062048133 0.068782 -0.0354804 -0.048899807 0.088503264 -0.049617108 0.05077965 -0.045249444 -0.019079672 0.009186058 -0.14357543 0.012037278 -0.008000678 -0.051489767 0.0117034605 0.016192062 -0.072321855 -0.012989647 0.026308626 0.018432127 0.055124115 0.01736077 0.030298572 0.012715054 -0.015857438 -0.09373164 -0.03544556 0.12523 0.03232129 -0.15009685 -0.100711055 0.0034391852 0.057422534 0.029770803 -0.14073546 -0.07735257 0.0082492605 0.044672854 0.066031374 -0.08781411 0.018941168 -0.06385496 0.015538906 -0.008608096 -0.03620421 0.07746669 0.0415889 0.06723719 0.021071391 -0.08749082 -0.037337422 0.03504603 -0.0015386597 0.017076092 0.07765375 0.03576546 -0.017693967 -0.13899142 0.05602512 0.0065775127 0.09850057 0.008317817 0.09119473 0.04501186 -0.03823777 0.10300284 0.109493814 0.010042796 -0.043813586 0.04887166 -0.06332858
perdaganganorang 0.03096574 0.09218005 0.027222302 0.048601445 -0.012781764 -0.079813145 0.062603876 0.1989745 -0.005347376 0.0035434715 -0.012194136 -0.06645885 0.004037323 -0.004734501 -0.07502357 -0.028458133 0.08395653 0.056425575 -0.025097717 -0.03420923 -0.027195755 0.0031697769 0.051267147 0.006833134 0.04462473 0.006631522 -0.10474713 -0.012563615 -0.009908861 -0.094160914 0.03815578 -0.045963224 0.05489998 0.011482803 -0.01635767 0.038883533 0.04396996 -0.096780956 0.006070474 0.0018987665 -0.0479862 0.028194116 0.027418757 -0.05726485 0.08460928 0.07075632 0.04424327 0.030458275 0.020262452 0.02887844 0.021027174 0.011883643 -0.02784042 0.05565611 -0.065950684 0.09578473 0.01019024 -0.021628015 0.002532469 -0.0045492323 -0.037349198 -0.02680494 0.006930057 0.014726892 -0.01462578 0.051358856 -0.002742366 -0.0017300231 -0.06425709 -0.064353704 0.0026431421 0.006439464 0.075758554 -0.057354048 -0.027511835 0.032528892 -0.059437927 0.034674395 -0.014962609 0.0702983 -0.03645422 -0.067998484 0.01643638 0.15974663 0.04340826 -0.00075904577 -0.041977867 0.016852656 0.08299372 0.046555616 0.1326151 -0.04611992 0.0031827416 0.0013133804 0.055787537 0.073408656 0.05196728 -0.01691921 -0.012775426 0.06906579 -0.031409904 0.011871007 0.09276768 0.04077006 0.028202431 -0.0723921 0.0015951633 0.0065278094 -0.06595168 0.036929555 -0.097928844 0.021603875 0.00842385 0.057436954 0.057856943 0.045166984 -0.012368455 0.019994643 0.10381221 -0.117331654 0.041414425 0.05449533 0.039827224 -0.026654255 -0.09544154 0.05083924 0.012656104 -0.05559268 -0.01950488 0.07156257 0.060078062 0.10842505 -0.0055868803 -0.07180607 0.017946977 0.0729631 -0.047932535 -0.05033849 -0.09395676 -0.11744153 0.04476918 -0.06923243 0.022548093 0.035051577 0.0024253665 -0.07823114 -0.09919209 -0.02815395 0.036023706 -0.08951019 0.025869165 -0.16470858 -0.026627865 -0.01598962 0.03224994 0.041203417 -0.06032079 -0.008348398 0.015104308 0.096491136 0.035119988 0.042324003 -0.14197834 0.062372264 -0.04499995 0.034996733 0.025996396 -0.028058935 0.0025267 0.093853936 -0.059342615 -0.018368486 0.013731076 0.05045709 0.013753473 0.02374239 -0.0019952874 -0.09263266 0.018621434 0.0047020586 -0.038376868 0.08516841 -0.044741303 -0.033253822 0.009134597 0.023660542 0.0692155 0.07927633 0.041705083 -0.09212051 0.005742294 -0.01301944 -0.08898927 -0.0036076317 0.050800104 -0.08003667 0.01436488 -0.09242315 0.04595696 -0.047137845 -0.06478644 0.03913889 -0.0056183254 -0.029287368 -0.009288273 -0.013486103 -0.038780343 0.028671447 0.013525966 -0.011777232 -0.0076732724 -0.07439132 -0.009680545 -0.04773353 0.055242535 -0.049381986 -0.050880607 -0.17516936 -0.095255546 -0.08063886 0.0733056 0.0005347229 -0.035588708 -0.033722024 -0.062383838 -0.049484733 -0.015113196 -0.021539912 -0.03603537 0.057947945 0.06951293 -0.034785617 -0.045946006 0.093638964 -0.049534526 0.04990104 -0.046760686 -0.018971527 0.00915669 -0.14486374 0.008160762 -0.005117219 -0.049441647 0.011324785 0.016185 -0.07129554 -0.012780963 0.025504708 0.017465245 0.054026634 0.01645953 0.032828677 0.010608509 -0.019118343 -0.08993213 -0.036477584 0.12319351 0.03418211 -0.1459638 -0.100564905 -0.00040197134 0.0562765 0.0301978 -0.1387364 -0.08069225 0.0074446737 0.043051735 0.067133375 -0.087997094 0.022393784 -0.06699809 0.014433925 -0.008806722 -0.03526328 0.075106725 0.03775073 0.06732534 0.018246325 -0.09044007 -0.039047435 0.033200346 -0.0015591995 0.017685268 0.07955579 0.03788435 -0.015327061 -0.13674441 0.050923504 0.006398975 0.099159494 0.0043113455 0.08869545 0.048391882 -0.03821583 0.10322491 0.11057296 0.011137228 -0.039479703 0.04982587 -0.06312898
gangster 0.02712475 0.09140814 0.025009494 0.05074803 -0.013184691 -0.08240166 0.059965204 0.20109569 -0.005264442 0.0019695896 -0.013286714 -0.06793596 0.0039481944 -0.006695074 -0.07446225 -0.025942856 0.082268186 0.05154913 -0.023164857 -0.033903193 -0.02764794 0.0048050946 0.046963714 0.0063576964 0.04606877 0.0046429452 -0.10700769 -0.008665233 -0.009961586 -0.09467276 0.03888567 -0.04696689 0.056317378 0.013131222 -0.017078644 0.039614122 0.046168853 -0.09376398 0.008082084 0.0060706614 -0.048772983 0.031720057 0.024136143 -0.056876156 0.08404903 0.06891241 0.04495382 0.035208866 0.022671416 0.0322273 0.022374667 0.016811216 -0.026390478 0.057105705 -0.062470287 0.09592452 0.009489565 -0.01994687 0.00619358 -0.002176671 -0.038334437 -0.023601176 0.0077873063 0.014098637 -0.01517797 0.048301287 -0.0021786771 -0.0028302567 -0.061786044 -0.06423296 0.003907974 0.006468152 0.07561425 -0.061868947 -0.02879783 0.03252463 -0.06016536 0.031224815 -0.012137906 0.06868364 -0.037107963 -0.067313775 0.016972238 0.16168979 0.04440277 -0.00079248915 -0.047014795 0.018842088 0.08690091 0.04815291 0.13031755 -0.0438696 0.005804041 0.003354953 0.059450213 0.07124007 0.047546595 -0.013970342 -0.009288106 0.068704516 -0.031309053 0.011995822 0.09286882 0.03573584 0.026458165 -0.074584715 -0.0005999289 0.00921584 -0.06602026 0.036500994 -0.095504954 0.020667149 0.009861494 0.057192333 0.05900067 0.04587441 -0.012510195 0.018971821 0.106804214 -0.11715277 0.04091415 0.052621603 0.042387553 -0.025105733 -0.095199935 0.050462388 0.01360132 -0.058695517 -0.015574902 0.07027761 0.06094209 0.10743235 -0.0021075907 -0.06815923 0.020895967 0.074639685 -0.045436196 -0.050828382 -0.093776554 -0.118475266 0.041981477 -0.06908733 0.020762747 0.03658146 -0.0019728737 -0.07892444 -0.0982199 -0.027811041 0.03148031 -0.08968684 0.026437012 -0.16478388 -0.03129262 -0.013952738 0.03455309 0.038538042 -0.059548058 -0.010536601 0.016720334 0.09577216 0.030119825 0.04236603 -0.1404182 0.060902037 -0.047770478 0.035274345 0.026179466 -0.03251889 0.0036524069 0.09457422 -0.059391428 -0.016031422 0.0115309255 0.05387221 0.0155312875 0.026090352 -0.002863871 -0.09366176 0.016689911 0.00868296 -0.03490215 0.08728354 -0.04057027 -0.03138722 0.0055568055 0.025431147 0.06662613 0.07767684 0.041228503 -0.090608224 0.007540944 -0.01124547 -0.0866176 -0.003856836 0.04952924 -0.08020793 0.017812703 -0.092708744 0.046269953 -0.0482775 -0.058959447 0.038972534 -0.006727067 -0.030533573 -0.010481675 -0.015805872 -0.04175624 0.031826206 0.013784535 -0.014375134 -0.0071035395 -0.07243805 -0.012889354 -0.047827624 0.053708375 -0.051314246 -0.050466556 -0.17659703 -0.094336174 -0.08253662 0.071887255 -0.005293648 -0.03829813 -0.034488168 -0.06612765 -0.052230034 -0.01637718 -0.017430404 -0.03488526 0.060185567 0.06655614 -0.0354052 -0.047204573 0.09089688 -0.04971821 0.04871814 -0.04614616 -0.020599235 0.0055863177 -0.14415921 0.0071154935 -0.0062956214 -0.04864325 0.014204788 0.015486837 -0.07182718 -0.010053663 0.024219047 0.017982254 0.058007486 0.017655363 0.030980153 0.013088459 -0.016882641 -0.093321845 -0.036053687 0.12283456 0.035696637 -0.14862254 -0.09926912 0.0021207328 0.057725985 0.027791256 -0.1393089 -0.08042879 0.0095562935 0.046305317 0.067996494 -0.0882286 0.022384891 -0.06569651 0.016641375 -0.009330261 -0.03633066 0.078242205 0.041419897 0.0680141 0.022515422 -0.08841651 -0.039470635 0.032588154 0.003059604 0.013553937 0.078911565 0.037920613 -0.015529437 -0.1390124 0.05146358 0.009621868 0.09971568 0.0072987266 0.088037126 0.044699788 -0.035921205 0.10258806 0.10616348 0.008090055 -0.04221742 0.04655024 -0.06199199
forensik 0.027748348 0.09246686 0.030283703 0.045591045 -0.011059537 -0.07906186 0.06050876 0.20274197 -0.0019128306 0.0016108742 -0.01579884 -0.06893047 0.0022470262 -0.0075616813 -0.07573657 -0.030845232 0.08183009 0.055626098 -0.023708133 -0.033141654 -0.029016357 0.0040570404 0.048866317 0.00996381 0.04455763 0.007744396 -0.1073725 -0.008812412 -0.010253907 -0.09116728 0.03418081 -0.047372255 0.05608161 0.010949354 -0.016257007 0.035767004 0.04348182 -0.09759889 0.008447439 0.004230449 -0.051234126 0.031780817 0.024466004 -0.055987768 0.08223027 0.06610421 0.04850132 0.031733487 0.019088179 0.03161718 0.023759313 0.012581428 -0.025224745 0.052992024 -0.063404106 0.09752606 0.00953611 -0.018648421 0.007681862 -0.00015209099 -0.040813565 -0.027404767 0.007374169 0.01468905 -0.014885284 0.050228745 0.002491911 -0.0003710238 -0.06489685 -0.06271165 0.005086838 0.006264644 0.0783369 -0.06073279 -0.029391704 0.0339212 -0.05993313 0.029850902 -0.016862193 0.069222674 -0.040367946 -0.06491741 0.017490609 0.16313347 0.04265795 0.0007016996 -0.04263473 0.017331252 0.08401299 0.047207013 0.13431257 -0.047091044 0.0064634634 -0.0013110866 0.057478502 0.074281394 0.052774336 -0.013583848 -0.009884579 0.070395105 -0.03634502 0.015424967 0.088814974 0.037595 0.027039625 -0.07375755 -0.0015372783 0.005784943 -0.066130035 0.03906757 -0.09950298 0.023224447 0.004974303 0.057456758 0.06082858 0.046422634 -0.011539528 0.020970881 0.10676765 -0.11655503 0.043650985 0.05482645 0.042892713 -0.022274174 -0.09113203 0.051755577 0.010994582 -0.060204707 -0.017935555 0.0716413 0.064497836 0.10927095 -0.002381949 -0.0718678 0.021060029 0.07228365 -0.049236394 -0.04733848 -0.09204757 -0.11946452 0.04151516 -0.070613824 0.023813142 0.03582137 -0.0006704643 -0.078786835 -0.0986057 -0.027814982 0.035740394 -0.09098311 0.02843939 -0.16463257 -0.031784642 -0.0142644085 0.03346009 0.039469864 -0.056569003 -0.010601123 0.013927376 0.097294584 0.034648474 0.04536836 -0.13979538 0.06284703 -0.04324416 0.033746127 0.03179233 -0.029469367 0.0044502425 0.09509193 -0.06119882 -0.019787094 0.010013945 0.05143996 0.017509365 0.026008498 -0.0048976014 -0.08930849 0.018829335 0.0052752504 -0.036376234 0.08351821 -0.040309906 -0.032564566 0.009237763 0.025474416 0.070565686 0.07907723 0.039751653 -0.093937114 0.00781728 -0.009938569 -0.08564439 -0.0058112135 0.04964489 -0.08202987 0.01713833 -0.09175303 0.043376032 -0.043537036 -0.060182877 0.038820155 -0.007036454 -0.034423225 -0.008848142 -0.015549189 -0.040141113 0.031076342 0.018333523 -0.016175985 -0.0059704157 -0.07625749 -0.014721625 -0.049670447 0.050614383 -0.047853734 -0.047318466 -0.17673257 -0.09239347 -0.08152536 0.07577615 -0.000722333 -0.03878599 -0.033336468 -0.06573531 -0.048727356 -0.013811158 -0.0205277 -0.033804297 0.059621878 0.06506806 -0.03351696 -0.04795347 0.08877627 -0.051278826 0.046087727 -0.043832425 -0.018406272 0.0074843327 -0.1409225 0.012020695 -0.006338479 -0.04763723 0.013699328 0.017759081 -0.06925218 -0.014307726 0.023755878 0.018757142 0.057071693 0.01796999 0.03447534 0.011728246 -0.020554492 -0.093034625 -0.038034666 0.12564285 0.035816688 -0.14901221 -0.09763625 -0.00044477844 0.05593393 0.028688688 -0.13738158 -0.077420086 0.009056173 0.044225547 0.06451907 -0.08580009 0.020604337 -0.06646378 0.012169942 -0.008603887 -0.03792029 0.077800244 0.037272178 0.072920315 0.020332802 -0.087725155 -0.037461482 0.030537447 0.0004036478 0.016222453 0.07800588 0.03749123 -0.014349029 -0.13625793 0.05513505 0.0064424975 0.09604408 0.008320526 0.090016186 0.0488516 -0.035575427 0.10138464 0.1067727 0.010348492 -0.0392586 0.046023898 -0.059397314
wartawan 0.024945758 0.09407506 0.028525725 0.049389224 -0.016762093 -0.08148677 0.06645385 0.20368499 0.00036883587 0.004910686 -0.010804101 -0.0712036 0.0055227317 -0.010764542 -0.07306688 -0.030863669 0.07928796 0.052561108 -0.023334734 -0.024746124 -0.03223393 0.0068283645 0.046155978 -0.00037361355 0.038187448 0.0062201787 -0.11137206 -0.009811869 -0.0062422417 -0.093812436 0.036191635 -0.054287568 0.051924147 0.010111226 -0.013439145 0.039364748 0.04896004 -0.09460088 0.0029333595 0.013844885 -0.047100917 0.030912245 0.022817727 -0.054707646 0.07809519 0.06557235 0.049503416 0.03387065 0.02653293 0.02970374 0.02032245 0.009431201 -0.026839685 0.05753775 -0.062490452 0.097240925 0.016173808 -0.017782677 0.001728884 0.0029857412 -0.03636959 -0.029150436 0.0062020766 0.015146501 -0.013847169 0.045183904 -0.003975746 -0.0012095331 -0.06491984 -0.06391766 -0.0022591688 0.005498483 0.07823312 -0.059554752 -0.029274035 0.041184746 -0.060669612 0.033032976 -0.008829388 0.063819386 -0.044830672 -0.06874831 0.017107375 0.15775557 0.04322926 0.00588823 -0.047741123 0.015436402 0.08345238 0.047961872 0.13402317 -0.04979151 0.0055043492 -0.0004496976 0.059991114 0.07038302 0.05096599 -0.017756026 -0.0122802 0.06647255 -0.033160277 0.009554067 0.089043245 0.040396586 0.03405582 -0.079435706 -0.0025793463 0.0069006626 -0.06696955 0.03649898 -0.10380898 0.025790913 -0.001140113 0.06344335 0.052511986 0.0458501 -0.013666418 0.019102387 0.102960326 -0.11899045 0.043159455 0.05207938 0.03851295 -0.022693645 -0.095325716 0.05189913 0.013916493 -0.057016198 -0.009767542 0.067541 0.060229298 0.10603359 -0.010339832 -0.07837292 0.017559787 0.071195394 -0.04430986 -0.05334316 -0.090619005 -0.1255082 0.048651066 -0.07198042 0.021764645 0.034466885 0.0024748135 -0.07851569 -0.098684646 -0.028402194 0.033503897 -0.09057813 0.023405947 -0.16620915 -0.029092606 -0.011401735 0.035068467 0.039788894 -0.060874246 -0.013682696 0.01212065 0.0952446 0.02897312 0.04598523 -0.14544415 0.058592923 -0.04150238 0.034657244 0.026432341 -0.025396815 0.0042636385 0.10263449 -0.057392705 -0.015448729 0.013557809 0.05654808 0.018103004 0.019457236 -0.007125521 -0.09487637 0.018421618 0.005605407 -0.031932823 0.08733834 -0.04291925 -0.03121317 0.0078038736 0.024979027 0.069746435 0.07422465 0.03473236 -0.09863729 0.008529814 -0.009859283 -0.09107614 -0.007773428 0.049372435 -0.07809495 0.020352669 -0.093744196 0.043702133 -0.044802945 -0.057355225 0.04135076 -0.004115163 -0.036512174 -0.007892187 -0.00894607 -0.036767595 0.03342122 0.0112221 -0.00971292 -0.00973969 -0.07354656 -0.006915667 -0.04627127 0.053550288 -0.05113977 -0.045686133 -0.17116787 -0.09398624 -0.078406215 0.07566577 -0.0097542405 -0.041242942 -0.032695424 -0.06366288 -0.05101206 -0.01763111 -0.017792406 -0.03748235 0.054934323 0.06622172 -0.037986573 -0.0443133 0.09310478 -0.050683655 0.05234205 -0.05029067 -0.018197967 0.010277894 -0.14736502 0.010366846 -0.0063643837 -0.045882765 0.00965872 0.015050805 -0.07259754 -0.013232461 0.022529373 0.02114732 0.057162944 0.018344367 0.034741543 0.01880453 -0.022133825 -0.08514541 -0.036727775 0.12836081 0.030462988 -0.14330728 -0.09685724 0.0018319362 0.055217665 0.023822209 -0.1363882 -0.07970913 0.0050926544 0.040818416 0.07005257 -0.085336655 0.01938876 -0.060936145 0.0057587954 -0.0074825995 -0.0377113 0.07924639 0.04310911 0.07024152 0.022769298 -0.083628386 -0.035533965 0.035087533 0.0042747473 0.021040412 0.07372696 0.035623625 -0.017555896 -0.1297938 0.053389616 0.008640141 0.09764166 0.00417889 0.08760979 0.05183818 -0.037433166 0.09878546 0.104772344 0.009424761 -0.041975234 0.053747002 -0.056214437
korbankriminalitas 0.031531576 0.090274945 0.02519185 0.049151525 -0.009864288 -0.082178 0.061834842 0.20257266 -0.0066370904 0.001226155 -0.01573943 -0.06819816 0.0051626447 -0.003557277 -0.07151052 -0.028328156 0.0821185 0.057591084 -0.021880437 -0.029982056 -0.02580567 0.0010403552 0.047072887 0.0050287507 0.04581951 0.005003906 -0.107706584 -0.008946426 -0.006518864 -0.09428247 0.039406277 -0.048512824 0.054032065 0.010553108 -0.014254722 0.03703932 0.046501625 -0.09288629 0.010142375 0.0015679197 -0.050837778 0.027905999 0.027579665 -0.052963667 0.08286252 0.069045395 0.043855615 0.03374604 0.025059931 0.028814377 0.019855708 0.011913787 -0.026603416 0.05454188 -0.062207326 0.10180722 0.00947152 -0.018537594 0.008131796 -0.0015095136 -0.037490424 -0.022455659 0.008393167 0.016814929 -0.016018866 0.053261336 0.0011311023 0.0028631857 -0.062950656 -0.061683223 0.005023982 0.00307414 0.079109885 -0.057845403 -0.026529232 0.033457004 -0.062198095 0.034607634 -0.017611986 0.06584858 -0.040484004 -0.06652075 0.016514767 0.16175646 0.047715567 0.0009117274 -0.04469203 0.018833192 0.08447283 0.043871254 0.13601957 -0.047779832 0.006194307 0.004165225 0.057483796 0.074424334 0.05163945 -0.01674532 -0.010566502 0.067727625 -0.031439885 0.0146194445 0.09069711 0.04049573 0.025864495 -0.07009397 0.0037248349 0.0064731366 -0.064071864 0.03725537 -0.09786205 0.022789061 0.010237541 0.058911666 0.058898628 0.044698108 -0.010648817 0.017551817 0.10373735 -0.11562071 0.040678877 0.055176873 0.03733826 -0.025162155 -0.09641528 0.05074284 0.012866782 -0.060993515 -0.016331134 0.07233154 0.061687242 0.105027966 -0.00426366 -0.070273966 0.015488216 0.07590818 -0.048552014 -0.051672913 -0.09289323 -0.12078164 0.04306748 -0.0654849 0.024179628 0.037040766 -0.00048681462 -0.07637517 -0.09847976 -0.03060272 0.034877416 -0.08913505 0.024945823 -0.16584505 -0.032672413 -0.016454015 0.03514586 0.04109195 -0.056293104 -0.009357615 0.017367058 0.094193704 0.03232324 0.04059941 -0.14140752 0.059134178 -0.045153167 0.036256664 0.026503181 -0.032040954 0.00020164388 0.093839936 -0.061463803 -0.017782042 0.013667061 0.04903787 0.013382831 0.023514185 -0.0023819648 -0.08913556 0.016610393 0.005211302 -0.03819558 0.08501764 -0.0420769 -0.033342008 0.011097936 0.023473287 0.06801686 0.07475412 0.038977403 -0.09449918 0.0046374 -0.011173928 -0.08930476 -0.0025203596 0.0481091 -0.08384651 0.011567902 -0.08844282 0.047298774 -0.042910233 -0.0610485 0.03654558 -0.007999238 -0.029123355 -0.010031223 -0.012472715 -0.04161327 0.030240513 0.017643275 -0.013482627 -0.007531196 -0.0736783 -0.01068451 -0.04566022 0.052759174 -0.051565737 -0.05112547 -0.17364131 -0.095126376 -0.08009676 0.0730042 -0.0013419815 -0.041675944 -0.028821558 -0.06383705 -0.05147723 -0.013401665 -0.020091841 -0.03897193 0.058600593 0.06698936 -0.036178757 -0.047424886 0.09171479 -0.05091626 0.049553894 -0.045939635 -0.017459275 0.008550819 -0.14196685 0.0104889115 -0.0068230736 -0.05237714 0.014739277 0.01558428 -0.07459866 -0.015002708 0.022815172 0.020160021 0.057395373 0.018878566 0.030083183 0.010974632 -0.019045392 -0.09302884 -0.033581197 0.12394257 0.03278589 -0.15106283 -0.10049382 0.0010992399 0.059865978 0.02929075 -0.14143285 -0.08195367 0.0099766655 0.043513387 0.06381822 -0.08338015 0.019266807 -0.062626086 0.01363901 -0.012895806 -0.03788139 0.07992533 0.042827204 0.07040589 0.021965528 -0.08916778 -0.038669202 0.03120577 0.00075670966 0.014983586 0.078753315 0.03332575 -0.012295113 -0.13640232 0.05302793 0.00568097 0.10047018 0.0038207902 0.08978934 0.047387883 -0.034190085 0.10296493 0.107097045 0.010948106 -0.042077824 0.044623394 -0.062534414
menjual 0.02863922 0.0956448 0.03063972 0.051305994 -0.015389107 -0.07803462 0.059231605 0.19933301 -0.0039337757 0.0053711976 -0.012065337 -0.06530078 0.008266369 -0.00679606 -0.07558872 -0.030452603 0.083549924 0.052643035 -0.026253708 -0.030101929 -0.028686197 0.0014351631 0.047589656 0.007525975 0.044420697 0.007926046 -0.10674513 -0.010395979 -0.0066766874 -0.09240407 0.038495492 -0.049995955 0.057416156 0.008106608 -0.013163264 0.035312697 0.045089617 -0.09802421 0.006716495 0.002954359 -0.051587485 0.030306285 0.026182251 -0.055949446 0.08121562 0.06612719 0.04647182 0.032186054 0.018067513 0.02954556 0.023872849 0.016130762 -0.029451316 0.055778045 -0.065292336 0.095255695 0.01084857 -0.018705381 0.0019036278 -0.0039961375 -0.038278777 -0.023317851 0.0023853343 0.017180728 -0.014177129 0.050019413 0.0026004508 0.0015000086 -0.06359407 -0.06192626 0.003981629 0.0069243684 0.07678912 -0.06034372 -0.029046109 0.032221712 -0.060293294 0.034351725 -0.012289711 0.07136925 -0.041081637 -0.06806303 0.020034544 0.15985608 0.04188417 0.0010640976 -0.043835863 0.017638113 0.08341305 0.04819268 0.13680924 -0.049040988 0.004642452 0.00036264685 0.05450711 0.072854996 0.04827276 -0.012619642 -0.013717558 0.068419464 -0.033338297 0.013842525 0.09084192 0.04199884 0.028950823 -0.07446494 0.0003071957 0.008665518 -0.06616195 0.03605059 -0.10029056 0.019614698 0.009290194 0.06029025 0.060324743 0.046416257 -0.015496958 0.02044159 0.10858138 -0.11390052 0.042647045 0.055274714 0.036963567 -0.021057948 -0.09074773 0.052120544 0.010793963 -0.055643365 -0.015261054 0.06864528 0.060150348 0.108896576 -0.0080132205 -0.07235884 0.02042789 0.07560592 -0.043053973 -0.051579572 -0.094840355 -0.115582936 0.045004603 -0.07037586 0.01956225 0.03271108 -0.0014825389 -0.078095295 -0.09692492 -0.027657371 0.032563712 -0.092018336 0.031413756 -0.16617261 -0.03169457 -0.01195511 0.03457392 0.041453887 -0.05958882 -0.012349961 0.01494424 0.09407778 0.029203808 0.04264417 -0.14007062 0.062314153 -0.042729925 0.035172123 0.027266257 -0.030939016 0.0012335981 0.097262815 -0.06251837 -0.017785827 0.012201552 0.049122486 0.012167129 0.024889147 -0.0072478536 -0.09134321 0.018867852 0.009591534 -0.03890887 0.08640495 -0.03926202 -0.036251742 0.0074596666 0.025994314 0.07017258 0.07727071 0.041750666 -0.09158078 0.0058226 -0.012212769 -0.08933332 -0.0046541914 0.051938653 -0.08369013 0.0146841705 -0.09100594 0.04562038 -0.042870495 -0.06284008 0.034516536 -0.004328721 -0.034665316 -0.014098477 -0.014136313 -0.044127773 0.030354615 0.015310298 -0.013735355 -0.011129552 -0.07334676 -0.012705466 -0.045981668 0.054697495 -0.047806922 -0.046485063 -0.1780553 -0.0897943 -0.08064007 0.07628818 -0.0021110978 -0.037393957 -0.03529786 -0.06686141 -0.0468659 -0.015793657 -0.018603262 -0.033919793 0.059631035 0.07076365 -0.03381928 -0.05093696 0.08828848 -0.05060595 0.045582805 -0.04386409 -0.019099148 0.004865223 -0.13986066 0.0127240475 -0.0042009167 -0.047077868 0.008962145 0.015960982 -0.07460464 -0.014179146 0.02430138 0.018720372 0.056177262 0.017661752 0.032932 0.013216813 -0.015752617 -0.093483485 -0.033075385 0.12482955 0.037284616 -0.14641988 -0.100365974 0.00013088612 0.057319585 0.026475433 -0.13539344 -0.07811251 0.0088492 0.045455646 0.06234913 -0.08340978 0.023921555 -0.064786546 0.014756898 -0.012617198 -0.039730437 0.080741376 0.03863346 0.07170712 0.021092303 -0.088083476 -0.0372428 0.031830203 -0.00036913334 0.016123379 0.08174177 0.035130493 -0.015394559 -0.14009517 0.056757297 0.0038952532 0.10022605 0.007168751 0.08662768 0.04543449 -0.03998884 0.098696575 0.11060932 0.013250468 -0.040656045 0.048447516 -0.057852577
perempuan 0.02574129 0.09171794 0.028405027 0.04767188 -0.01907282 -0.08319288 0.06765577 0.20348142 -0.0020545677 -0.00054438994 -0.01088058 -0.06927456 0.004144848 -0.00863415 -0.07341446 -0.027689954 0.08010418 0.05496003 -0.02548076 -0.029074453 -0.03088843 0.0041485946 0.047373123 0.0027589286 0.03951464 0.006547754 -0.10858873 -0.01400724 -0.0073860884 -0.09425701 0.037511043 -0.052729495 0.05345832 0.008394375 -0.012566361 0.036288265 0.05113408 -0.096324 0.0054340167 0.009445334 -0.048597164 0.031873394 0.02576066 -0.05765826 0.08055468 0.06339841 0.050668467 0.036603615 0.027211802 0.030882623 0.020077072 0.014124827 -0.030219622 0.055281445 -0.058983613 0.09866414 0.015142224 -0.016745655 0.0009665354 0.003284658 -0.034606542 -0.028169515 0.0051849135 0.016973423 -0.015180084 0.04768903 -0.0051654866 -0.002647678 -0.066848814 -0.061994184 0.00074875425 0.0064547267 0.077707194 -0.058222555 -0.02749431 0.038305588 -0.058469065 0.035174888 -0.010607136 0.0629643 -0.040199973 -0.065940015 0.017621668 0.16016755 0.043704305 0.004186225 -0.044766605 0.018239288 0.08517774 0.04684218 0.13506544 -0.04987959 0.0048457147 -0.00037775363 0.061642893 0.06888058 0.05151744 -0.021721208 -0.011524188 0.06483532 -0.033115756 0.012898425 0.08950226 0.039607666 0.033012327 -0.07782301 -0.0019622622 0.0061117522 -0.06810989 0.036471523 -0.1044191 0.027686173 0.0020015524 0.060852055 0.054894656 0.04379992 -0.0104051195 0.022633463 0.101124756 -0.119178556 0.040059052 0.0484005 0.037925243 -0.024801247 -0.09290039 0.049065396 0.010321953 -0.05664516 -0.011204657 0.067938365 0.061715677 0.10554269 -0.011190978 -0.07656026 0.019190792 0.07230579 -0.041555673 -0.05171309 -0.08767345 -0.123953395 0.04705813 -0.0702532 0.024181528 0.034830067 -0.0018697077 -0.08134355 -0.09769936 -0.026774371 0.033221062 -0.090600856 0.02593518 -0.16736583 -0.02901424 -0.01319924 0.03528745 0.03918165 -0.05852757 -0.009633123 0.01350624 0.09618976 0.029940369 0.043826796 -0.14510658 0.0597971 -0.041645873 0.034091465 0.028605515 -0.029936688 0.001227635 0.09975348 -0.061733406 -0.021399833 0.012315371 0.056659624 0.01585957 0.01984265 -0.009140394 -0.09384487 0.019887565 0.008372401 -0.032602478 0.08856458 -0.04135352 -0.030879112 0.0075833257 0.024359168 0.07179851 0.076551504 0.03397369 -0.09536668 0.004254061 -0.010891796 -0.09009089 -0.010509236 0.050152604 -0.082164675 0.018691966 -0.09191147 0.0423535 -0.043005098 -0.05833176 0.040767357 -0.0084316945 -0.03234975 -0.006344063 -0.006691694 -0.037975688 0.034168303 0.007659773 -0.006599885 -0.011643308 -0.07249498 -0.0082132 -0.044696946 0.05129453 -0.049775477 -0.043173425 -0.17062975 -0.09593253 -0.080351055 0.075445056 -0.008861732 -0.037966218 -0.032841116 -0.06403193 -0.051213194 -0.016927762 -0.016742907 -0.03797023 0.05746266 0.06762486 -0.037874203 -0.044564933 0.093354166 -0.05459471 0.04999427 -0.04974075 -0.02021126 0.01111334 -0.14423418 0.009345911 -0.006333503 -0.049061045 0.009452038 0.013090241 -0.07160293 -0.012644013 0.021260735 0.023221642 0.055231996 0.016361147 0.03179833 0.015104232 -0.0214228 -0.08771518 -0.035807177 0.124833554 0.030714508 -0.1464737 -0.09993229 0.0019861534 0.055291895 0.024362631 -0.13834496 -0.084263794 0.0067748986 0.041805085 0.067783065 -0.08807525 0.019942224 -0.062407676 0.0077493927 -0.008360179 -0.039026573 0.07532123 0.040745728 0.06950396 0.024051996 -0.08720469 -0.037537232 0.03693209 0.0041782036 0.016568407 0.07617079 0.0336892 -0.019364243 -0.13296197 0.052912805 0.006914125 0.09776328 0.0036669788 0.08775265 0.052135456 -0.03792115 0.09772992 0.10342263 0.011033229 -0.040405 0.05354196 -0.055408034
mengungkap 0.029031042 0.09588114 0.026871357 0.04937087 -0.009748138 -0.08030828 0.063200496 0.1976144 -0.0021660351 0.0050178235 -0.012047097 -0.0704993 0.0046012574 -0.0058139465 -0.07601619 -0.030796349 0.083752856 0.0521383 -0.027382523 -0.029150726 -0.030094264 0.0067280848 0.048679568 0.008655342 0.043043185 0.0039470796 -0.10811962 -0.011487737 -0.011328365 -0.0942809 0.038989414 -0.05072369 0.053217597 0.0090761315 -0.017073276 0.035490945 0.04551702 -0.09199518 0.01042432 0.002460398 -0.0533654 0.029014206 0.022146827 -0.057391983 0.08246429 0.06953551 0.04363869 0.033824306 0.022014657 0.031632952 0.020971969 0.011097298 -0.024238667 0.05268645 -0.061805353 0.09932573 0.013832118 -0.018759271 0.0041415896 0.00028831602 -0.04006665 -0.02872155 0.0062977592 0.013359131 -0.015229306 0.049399637 -0.0038878783 -0.00021745858 -0.06299792 -0.06419366 0.004091073 0.006017475 0.079023086 -0.0617094 -0.031043129 0.03141814 -0.06420309 0.031266473 -0.014826878 0.06580768 -0.040121023 -0.06700711 0.01992611 0.16033679 0.04695855 -0.0017802722 -0.04631396 0.018110154 0.08796747 0.04697539 0.13411592 -0.046210606 0.005556796 -0.002294801 0.05748854 0.075373456 0.052149557 -0.013858522 -0.014770826 0.0665002 -0.030470151 0.012589921 0.08729384 0.04024623 0.027038956 -0.070423245 0.002548424 0.0061233863 -0.06388576 0.040757783 -0.099703185 0.021374946 0.010280727 0.061826166 0.054946177 0.046984456 -0.01063809 0.01881217 0.10703643 -0.11578871 0.04475442 0.053537473 0.042203866 -0.0210209 -0.091826454 0.04675174 0.013151897 -0.05727128 -0.017421436 0.07065062 0.06544163 0.10883973 -0.001845321 -0.07347906 0.01716682 0.07391013 -0.045333445 -0.050308097 -0.09406325 -0.11986512 0.039469413 -0.065738596 0.023895787 0.031659834 0.0011654843 -0.0754339 -0.09959573 -0.029583683 0.034014825 -0.08702681 0.024961384 -0.16482498 -0.031738866 -0.014879803 0.034707572 0.036908615 -0.058927137 -0.009655368 0.012629807 0.097309984 0.03451431 0.04052572 -0.14213069 0.06114822 -0.047998592 0.031487722 0.026103353 -0.032628972 0.0057848883 0.09796636 -0.059596617 -0.021549447 0.014445794 0.05249957 0.014928976 0.020010628 -0.0051410585 -0.09117972 0.0152770225 0.00736504 -0.036551252 0.082823664 -0.0455603 -0.03209963 0.0057552597 0.022584118 0.07002777 0.07671763 0.038290653 -0.093640134 0.0047468147 -0.0101495 -0.08836587 -0.0074205203 0.04994623 -0.08201184 0.012050138 -0.09460767 0.047820993 -0.043148223 -0.0635986 0.033403747 -0.0077676335 -0.03311979 -0.007880611 -0.0133058205 -0.043583665 0.028958578 0.011816825 -0.01266802 -0.010061819 -0.07455636 -0.0106477905 -0.04453548 0.053654056 -0.05229891 -0.047353122 -0.17867029 -0.09586625 -0.082993336 0.07269426 -0.0021578246 -0.03982169 -0.03149948 -0.060464066 -0.04765314 -0.014769701 -0.016429441 -0.035675503 0.0595419 0.06531176 -0.031078082 -0.050831087 0.09040383 -0.047286294 0.047977146 -0.04618671 -0.02299603 0.009600884 -0.14043081 0.006592608 -0.007143287 -0.046718556 0.013246388 0.016180376 -0.07119991 -0.016228177 0.027895896 0.017819457 0.05415397 0.017950378 0.03296192 0.0087505635 -0.016206972 -0.092461854 -0.038326666 0.1255646 0.03623812 -0.14555578 -0.09835259 0.0016977252 0.054980367 0.029169437 -0.13580461 -0.07862851 0.0069023506 0.043105956 0.06550211 -0.08838892 0.02348765 -0.06400986 0.017054852 -0.012733765 -0.03922862 0.075594 0.036862332 0.07078095 0.021801151 -0.08746288 -0.037102755 0.02987636 -0.00033470185 0.012935489 0.08080362 0.035230134 -0.012498154 -0.13880043 0.05586676 0.008476181 0.098561056 0.005818513 0.091620035 0.04834753 -0.03469012 0.10186401 0.110212445 0.011909035 -0.04421417 0.046387352 -0.06126763
pimpinan 0.028293958 0.09411566 0.027762191 0.051303577 -0.013854935 -0.08038805 0.06325696 0.19986147 -0.0028489567 0.005469849 -0.014206473 -0.06987138 0.0053082826 -0.010644671 -0.07483154 -0.031983506 0.081302434 0.051762193 -0.022823289 -0.034140967 -0.02335946 0.00042095943 0.046891004 0.007875823 0.04329955 0.0068707676 -0.10517416 -0.011851823 -0.011743272 -0.09727082 0.03847826 -0.047581375 0.05766303 0.007953697 -0.013172141 0.03487433 0.04852292 -0.09270124 0.0047734403 0.007295702 -0.052105542 0.026355837 0.025639584 -0.05438089 0.08105894 0.06514371 0.049107023 0.033543687 0.021598667 0.030799454 0.020058159 0.014971341 -0.02495344 0.058789518 -0.06558828 0.09893373 0.012732169 -0.022039464 0.00085259957 0.0009370798 -0.03514773 -0.027057897 0.0071919244 0.014166499 -0.015886554 0.049118474 -0.002775023 0.002372355 -0.062141053 -0.06572735 0.0031063522 0.00310239 0.078898445 -0.059128005 -0.025903415 0.035309702 -0.06236336 0.036073685 -0.0136051485 0.06665569 -0.04009309 -0.067225225 0.015997605 0.1604376 0.040533807 -0.0014832044 -0.04339253 0.01841753 0.08722532 0.045257535 0.13347273 -0.04519137 0.006074596 0.0014858771 0.059794027 0.07500105 0.046920326 -0.015407265 -0.015352067 0.06559039 -0.03447634 0.00974661 0.094017684 0.039311137 0.028950213 -0.074047066 -0.002983747 0.0039776373 -0.061104767 0.03766906 -0.09576384 0.020312672 0.011541643 0.059708543 0.058378655 0.0427828 -0.013405971 0.018983616 0.10840484 -0.11296557 0.041781936 0.054593984 0.041318815 -0.02653951 -0.09005329 0.04947709 0.011541238 -0.053968515 -0.018468458 0.07228487 0.06124634 0.11005023 -0.0038999333 -0.07112373 0.017558005 0.07677647 -0.04616823 -0.051876683 -0.09189466 -0.11856126 0.042869233 -0.07158896 0.02564214 0.034527034 0.0029726087 -0.07526521 -0.098771945 -0.025636014 0.03334573 -0.0938309 0.031758882 -0.16073357 -0.025511598 -0.01606308 0.030135883 0.04048618 -0.0605658 -0.006135652 0.016221216 0.09661268 0.035218075 0.043523196 -0.14179824 0.060362536 -0.041725073 0.030968798 0.027995681 -0.031683564 0.0045165014 0.09788856 -0.062037274 -0.016871637 0.010230006 0.051987357 0.017880687 0.024712719 -0.00602392 -0.09202265 0.02072687 0.010153109 -0.03452826 0.083643295 -0.042922266 -0.03649748 0.0069514373 0.02548568 0.06540456 0.07434397 0.043033704 -0.08789989 0.008801391 -0.011564955 -0.09001386 -0.008077333 0.05213902 -0.08369384 0.011740855 -0.09016391 0.044192582 -0.049461227 -0.060382526 0.033172507 -0.009794664 -0.032578055 -0.010461252 -0.015228632 -0.04325717 0.032651797 0.018871756 -0.015795514 -0.004941659 -0.07050022 -0.015246337 -0.04765204 0.054374788 -0.046387795 -0.050805423 -0.17765072 -0.09095398 -0.08343568 0.070717975 -0.0021844697 -0.03610735 -0.034311436 -0.061658964 -0.04981877 -0.013463642 -0.016876742 -0.035911113 0.063383974 0.06738328 -0.036514465 -0.04395484 0.08867 -0.047588445 0.04713703 -0.049375065 -0.02329879 0.009641932 -0.14240977 0.009827011 -0.009622284 -0.051096525 0.009568612 0.019690435 -0.07451066 -0.011199345 0.024175355 0.01815142 0.058753356 0.015634408 0.029896436 0.010607801 -0.014641481 -0.08715915 -0.037589278 0.12387973 0.036066893 -0.14975059 -0.09600204 -0.0018323066 0.058015376 0.029291531 -0.13629298 -0.07977341 0.008683812 0.047576837 0.06865272 -0.08892192 0.023667766 -0.062654644 0.013644544 -0.0070569487 -0.039201956 0.07672285 0.03683475 0.06781072 0.020224465 -0.08893914 -0.040604632 0.03593893 -0.0017963565 0.013583574 0.08236828 0.039723374 -0.014177365 -0.13745905 0.05363855 0.006530954 0.100630194 0.0037929243 0.08903591 0.049051046 -0.03809015 0.10111503 0.11023115 0.014029722 -0.040528912 0.051615495 -0.0640335
ditangani 0.030665034 0.092346236 0.025758626 0.04901305 -0.015065301 -0.08345464 0.06303683 0.20403631 -0.0071043177 -0.00041139883 -0.01506968 -0.064469 0.0006376926 -0.0030116797 -0.07444888 -0.027525883 0.080905974 0.052354213 -0.02391748 -0.02892313 -0.031135805 0.0028598835 0.04969297 0.008584413 0.046992574 0.004602153 -0.10277016 -0.014148693 -0.010108756 -0.0898682 0.038718645 -0.052597683 0.054909 0.0064267134 -0.01482237 0.04037304 0.043331645 -0.092700265 0.009760332 0.0031758987 -0.054536544 0.028869351 0.024496574 -0.05416656 0.08803255 0.068913154 0.04551212 0.035020784 0.019053318 0.029316736 0.020890774 0.018095527 -0.029022584 0.05220938 -0.06270421 0.09988262 0.007870743 -0.021862794 0.0039029936 -0.0031269086 -0.041416816 -0.027867358 0.004080432 0.0176122 -0.013504061 0.05060128 -0.0005105218 -0.0016001282 -0.062160585 -0.06307714 0.0053150714 0.004634818 0.073317274 -0.05845925 -0.025010873 0.03253503 -0.06331763 0.031881083 -0.010220763 0.06777128 -0.03466763 -0.0700938 0.021631077 0.15616871 0.04818346 0.0020304834 -0.04396068 0.016147418 0.0885664 0.0491485 0.1318197 -0.051014334 0.007403527 -0.0016711669 0.05311638 0.074524306 0.04844458 -0.019251391 -0.00812208 0.06729258 -0.03415839 0.01078564 0.08882967 0.03706413 0.02657609 -0.07575937 -0.002802268 0.011843776 -0.062832505 0.037648454 -0.09774918 0.01949959 0.010198803 0.06228292 0.05857385 0.041269794 -0.014874677 0.021976555 0.10493432 -0.11427309 0.04609135 0.055088736 0.037772976 -0.021646429 -0.09476205 0.04675161 0.016291605 -0.06179101 -0.017846089 0.06875522 0.058138136 0.1072475 -0.0032958884 -0.07344204 0.015880076 0.07606619 -0.04751355 -0.054024164 -0.09159 -0.119628884 0.046477135 -0.06912929 0.025886618 0.030192964 0.0015966604 -0.075323455 -0.09763448 -0.028618854 0.034268074 -0.09100961 0.024841964 -0.16823097 -0.028667917 -0.0157279 0.038273014 0.038490694 -0.055573635 -0.008975361 0.018558627 0.090923734 0.033898827 0.043049436 -0.14164576 0.0599667 -0.047753636 0.037771873 0.027116355 -0.02944056 -5.1914507e-05 0.0979118 -0.05662961 -0.019031236 0.015180754 0.051411606 0.018247396 0.027371913 -0.004846306 -0.092655584 0.0139297405 0.011076602 -0.037319586 0.0862719 -0.04347262 -0.029929703 0.012164994 0.024913928 0.06986455 0.07953816 0.039715532 -0.09003202 0.0055835787 -0.01279398 -0.08516948 -0.007240117 0.050239034 -0.07708167 0.011693544 -0.093206376 0.0442224 -0.04388826 -0.05837253 0.034372013 -0.004490752 -0.03242161 -0.0143825 -0.014475983 -0.042154856 0.028782101 0.014100892 -0.015125196 -0.0063761505 -0.06976315 -0.012860971 -0.0455356 0.05192005 -0.050122444 -0.052334387 -0.17462559 -0.09198147 -0.07716287 0.07654737 -0.0018346476 -0.036900982 -0.035171982 -0.06426302 -0.05237845 -0.012371985 -0.015742011 -0.038308114 0.060229614 0.06978236 -0.032825112 -0.04715789 0.088102266 -0.04625898 0.045673065 -0.049387638 -0.023330253 0.0056862114 -0.14475863 0.005291269 -0.0055421605 -0.051084552 0.010297451 0.018359868 -0.07034752 -0.012255181 0.02359752 0.023688843 0.056024186 0.019037647 0.03667214 0.0073161526 -0.022221219 -0.08712547 -0.03490303 0.12248009 0.03588181 -0.15007523 -0.10202396 -0.0022455067 0.060803305 0.025999863 -0.14264794 -0.08160964 0.009874139 0.043057874 0.063290924 -0.086115755 0.020547109 -0.06603982 0.012917282 -0.008525177 -0.037335243 0.07649257 0.041142803 0.071917266 0.016953357 -0.09110466 -0.035875898 0.03004081 0.0010730306 0.012203535 0.08352887 0.03421019 -0.018562343 -0.13784136 0.052959763 0.009616177 0.10227621 0.0055465344 0.09035147 0.05002078 -0.037355293 0.09832954 0.10768733 0.011259255 -0.03821802 0.04706044 -0.06541663
istri 0.030165961 0.09665058 0.02740503 0.050178014 -0.012315771 -0.07634809 0.060485773 0.1989447 -0.0048314044 0.0040527126 -0.015544895 -0.0679542 0.007199274 -0.005352848 -0.07632513 -0.027607374 0.08034517 0.05737793 -0.025462333 -0.033624023 -0.029228874 0.0006615092 0.04754165 0.01160273 0.044166293 0.0027035372 -0.10369969 -0.010803106 -0.010947967 -0.09448616 0.034588713 -0.04581933 0.060021278 0.012939885 -0.018413035 0.041274667 0.047594253 -0.09333953 0.007948146 0.00071953796 -0.05385309 0.030213913 0.02460178 -0.057340767 0.09067545 0.069020726 0.045786932 0.031566136 0.020892102 0.032703098 0.021153258 0.018501755 -0.02174037 0.054102957 -0.06298661 0.09571612 0.01133823 -0.021347841 0.010673652 -0.0063248053 -0.04164434 -0.026463963 0.0016103649 0.010613352 -0.010071002 0.050750643 0.0027813734 0.0027897563 -0.061805103 -0.06309407 0.0053837453 0.0046136263 0.07789498 -0.05862656 -0.026492016 0.030571641 -0.05889304 0.029730076 -0.016109673 0.071576916 -0.039021023 -0.069248624 0.015693318 0.15686886 0.044674948 -0.0044759605 -0.04533453 0.017218627 0.085402496 0.048223294 0.13113216 -0.045033358 0.004595519 0.0044569243 0.057309847 0.07720815 0.049725316 -0.01167184 -0.014172495 0.06633766 -0.034364007 0.012567 0.09071276 0.039467454 0.028022785 -0.07018372 0.001029159 0.012377753 -0.06252729 0.039973136 -0.09712611 0.017164066 0.007458251 0.05790562 0.06043954 0.047804415 -0.011721624 0.018543407 0.1085215 -0.11095101 0.038737014 0.05740609 0.044911165 -0.026836209 -0.09230455 0.05218028 0.013460275 -0.057655778 -0.023185568 0.070359655 0.062359236 0.10821591 0.0008391269 -0.06804632 0.018456379 0.07506413 -0.048281755 -0.047970876 -0.097027816 -0.1155661 0.03776565 -0.07084123 0.020530298 0.033084203 0.00040347327 -0.07614327 -0.0979652 -0.030409636 0.03557586 -0.089748636 0.029666863 -0.1632999 -0.029243495 -0.01453786 0.03042965 0.039173618 -0.061232112 -0.0075345254 0.014401965 0.092879325 0.03843159 0.042030465 -0.14030463 0.059782565 -0.048921455 0.0368757 0.027067166 -0.032688506 0.0040804665 0.09273301 -0.064420156 -0.014169197 0.0149673475 0.04518068 0.016805245 0.025624242 -0.0029372587 -0.088064246 0.01766952 0.006832836 -0.039828442 0.08377886 -0.04581239 -0.036880802 0.010609115 0.024806034 0.06637426 0.076710954 0.042085983 -0.09188207 0.0060761706 -0.013875004 -0.08199883 -0.0021291617 0.051955275 -0.080429256 0.010406803 -0.08697603 0.04374954 -0.045145594 -0.065754555 0.03112826 -0.0078113796 -0.029514685 -0.011564074 -0.013798659 -0.044027023 0.024960645 0.019176852 -0.016616791 -0.0074045057 -0.0733002 -0.015898557 -0.049785573 0.048700534 -0.05420154 -0.055566166 -0.17904589 -0.092351384 -0.077509865 0.07429705 0.0017043704 -0.03897652 -0.029723154 -0.060425695 -0.05136921 -0.00945442 -0.023977121 -0.036326103 0.0653793 0.06929295 -0.029704595 -0.050148513 0.090008944 -0.047066305 0.04703418 -0.045702003 -0.020459406 0.006503214 -0.14386462 0.009883707 -0.004186428 -0.048146542 0.014365274 0.016530825 -0.070863545 -0.01096905 0.02419106 0.01550509 0.056761056 0.017518172 0.032876994 0.0075747487 -0.018685278 -0.09613888 -0.03554484 0.12161174 0.037662316 -0.15365341 -0.098337404 0.0005816973 0.06032109 0.031365152 -0.13951474 -0.07752605 0.0043870336 0.04922526 0.06450342 -0.08705331 0.026117567 -0.06253689 0.018253135 -0.010428221 -0.0339479 0.07851257 0.036633074 0.07375825 0.020828009 -0.08833343 -0.03680846 0.03141887 -0.004527702 0.015063717 0.08027634 0.03534074 -0.016387973 -0.13915586 0.053523228 0.0083070835 0.10026561 0.0066290405 0.089509785 0.044450082 -0.035713013 0.10164975 0.114058875 0.009173265 -0.0449951 0.044120334 -0.06296595
curanmor 0.028081909 0.09640181 0.02360677 0.0442644 -0.0145829655 -0.079988755 0.05760149 0.195553 -0.0086390525 0.0032697879 -0.010702434 -0.0702329 0.0020891896 -0.006451993 -0.072517 -0.031849418 0.084567346 0.051257018 -0.023405986 -0.0283201 -0.025348999 0.006002563 0.05192645 0.008814669 0.041295704 0.007885635 -0.108265065 -0.013905418 -0.007298982 -0.09722671 0.03385881 -0.049587857 0.056847777 0.0129792 -0.013816882 0.040626604 0.044259686 -0.093468554 0.004875549 0.003152472 -0.0539945 0.029675277 0.02719839 -0.053736847 0.0827175 0.069392346 0.049154047 0.030524315 0.019660298 0.029671188 0.019801825 0.018223198 -0.022330642 0.058613926 -0.05985497 0.094927914 0.010581743 -0.022536816 0.0034322182 -0.0061753024 -0.036318734 -0.025536487 0.002130404 0.017344402 -0.013284404 0.050135728 -0.0019800777 -0.0017214372 -0.063243546 -0.060053077 0.0041432567 0.0019002468 0.07895359 -0.058640283 -0.030546855 0.037275083 -0.06290646 0.035607506 -0.016345583 0.066034324 -0.039701115 -0.06786848 0.017218832 0.15917909 0.046639826 0.0033010512 -0.04560803 0.02007223 0.08438118 0.047043085 0.1325327 -0.047417447 0.0024544767 -0.00062420225 0.056041185 0.07446698 0.04600603 -0.012607747 -0.012837482 0.06670883 -0.03496118 0.010928017 0.0884858 0.034435976 0.028538352 -0.07534426 -0.0012696701 0.0046474156 -0.06041412 0.03867384 -0.101002574 0.02377947 0.0042776726 0.058041863 0.059333127 0.04162648 -0.01747407 0.017042015 0.109472975 -0.110830955 0.043445583 0.054854847 0.042412236 -0.025785377 -0.0891663 0.05233439 0.015621678 -0.054008164 -0.021879168 0.07018325 0.06592658 0.10734045 -0.0075947545 -0.07110882 0.018074855 0.07247446 -0.047459655 -0.046654567 -0.09252221 -0.11667574 0.04024215 -0.06531511 0.019589167 0.030379362 -0.0016020993 -0.07959467 -0.09944984 -0.027556954 0.03447316 -0.08901541 0.03047458 -0.1654405 -0.02883879 -0.014386089 0.037220493 0.042031266 -0.058875162 -0.009659827 0.0121608265 0.093100175 0.030175649 0.04309475 -0.14350905 0.058356438 -0.045100324 0.034804128 0.024981761 -0.03022864 0.004949799 0.097006485 -0.061411195 -0.014458861 0.016203422 0.05033039 0.015015462 0.019312792 -0.006030318 -0.090853035 0.019422881 0.0066120187 -0.040384796 0.08742899 -0.04590505 -0.030889157 0.01087656 0.021284116 0.06906549 0.08022512 0.037285253 -0.09431753 0.009071793 -0.011161901 -0.082008824 -0.009172255 0.050900836 -0.077393405 0.014163905 -0.09158975 0.04230504 -0.048173305 -0.065629125 0.039852563 -0.007969433 -0.035047416 -0.0077324053 -0.015980344 -0.042239446 0.029378327 0.016893698 -0.01543772 -0.008617157 -0.07434919 -0.009057063 -0.0439467 0.052612416 -0.052345414 -0.048749097 -0.17534366 -0.09593371 -0.08260422 0.07190121 -0.00105003 -0.04200309 -0.034308203 -0.060238674 -0.051262315 -0.011208449 -0.019458191 -0.038668122 0.05856317 0.067639954 -0.030959843 -0.050647173 0.08881575 -0.05230538 0.05161773 -0.04759276 -0.019078335 0.0074061095 -0.1455923 0.0090177925 -0.0057222187 -0.0480303 0.008548148 0.013552242 -0.073988736 -0.011763227 0.023162533 0.018856581 0.057312954 0.018663827 0.033699416 0.009160492 -0.017419023 -0.09413602 -0.03858839 0.12626804 0.032153495 -0.15261346 -0.09707739 0.005277895 0.05741655 0.028602788 -0.14034797 -0.080064684 0.003799448 0.04122119 0.061556302 -0.08807442 0.025471454 -0.060537666 0.013882435 -0.010576755 -0.034377173 0.078406535 0.03707204 0.07094301 0.021005038 -0.089587785 -0.040427905 0.03710332 0.0030194183 0.011956681 0.077878386 0.036894053 -0.014966963 -0.14152107 0.057506736 0.00492086 0.10005206 0.009927468 0.08940016 0.048767246 -0.038524237 0.096865706 0.10886107 0.009764054 -0.045975845 0.050853476 -0.06533712
membacok 0.030045554 0.092200994 0.024371652 0.044945963 -0.010095488 -0.082573645 0.06334683 0.19976042 -0.0010179816 0.0058884416 -0.0099982135 -0.06393795 0.001271956 -0.01074263 -0.0764715 -0.028906848 0.08381107 0.056292016 -0.02613437 -0.030351795 -0.02904449 0.001025222 0.050617985 0.003250452 0.04451206 0.0038147785 -0.10228332 -0.012713485 -0.008456019 -0.0964334 0.040183432 -0.050498143 0.057017688 0.012095874 -0.011093141 0.036069084 0.04416901 -0.09777049 0.00995154 0.0027105832 -0.048594393 0.029758336 0.028179612 -0.05804659 0.08465208 0.06839548 0.042754207 0.036800668 0.020463971 0.032251503 0.02159308 0.01644394 -0.024999648 0.058422897 -0.06714501 0.10243553 0.014056746 -0.018890997 0.006525339 -0.000691294 -0.036027484 -0.026997006 0.0062840427 0.0148084285 -0.0118373735 0.05332926 -0.0038987685 -5.1811003e-05 -0.065932184 -0.064053096 -0.00034920083 0.0059099356 0.076492004 -0.05940591 -0.026953094 0.030897295 -0.06072117 0.031457633 -0.01572287 0.066240355 -0.04142596 -0.06319432 0.015053404 0.16214149 0.0427675 0.00039660715 -0.043644458 0.014839591 0.08310402 0.043906108 0.12984982 -0.048312686 0.003410677 0.001103281 0.05637628 0.07086771 0.048721332 -0.01664424 -0.014485481 0.065348 -0.03462638 0.009325545 0.08770601 0.035617728 0.030313112 -0.075801015 -0.00076481083 0.010676852 -0.061907623 0.036658235 -0.095626436 0.018711427 0.0075578378 0.06123402 0.0570128 0.04814026 -0.014162943 0.021741716 0.10914214 -0.11835771 0.039568737 0.050626773 0.039712436 -0.02704573 -0.09357016 0.04624146 0.0139768915 -0.058095846 -0.015702855 0.066263154 0.06126116 0.109945744 -0.0015874398 -0.071394496 0.019467639 0.0710057 -0.046071425 -0.05332045 -0.09535744 -0.118351206 0.04282903 -0.06707106 0.018766541 0.034934107 0.0006940658 -0.07895296 -0.097840056 -0.025164189 0.031425957 -0.09014385 0.029806541 -0.16430122 -0.028270131 -0.011484519 0.03655579 0.039979387 -0.05524773 -0.012987534 0.017767757 0.09641088 0.030840464 0.04185299 -0.13885146 0.06243061 -0.049172405 0.034563247 0.028838346 -0.030304525 0.005666841 0.09302338 -0.05676734 -0.022164334 0.014928772 0.05485235 0.013435307 0.01971274 -0.0017863386 -0.094785064 0.01449549 0.0063027656 -0.039433636 0.08870969 -0.03986031 -0.03375517 0.011662225 0.028044937 0.07018521 0.078679584 0.041720998 -0.08965091 0.0073207417 -0.009185711 -0.08956468 -0.0020159741 0.054761633 -0.077106476 0.011300935 -0.09271826 0.04512475 -0.044614278 -0.06536818 0.03660589 -0.004830986 -0.028411653 -0.01192015 -0.0137679465 -0.038970485 0.029239394 0.01582234 -0.01710402 -0.008514889 -0.07151166 -0.010971144 -0.050850336 0.050513048 -0.0487939 -0.04874004 -0.17750858 -0.09140118 -0.07911699 0.070330694 0.0012839376 -0.04162853 -0.03341898 -0.059827484 -0.04957927 -0.016670275 -0.018912233 -0.037926193 0.05781404 0.06483971 -0.031487495 -0.051361114 0.0926317 -0.051964562 0.05096665 -0.04836335 -0.023000102 0.010346459 -0.14651066 0.009975215 -0.007008957 -0.052075736 0.009306021 0.019069554 -0.073282294 -0.011223667 0.020556476 0.01953324 0.054886878 0.01455126 0.031569596 0.007188081 -0.01948457 -0.09286579 -0.036599636 0.121192746 0.03050384 -0.14655182 -0.09975667 0.0038227874 0.058940407 0.030978447 -0.14066255 -0.082320295 0.008288418 0.04082613 0.06810219 -0.082727686 0.021745825 -0.062001698 0.017670017 -0.008724042 -0.035414595 0.08154017 0.040057816 0.066657774 0.017046398 -0.088879675 -0.03871221 0.03675035 -0.0033791622 0.014675656 0.08371649 0.035802566 -0.018899929 -0.13747494 0.051378842 0.005036557 0.095891826 0.0061441897 0.09225328 0.049276706 -0.034279108 0.10459531 0.11048069 0.007984398 -0.038811848 0.044567578 -0.063731104
tertipu 0.03230541 0.097454466 0.024420708 0.044084586 -0.008661056 -0.0821088 0.05940068 0.20265315 -0.0015313276 0.0049482016 -0.014163722 -0.06268987 0.008646078 -0.0034144123 -0.06925852 -0.031022102 0.08152589 0.053196304 -0.02210088 -0.026765712 -0.025542792 0.0056665186 0.05153985 0.009999673 0.04417304 0.0017669307 -0.10579141 -0.00725116 -0.011564957 -0.09271523 0.038813997 -0.051512394 0.058674954 0.011528752 -0.013148354 0.042537753 0.046082202 -0.094436474 0.0030673363 0.009257751 -0.054774806 0.03386618 0.027324235 -0.05536135 0.07994621 0.072914094 0.04573986 0.035949618 0.019818282 0.027844483 0.022012683 0.01056016 -0.029179612 0.049981065 -0.06051429 0.09857433 0.010628828 -0.016524367 0.0033324235 -0.0055919145 -0.03600205 -0.028571375 0.0054508736 0.018865634 -0.014650733 0.052210428 0.0019744288 -0.0020724249 -0.06456451 -0.0588434 0.004117593 0.004536903 0.07708748 -0.061303787 -0.027832258 0.032697566 -0.059126165 0.030417278 -0.014905117 0.070023686 -0.04174551 -0.067199014 0.0136315655 0.15990646 0.045249227 0.0019112219 -0.044184174 0.018491032 0.086416595 0.04607648 0.13592155 -0.0480627 0.0023601367 -0.0014341626 0.05180506 0.06960263 0.05148559 -0.013239298 -0.014583867 0.062720016 -0.03631346 0.014993204 0.085704796 0.041152693 0.03222779 -0.06939991 -0.0026445943 0.009018136 -0.06724115 0.042733554 -0.100029975 0.020616263 0.009779181 0.058563974 0.059945002 0.04205665 -0.010998771 0.014953179 0.10877373 -0.11478471 0.03909587 0.053091716 0.03955547 -0.024105895 -0.09365146 0.04445639 0.010210099 -0.060806256 -0.021353703 0.0668792 0.066412434 0.10590543 -0.009083557 -0.073165536 0.02076319 0.07152044 -0.046743885 -0.052232455 -0.088998176 -0.12250148 0.0386997 -0.06535301 0.01934269 0.03512069 3.2166993e-06 -0.07195116 -0.09553292 -0.026475035 0.035001248 -0.088843904 0.029233217 -0.16578606 -0.027677413 -0.011613711 0.038372383 0.037882645 -0.058306277 -0.00679911 0.010521959 0.094406314 0.029215727 0.045371175 -0.14520615 0.061523926 -0.040920813 0.032806076 0.024687959 -0.033857096 0.00424134 0.09290916 -0.057235956 -0.019122887 0.0164658 0.050750785 0.011579327 0.020390775 -0.004262737 -0.093402475 0.020598682 0.0051319487 -0.039222185 0.08576511 -0.044932302 -0.038162675 0.0061548855 0.023514956 0.068655126 0.078544796 0.042178523 -0.08860458 0.0077417386 -0.011588758 -0.08911428 -0.0015056462 0.051050644 -0.07831532 0.014306238 -0.08841067 0.04801638 -0.04941679 -0.063261285 0.036117636 -0.0057903137 -0.036129024 -0.009251276 -0.012378736 -0.04166565 0.028615149 0.01136987 -0.0096004335 -0.012934843 -0.0766002 -0.0107741 -0.050875425 0.050104562 -0.051177923 -0.050660264 -0.17828816 -0.09121753 -0.079236485 0.07521103 -0.0032369667 -0.035510823 -0.036411274 -0.0607574 -0.052253596 -0.013789668 -0.022753054 -0.037336424 0.05667627 0.06550247 -0.028511818 -0.046327617 0.09152915 -0.052771382 0.051240463 -0.050198458 -0.021763887 0.004960262 -0.14574704 0.01079081 -0.007439497 -0.048158195 0.014027252 0.012945127 -0.0722036 -0.014141665 0.0196657 0.014011774 0.056216404 0.018827736 0.032446347 0.008637427 -0.016549066 -0.090327725 -0.040201347 0.12623441 0.03790464 -0.15149714 -0.099492334 0.004567987 0.056085877 0.027219802 -0.14057486 -0.07588953 0.010692065 0.045026198 0.06325236 -0.08662221 0.019204078 -0.068267815 0.017365983 -0.010907344 -0.03778432 0.0815206 0.035638176 0.07246741 0.016798526 -0.09015736 -0.0355179 0.03140965 -0.0013488332 0.012819188 0.077928334 0.034200877 -0.017518312 -0.13296743 0.05790457 0.006659616 0.09760763 0.0033493678 0.09248204 0.044985134 -0.034308247 0.10462376 0.11089756 0.009642574 -0.038361274 0.051287718 -0.0630112
simpatisan 0.028768538 0.09744588 0.030172903 0.04795575 -0.011172563 -0.08329053 0.056914635 0.19795571 -0.0068445695 0.0036434159 -0.015578642 -0.06716589 0.007903118 -0.002238076 -0.07076962 -0.027529161 0.08051288 0.056052003 -0.026578406 -0.03612356 -0.024779476 -5.4911166e-06 0.050692096 0.0056033754 0.042209648 0.005204837 -0.10801807 -0.0076274797 -0.012561566 -0.09760275 0.039080188 -0.046092663 0.05768191 0.012277765 -0.016264243 0.03658127 0.046153683 -0.091809645 0.0053677633 0.0029593357 -0.049845114 0.03293097 0.022749815 -0.057484105 0.08383117 0.06968737 0.048650578 0.03547785 0.016915472 0.03330039 0.020761017 0.01335612 -0.029520907 0.05222979 -0.059671022 0.10029571 0.0073134834 -0.017911755 0.0019547155 -0.0063843625 -0.03575439 -0.024634868 0.005597705 0.018033821 -0.011304183 0.047840483 0.00084132736 0.0007622596 -0.06129384 -0.059871323 -4.653207e-05 0.003137286 0.07756189 -0.05609405 -0.029903704 0.0373945 -0.063643165 0.028558796 -0.017809456 0.06759207 -0.03408825 -0.06895196 0.015675167 0.16391656 0.041150182 0.0017354751 -0.042381573 0.015135961 0.0856061 0.0456569 0.1359325 -0.048719604 0.0014055873 0.0056604883 0.0541309 0.077462085 0.046572205 -0.012144871 -0.013806852 0.06427856 -0.034265213 0.011640686 0.09014302 0.038147245 0.025843875 -0.073671736 -0.0006357881 0.011393138 -0.06206426 0.038972046 -0.100646175 0.023428306 0.003851288 0.059596006 0.059911314 0.04343542 -0.015826954 0.016136339 0.10302971 -0.111421876 0.04343193 0.05341979 0.04460812 -0.027640546 -0.09319665 0.049020287 0.010498525 -0.061934613 -0.015224494 0.06819029 0.05910113 0.11114898 -0.00781599 -0.07172793 0.01997343 0.07180825 -0.05004011 -0.05198191 -0.096658096 -0.118357465 0.040311657 -0.06907053 0.023525305 0.033335153 0.0040512364 -0.073466904 -0.09826587 -0.028032599 0.0343423 -0.087538294 0.03247557 -0.16568905 -0.03050139 -0.015636198 0.034297206 0.035811517 -0.05892149 -0.013997044 0.0149347065 0.095514946 0.034619085 0.04175583 -0.13865343 0.057107385 -0.041572787 0.034243587 0.030160611 -0.028628737 0.0031174617 0.09646538 -0.0599045 -0.0228127 0.011104236 0.04939933 0.010402725 0.024974665 -0.002127018 -0.092208065 0.020946594 0.0060720043 -0.03707643 0.087923154 -0.046505738 -0.037679944 0.011953601 0.021437697 0.07196094 0.07947067 0.036167573 -0.0883793 0.007722849 -0.015163819 -0.090214044 -0.00899334 0.05335186 -0.07785672 0.013338021 -0.09030462 0.04184272 -0.048555512 -0.061034087 0.03181966 -0.010949562 -0.031289663 -0.01532556 -0.017468521 -0.039815817 0.033019617 0.0122698 -0.009869666 -0.00492813 -0.07145496 -0.014973898 -0.04279847 0.048816394 -0.0517965 -0.049338624 -0.17940897 -0.09791889 -0.078906745 0.0771936 -0.0043438924 -0.04084851 -0.030611841 -0.06325314 -0.053768747 -0.011478924 -0.021264393 -0.034565404 0.061998278 0.07190469 -0.028738484 -0.044923075 0.08745248 -0.049074292 0.048430834 -0.04589877 -0.01667253 0.01015958 -0.14729415 0.014243785 -0.00631564 -0.04951678 0.014674468 0.013354271 -0.07173626 -0.0123589905 0.027543446 0.020776637 0.054722175 0.013286688 0.030936245 0.014106689 -0.022128535 -0.08784167 -0.035564557 0.12253313 0.03846386 -0.14495322 -0.095954575 0.0056091053 0.053598255 0.03124033 -0.14354393 -0.08202304 0.0034065829 0.04535927 0.06863669 -0.08865501 0.020545037 -0.06549783 0.012516163 -0.01122495 -0.035525072 0.08043507 0.038172282 0.0684793 0.019171927 -0.089634396 -0.036683787 0.03709851 0.0031184505 0.0124583505 0.07786044 0.03214353 -0.01790948 -0.13690343 0.051030587 0.007915983 0.10237772 0.0076363645 0.08995119 0.051387217 -0.034780517 0.10047658 0.10652531 0.009660174 -0.038405627 0.05107641 -0.06384048
teraniaya 0.031823028 0.09464145 0.029296294 0.045677844 -0.010999014 -0.08023439 0.057835225 0.2014923 -0.007662278 0.0007953362 -0.012662018 -0.06380839 0.0036881391 -0.0044817873 -0.07194349 -0.027127555 0.07897026 0.056685664 -0.028023446 -0.033451576 -0.026030665 0.00082528463 0.05087926 0.0057430645 0.044050157 0.003219527 -0.10753559 -0.0127375135 -0.0066243615 -0.0918753 0.033369847 -0.05078182 0.05623516 0.007814116 -0.012158557 0.04088218 0.04207721 -0.09185494 0.01044899 0.0036926295 -0.049629144 0.02788711 0.027373197 -0.052813154 0.08555705 0.06538197 0.047974877 0.032230724 0.020383919 0.032179505 0.02243134 0.01633728 -0.028123738 0.056360085 -0.06476265 0.098424196 0.013250985 -0.01756889 0.0073499917 -0.0033849804 -0.036113705 -0.02332538 0.003970844 0.016525446 -0.017423892 0.05287809 0.0005826376 0.0014578757 -0.06073607 -0.061679013 0.0017663599 0.0023413473 0.07629862 -0.05866566 -0.030577218 0.03131415 -0.063647516 0.035350114 -0.010940169 0.07084891 -0.039535984 -0.06614382 0.014382763 0.16213591 0.044269066 0.0039257123 -0.0467549 0.017463554 0.08626761 0.047918484 0.13103907 -0.04910259 0.0055060717 -0.0021925578 0.058477614 0.07595368 0.04902456 -0.017626727 -0.014728851 0.06669275 -0.031132195 0.012416921 0.087954134 0.04158981 0.025758114 -0.070623286 0.0033270814 0.008078217 -0.06799792 0.04134094 -0.101258695 0.019641193 0.010953072 0.056235906 0.055114195 0.04198898 -0.012503982 0.020588784 0.10430523 -0.115807764 0.044957917 0.05702249 0.0442721 -0.023718286 -0.09181028 0.0495405 0.014346072 -0.056126308 -0.016999673 0.06956593 0.061121084 0.104979746 -0.0025510883 -0.07281706 0.020098653 0.07268768 -0.047392707 -0.051688533 -0.09123434 -0.1209716 0.039801735 -0.07011742 0.024062295 0.03632315 -0.0003612482 -0.074093565 -0.100621484 -0.029037507 0.031124609 -0.09235388 0.030790657 -0.16821206 -0.03279702 -0.018170618 0.03742137 0.03770697 -0.057635766 -0.012522364 0.013856905 0.09480837 0.03144047 0.04071244 -0.14344928 0.061249703 -0.048866704 0.03416031 0.028211998 -0.027329987 0.002786551 0.09803256 -0.0629363 -0.021268519 0.014507923 0.051180605 0.01274663 0.022188583 -0.00089881464 -0.09460613 0.016408954 0.007213932 -0.036582846 0.0886984 -0.04366657 -0.036601882 0.005873506 0.020503778 0.06541549 0.074978136 0.037161615 -0.09261309 0.004914465 -0.013819647 -0.08599215 -0.0043911845 0.05446881 -0.081984036 0.016599925 -0.08837979 0.04402043 -0.04838166 -0.06347197 0.033622313 -0.0050081755 -0.0288305 -0.0082428865 -0.017204182 -0.03988103 0.03176202 0.017299756 -0.016121026 -0.008880952 -0.07557746 -0.01584709 -0.04588696 0.055713203 -0.04748064 -0.052083116 -0.17449078 -0.09502279 -0.07654082 0.070474096 0.0010933899 -0.041035302 -0.034447856 -0.062636465 -0.050083756 -0.017576462 -0.020117607 -0.036132224 0.058006734 0.069771826 -0.03169357 -0.044827767 0.093461156 -0.052278325 0.050483666 -0.04457701 -0.01870403 0.010108844 -0.14482108 0.0111465715 -0.0055886693 -0.04940215 0.009604631 0.01625877 -0.069527075 -0.01647848 0.027069377 0.01994632 0.055652548 0.015771728 0.03301953 0.01266558 -0.016315904 -0.09373152 -0.032846604 0.122391365 0.031005438 -0.14520933 -0.09691825 0.0030864931 0.06036147 0.024534808 -0.14121717 -0.07962626 0.00569878 0.04363811 0.06500431 -0.08884517 0.022026911 -0.063536726 0.013561465 -0.008773063 -0.037321128 0.08017313 0.038850177 0.072901025 0.019909304 -0.08673202 -0.03950611 0.035037655 0.001032983 0.015719054 0.08310925 0.03313338 -0.011912575 -0.13766812 0.052598 0.005556775 0.09486034 0.0051967194 0.08996348 0.049850073 -0.034078967 0.09753901 0.1114228 0.0072392095 -0.040182963 0.050904296 -0.062456388
penyidik 0.025063356 0.09017184 0.027615285 0.047925297 -0.015946003 -0.07901831 0.06126496 0.2004334 -0.0028021391 0.004680246 -0.017889446 -0.06449547 0.006347463 -0.009543233 -0.07441389 -0.028342221 0.08086603 0.054293323 -0.027527288 -0.03191749 -0.025771435 0.0031907118 0.04874657 0.00769371 0.04260865 0.0029559964 -0.100571714 -0.014722415 -0.010248157 -0.093306854 0.033077583 -0.04710493 0.05816519 0.010140573 -0.011572003 0.0382012 0.043658014 -0.095203124 0.007368804 0.0065720337 -0.04765204 0.03162193 0.022693355 -0.05769902 0.08661779 0.069184415 0.047391966 0.033577662 0.024414744 0.026081678 0.024956618 0.011182958 -0.026064644 0.05708046 -0.066755526 0.099833906 0.0077647325 -0.021825803 0.0054742964 -0.0014629542 -0.038935244 -0.022622736 0.0023577227 0.014070778 -0.010855802 0.05057484 -0.0031299498 0.0012377765 -0.064216636 -0.06258877 0.004135446 0.0071398 0.079112865 -0.060396485 -0.025810728 0.031828657 -0.0579042 0.029738003 -0.017409923 0.06748069 -0.040921137 -0.06724664 0.017945506 0.1587913 0.040508974 -0.0015588539 -0.047691815 0.017954972 0.086606786 0.046499938 0.13713597 -0.047365993 0.007615988 0.003064292 0.059272427 0.073489204 0.04987531 -0.014749222 -0.0153437415 0.07111027 -0.034126434 0.015469363 0.09065247 0.03969405 0.028241849 -0.07556095 0.0010242998 0.008944446 -0.06800419 0.03752134 -0.098531425 0.019916102 0.0090908045 0.058964744 0.059584677 0.041803505 -0.015953837 0.021231735 0.10832536 -0.11214603 0.043466546 0.05076306 0.04288853 -0.026854413 -0.09620808 0.052312374 0.013063335 -0.061322488 -0.019035596 0.07141219 0.061277255 0.10901585 -0.0053098393 -0.06822018 0.019274216 0.06955327 -0.047639616 -0.04642671 -0.09097363 -0.12040667 0.04516877 -0.06593796 0.025222853 0.034119383 -0.0034915416 -0.0776553 -0.09511269 -0.029828403 0.037221037 -0.093344264 0.025076814 -0.16572751 -0.026927508 -0.017539924 0.037036706 0.034385573 -0.056334205 -0.008234205 0.0148729505 0.09781105 0.034985606 0.04357354 -0.13893494 0.0621423 -0.044076618 0.037067488 0.028631788 -0.03400674 0.0008878948 0.09426916 -0.06307665 -0.018822642 0.015622629 0.048554517 0.0167874 0.024595011 -0.0044695246 -0.090360835 0.019854737 0.003978475 -0.03482045 0.088200934 -0.043834202 -0.036555015 0.0051937974 0.020792698 0.06910754 0.078008056 0.041928064 -0.09197167 0.0057640905 -0.010240451 -0.08976184 -0.008848926 0.05286938 -0.08358777 0.013270268 -0.092567116 0.047297392 -0.04738262 -0.058072075 0.036497686 -0.008946702 -0.03343849 -0.010545963 -0.016195152 -0.038231395 0.033270348 0.016915059 -0.016037459 -0.010612546 -0.0732145 -0.012404257 -0.049208015 0.054945584 -0.04719343 -0.051210232 -0.17387265 -0.09065136 -0.07883671 0.07587289 -0.003051389 -0.041038174 -0.031943608 -0.06652433 -0.045885243 -0.017964428 -0.019779589 -0.037568755 0.0613849 0.06878214 -0.036264844 -0.049165465 0.09069839 -0.047902115 0.050308745 -0.046860054 -0.02086532 0.0049718344 -0.14043522 0.006148952 -0.0048922924 -0.05042058 0.009401664 0.019436067 -0.071189225 -0.016496701 0.020810422 0.018659791 0.052765246 0.01800962 0.033656325 0.011904775 -0.02013953 -0.08805741 -0.03909923 0.12509799 0.03372601 -0.14853111 -0.097164124 0.00010771447 0.0555673 0.026662817 -0.1406231 -0.07824134 0.0055954424 0.04607312 0.061413884 -0.0865083 0.01779092 -0.06808486 0.013850118 -0.013457533 -0.03954807 0.078238964 0.03914766 0.07076174 0.023180796 -0.090993516 -0.036013477 0.02995418 0.0029708974 0.018223993 0.08339664 0.032852616 -0.013826693 -0.14006077 0.05308183 0.0051291347 0.094398744 0.007911315 0.09029634 0.045722343 -0.03993991 0.10180215 0.10636427 0.00695593 -0.042923886 0.046862222 -0.058504574
penipuan 0.025279831 0.097088836 0.03024477 0.04616044 -0.013522832 -0.081464015 0.0629422 0.19999892 -0.005525244 -0.0006560447 -0.011289198 -0.07136955 0.0011076044 -0.006197592 -0.07277507 -0.028422028 0.08156409 0.056002155 -0.024555484 -0.028651293 -0.029445775 0.00036873703 0.045380447 0.010375073 0.044898685 0.0032205735 -0.10233913 -0.0076442654 -0.0060949973 -0.09633192 0.03418252 -0.04913472 0.052317344 0.012715755 -0.011990782 0.035867114 0.04895804 -0.098476894 0.010174993 0.0021873277 -0.04955052 0.028333195 0.026727885 -0.052206833 0.083923794 0.06652328 0.04251363 0.035131957 0.023113871 0.03261347 0.019771067 0.01042281 -0.022851776 0.05296894 -0.061966307 0.10252001 0.008915111 -0.01861204 0.0030261865 -0.005179214 -0.04021192 -0.025862087 0.0019155564 0.013554472 -0.014992803 0.053075507 -0.0002996098 0.0019827015 -0.060816675 -0.06504128 0.0011405592 0.009094699 0.08008252 -0.062986076 -0.027405983 0.03758195 -0.057216644 0.028946444 -0.01521462 0.06907079 -0.03708425 -0.06714759 0.016063256 0.1627154 0.047224816 0.0008839905 -0.047638983 0.016476618 0.08304503 0.048689302 0.13394076 -0.047761764 0.0008181183 0.00040689445 0.059740238 0.07653731 0.052489895 -0.017147992 -0.0077000163 0.068226285 -0.03291811 0.015053077 0.08753054 0.041638967 0.032971255 -0.07104888 0.0021524574 0.009679299 -0.06571611 0.035722606 -0.097907774 0.02208648 0.0043983827 0.059951004 0.0607188 0.040990863 -0.012522423 0.02301906 0.10238583 -0.11339991 0.038464885 0.049776405 0.04351599 -0.02723139 -0.09459947 0.04569261 0.010448713 -0.061195903 -0.01781351 0.07041176 0.05887209 0.10421684 -0.0071507967 -0.07121359 0.01640404 0.071717374 -0.04494976 -0.04872553 -0.08916971 -0.11709626 0.0424778 -0.06823238 0.026553422 0.035121042 0.0007081714 -0.076553844 -0.101964645 -0.025333636 0.03618334 -0.0900638 0.03209425 -0.16751522 -0.028047092 -0.01801004 0.029704032 0.039328422 -0.05613004 -0.0075024944 0.0108886305 0.09684534 0.034197684 0.04497395 -0.14192861 0.062651336 -0.04242418 0.030165577 0.024463879 -0.027520457 0.002244547 0.09155799 -0.062240902 -0.018131943 0.016306046 0.050322216 0.01452221 0.02002061 -0.007922603 -0.09095763 0.017397141 0.0034588804 -0.036144514 0.08132487 -0.044087715 -0.032486856 0.009089161 0.027591078 0.07105658 0.076586746 0.04143522 -0.08941328 0.008968249 -0.0076978863 -0.08435625 -0.003550435 0.054685537 -0.081564195 0.012038779 -0.08746976 0.04599447 -0.04811634 -0.062382307 0.03427268 -0.0031700134 -0.03077952 -0.0093106935 -0.0113190375 -0.038212523 0.028011717 0.0126330955 -0.01475166 -0.01027248 -0.077612765 -0.012734678 -0.05063294 0.056509722 -0.051663715 -0.052637834 -0.17955466 -0.095144816 -0.08466329 0.07379033 -0.00056630454 -0.040148076 -0.028522518 -0.06455063 -0.053247068 -0.015966339 -0.021070149 -0.039432235 0.056188297 0.06601795 -0.034105502 -0.04562579 0.08747321 -0.05219013 0.049188282 -0.047517907 -0.019083122 0.007415483 -0.1409723 0.013016283 -0.009834033 -0.047899835 0.014385753 0.01624544 -0.06852826 -0.015209026 0.022427833 0.015310236 0.05992958 0.012689968 0.03121003 0.010620657 -0.020339103 -0.08766352 -0.038699023 0.1194112 0.037907805 -0.15253861 -0.09521156 -0.00035937477 0.060373805 0.027219653 -0.14126357 -0.08211266 0.00453135 0.047284447 0.0681704 -0.0862158 0.02401637 -0.0631678 0.015557654 -0.009159542 -0.04212986 0.081897154 0.03620396 0.068503544 0.020752992 -0.085862495 -0.042122547 0.03406991 0.0031287102 0.011616154 0.08436732 0.033822022 -0.011311529 -0.1409271 0.056761973 0.011107297 0.0943411 0.005919352 0.08609784 0.05083184 -0.03349306 0.09828233 0.108878486 0.009768497 -0.045097847 0.04875569 -0.06604642
korbanpelurunyasar 0.029523633 0.09122126 0.029305398 0.050956927 -0.0137761505 -0.08203016 0.057875294 0.20184006 -0.0032836464 0.006182447 -0.012577789 -0.06832875 0.0060170945 -0.003761864 -0.07021658 -0.02558512 0.07808063 0.051846176 -0.02226306 -0.03433539 -0.02651697 0.0062797065 0.047338154 0.008968896 0.040806178 0.008400234 -0.10297935 -0.010366195 -0.012519823 -0.089930855 0.03931569 -0.049485646 0.056699995 0.01275198 -0.015644228 0.0406598 0.04466186 -0.095292136 0.006853492 0.0030754702 -0.05081355 0.027073165 0.026660519 -0.05201861 0.08604424 0.0706818 0.04492287 0.035234567 0.018895993 0.028246682 0.025257112 0.01674614 -0.027764605 0.052261647 -0.06045106 0.099292494 0.013199612 -0.02140872 0.0042732707 -0.00225003 -0.03772665 -0.025043817 0.0023108197 0.016039846 -0.015035105 0.052858256 -0.00093699136 0.0032876665 -0.06277064 -0.06115991 -0.00011911834 0.00078994385 0.07681189 -0.059479177 -0.025527183 0.036181055 -0.06311745 0.035657056 -0.013955489 0.06515957 -0.0363098 -0.06733704 0.0139254695 0.16306648 0.046787538 0.004309484 -0.04481245 0.021518249 0.08698544 0.0436834 0.13713257 -0.048110634 0.00096274784 0.0043537095 0.05437999 0.0766392 0.047653984 -0.012246378 -0.014748601 0.068852134 -0.02945372 0.013846569 0.089479476 0.03687331 0.025523704 -0.0715904 0.0033902929 0.0060395156 -0.062655285 0.041993205 -0.101844355 0.022855517 0.0044128182 0.05732644 0.05808565 0.04174527 -0.015114983 0.017084615 0.10333142 -0.117221095 0.045320086 0.05665428 0.039725624 -0.02508656 -0.09051073 0.04993946 0.010202122 -0.06049697 -0.017185312 0.072855614 0.063225575 0.111260965 -0.0029176935 -0.07087906 0.02171621 0.0767724 -0.043357357 -0.046944566 -0.095262915 -0.11775911 0.039444655 -0.07174831 0.019232525 0.03541968 0.00021513308 -0.07940449 -0.09553356 -0.02497784 0.035283428 -0.08688419 0.026671533 -0.1674809 -0.028110936 -0.015949413 0.030772248 0.040026393 -0.05944764 -0.012055264 0.0159437 0.097052604 0.035078213 0.043407224 -0.13821453 0.060931653 -0.042692173 0.033654228 0.02963811 -0.02800966 -0.0011251783 0.097945735 -0.059957378 -0.016063865 0.011950672 0.050084192 0.012245526 0.021729087 -0.0057746544 -0.09346305 0.018296525 0.009613799 -0.033982057 0.08228652 -0.04548895 -0.035200443 0.009843874 0.020970635 0.0708121 0.07775727 0.037904236 -0.088708706 0.008117992 -0.011396394 -0.084863216 -0.009383497 0.04790743 -0.08161984 0.018718485 -0.09015884 0.046956465 -0.048322733 -0.06039653 0.036500357 -0.0070835412 -0.033215307 -0.009106228 -0.016689112 -0.039863836 0.03233829 0.014242365 -0.014623818 -0.011706881 -0.07586216 -0.014309925 -0.04567513 0.04976279 -0.050355494 -0.053112943 -0.17651945 -0.09364443 -0.0828424 0.074669935 0.0007934064 -0.037384167 -0.03116015 -0.06502243 -0.050426226 -0.013733443 -0.019114764 -0.03277364 0.059720524 0.06995715 -0.031014651 -0.045651924 0.09368373 -0.051676217 0.04708146 -0.044060282 -0.016924262 0.009008077 -0.14433797 0.01308213 -0.0049896426 -0.04931964 0.015098677 0.01738803 -0.07011549 -0.012873866 0.020985108 0.017811205 0.05711514 0.014551055 0.035298213 0.014347186 -0.021474594 -0.0933983 -0.038206067 0.12266376 0.033340864 -0.14908285 -0.09982531 0.0030894869 0.061190788 0.025609069 -0.14195456 -0.077643305 0.0042558806 0.047170892 0.06654561 -0.08844012 0.018504132 -0.06800488 0.01430829 -0.009185889 -0.03660109 0.07804775 0.03993422 0.070816144 0.020055396 -0.09089991 -0.038321137 0.03463979 -0.0007984222 0.014771768 0.07892166 0.038388357 -0.016612122 -0.13359782 0.05195108 0.0035313717 0.09586049 0.0041093724 0.08919981 0.04927698 -0.036437314 0.10332722 0.10850743 0.011921228 -0.04158123 0.04750082 -0.058795955
kriminal 0.02933928 0.09702629 0.023943352 0.044702698 -0.012703092 -0.08112384 0.06025536 0.19934733 -0.0065740487 -5.9771395e-05 -0.010297397 -0.06817077 0.0033052173 -0.007579468 -0.07414774 -0.032092903 0.0808082 0.05403503 -0.021721657 -0.035188828 -0.029554816 0.0029751668 0.049628902 0.00470494 0.04159323 0.0023395687 -0.102697104 -0.014845258 -0.0107336 -0.09303823 0.036985602 -0.05210474 0.058381137 0.009859701 -0.01454576 0.034757152 0.042257175 -0.09329276 0.009261908 0.0057752277 -0.047911037 0.027081318 0.024929017 -0.056229852 0.08368914 0.0703178 0.046713587 0.030482454 0.022654109 0.032492876 0.019216051 0.015918076 -0.027792271 0.058023006 -0.061734125 0.09920983 0.01041229 -0.022866176 0.008354286 -0.0028151108 -0.034646302 -0.024192981 0.0018675608 0.014253183 -0.012857113 0.04894941 0.003230731 -0.002130989 -0.065101855 -0.061633002 0.0016417943 0.0018154535 0.07759789 -0.056828458 -0.03170618 0.032705043 -0.06406892 0.03324309 -0.016203256 0.07199708 -0.038107194 -0.065503135 0.016229995 0.16268374 0.043935247 -0.0022503762 -0.047639627 0.01847763 0.08806228 0.047704935 0.13106012 -0.049006633 0.0006616562 0.0029472855 0.05243919 0.074613474 0.050915685 -0.015920455 -0.0158653 0.06970275 -0.033317693 0.008679007 0.08716455 0.04193622 0.029517421 -0.07580088 0.00037616785 0.0101143485 -0.06848504 0.03612113 -0.09846744 0.017821727 0.0073520495 0.059487347 0.061431598 0.044730004 -0.013182228 0.021858644 0.104251884 -0.11152878 0.04179401 0.053095195 0.036084913 -0.023918968 -0.090361185 0.049782414 0.010440012 -0.059002474 -0.020227343 0.0719674 0.059508532 0.109306425 -0.0072009177 -0.07318738 0.016109075 0.07466642 -0.049828608 -0.052418962 -0.09450571 -0.12035297 0.040727954 -0.068287775 0.025168462 0.03383551 -0.0021654812 -0.07593766 -0.095429115 -0.029745061 0.031564724 -0.088038884 0.030740958 -0.167743 -0.026114663 -0.018383333 0.030757213 0.03604189 -0.05715335 -0.009877614 0.015984697 0.09738797 0.03470799 0.04215723 -0.14359444 0.056742296 -0.045336384 0.03797598 0.025661202 -0.028795755 0.0043031634 0.0934399 -0.063170604 -0.02091714 0.010452152 0.048169427 0.016991012 0.0198186 -0.0055553303 -0.08938784 0.017549893 0.0036467682 -0.038470265 0.086452365 -0.041457806 -0.034774788 0.008105592 0.025329696 0.06864605 0.07571927 0.041699328 -0.094811864 0.007847332 -0.015925514 -0.08713146 -0.002733508 0.0499541 -0.077705175 0.017240627 -0.09405647 0.045198325 -0.047857802 -0.06521603 0.036064684 -0.0044710585 -0.028372936 -0.012979872 -0.015056745 -0.043844704 0.030595466 0.016351355 -0.017321074 -0.0076248585 -0.0767276 -0.012410745 -0.045103803 0.049817383 -0.049832914 -0.05053185 -0.1785538 -0.09427713 -0.078293845 0.06953859 -0.004850884 -0.038675893 -0.028841378 -0.06288154 -0.045902163 -0.017696911 -0.01569616 -0.037894193 0.057606295 0.064309105 -0.032380905 -0.04882081 0.09381374 -0.05003575 0.04994116 -0.044246998 -0.024132147 0.007225282 -0.1445178 0.006185689 -0.0045929886 -0.048399426 0.01135496 0.015236964 -0.07395716 -0.014146652 0.024586743 0.021795431 0.058345262 0.015501195 0.03398798 0.009888168 -0.020163162 -0.09305296 -0.038513575 0.12414979 0.030945955 -0.15132117 -0.10052102 0.00469714 0.058337335 0.029736422 -0.13558076 -0.08103113 0.0059565105 0.047165502 0.067220494 -0.083845794 0.024935393 -0.060904227 0.012962765 -0.010217749 -0.03523381 0.08156278 0.043518372 0.06631431 0.018112646 -0.08581279 -0.037864413 0.032972872 0.0033793347 0.018382404 0.07686998 0.034858137 -0.019102767 -0.13468534 0.05463172 0.0060036243 0.09856265 0.009209159 0.09222064 0.049836837 -0.03604367 0.10114641 0.111479715 0.010765441 -0.041105676 0.044224672 -0.0606193
menetapkan 0.024937151 0.095905356 0.025015254 0.047373988 -0.011798257 -0.08064163 0.056577366 0.20041287 -0.0072321487 -7.5510696e-05 -0.012459046 -0.06699678 0.007115204 -0.009750894 -0.073332824 -0.02876608 0.08342999 0.050573446 -0.02299325 -0.03534988 -0.030827384 0.0038261802 0.047096577 0.005825619 0.041882712 0.007324687 -0.10770994 -0.010851519 -0.007914515 -0.09309007 0.035949755 -0.04494311 0.051626146 0.0073419246 -0.01299919 0.041881096 0.04256025 -0.09784177 0.007324862 0.0005773682 -0.049516022 0.033098184 0.022947771 -0.058044143 0.08785259 0.06773967 0.044181738 0.03207654 0.017507011 0.027722659 0.01999873 0.014359672 -0.025311949 0.057452124 -0.060443897 0.09741684 0.006606946 -0.017926801 0.0024314374 0.0013463291 -0.036130607 -0.025957292 0.0075616804 0.012643501 -0.015206206 0.04975413 0.0029334466 0.002316152 -0.061354574 -0.061230052 0.0017473432 0.007950336 0.07379546 -0.059655093 -0.031498816 0.03750891 -0.06191507 0.031503513 -0.011700017 0.06447467 -0.03912022 -0.064916395 0.015099803 0.16235721 0.044534955 -0.0010040158 -0.042722896 0.021303114 0.08513559 0.049154047 0.13023844 -0.047501788 0.008550233 0.0033218148 0.05671241 0.07195957 0.051582027 -0.014178812 -0.008765555 0.06747426 -0.029685615 0.010345839 0.08694652 0.037657432 0.029668964 -0.073060125 0.0028560753 0.0045008836 -0.0678036 0.042000316 -0.09521085 0.020070372 0.0056964164 0.057024047 0.057931002 0.04759634 -0.0131479995 0.018900592 0.10432002 -0.11473356 0.03811331 0.056253035 0.03645072 -0.025328605 -0.09570036 0.052661415 0.015820768 -0.057700817 -0.016514236 0.06850767 0.06601526 0.10563389 -0.0031980802 -0.07150014 0.022646086 0.0769376 -0.04401739 -0.049680155 -0.09234632 -0.121582486 0.04580262 -0.07198493 0.019900799 0.03629467 -0.000894223 -0.073048934 -0.10000806 -0.02417211 0.034335893 -0.092880726 0.029703574 -0.16571414 -0.026898602 -0.0120508615 0.029895946 0.040957548 -0.055899616 -0.0075256918 0.011928195 0.09156333 0.029485958 0.045272823 -0.14213608 0.061433617 -0.043091122 0.036762666 0.029740894 -0.031131985 0.0033774949 0.096013404 -0.06356089 -0.020644516 0.0118532255 0.052381 0.014623731 0.019189253 -0.004572147 -0.08752944 0.020113332 0.008025027 -0.038165197 0.08300909 -0.043548457 -0.03635051 0.005089615 0.023891738 0.068442665 0.07820827 0.040450215 -0.08795305 0.002709446 -0.008081412 -0.08729271 -0.0052368594 0.04943171 -0.08172618 0.013881478 -0.093668416 0.048559126 -0.044043 -0.062890925 0.036717363 -0.00393394 -0.034170937 -0.009550129 -0.013945895 -0.040123064 0.02880805 0.011279915 -0.011049568 -0.009172715 -0.076244526 -0.012249829 -0.04962594 0.05478953 -0.05205196 -0.05012768 -0.17493173 -0.094238214 -0.08106706 0.0757989 -0.0015199182 -0.042216305 -0.03177556 -0.066964455 -0.05083743 -0.012290937 -0.018084515 -0.038192295 0.060540378 0.069472305 -0.035846565 -0.04883387 0.089680135 -0.053007655 0.049415633 -0.043735098 -0.01935709 0.008837367 -0.14238264 0.0092377355 -0.008627783 -0.049217604 0.0146142775 0.017607678 -0.07078817 -0.009763868 0.025506884 0.015628474 0.058567483 0.020321423 0.028947856 0.013572243 -0.02108404 -0.09135791 -0.033900388 0.1200527 0.03072252 -0.15052 -0.1025018 -0.0013121531 0.060955964 0.028661218 -0.14160886 -0.074644 0.01046668 0.047810618 0.06857746 -0.08852092 0.020347059 -0.06355473 0.014849719 -0.008598924 -0.040230647 0.07947791 0.043383796 0.06587276 0.023452852 -0.086172156 -0.03948301 0.03240032 -0.0034089824 0.012551151 0.081949346 0.034839988 -0.011403343 -0.14046605 0.050557118 0.009247881 0.10079645 0.007668783 0.09124996 0.04944563 -0.03966028 0.10373932 0.10523225 0.0090008695 -0.043871917 0.0502567 -0.063367605
kasusnarkoba 0.030347828 0.09319556 0.026716674 0.04569768 -0.01584574 -0.082524404 0.060897093 0.19985124 -0.0062117293 0.0053640935 -0.016669529 -0.061909042 0.0041436288 -0.010155008 -0.07488148 -0.024501152 0.08077605 0.05209936 -0.029257605 -0.034815755 -0.028472023 0.007401966 0.045461487 0.0074027735 0.04473861 0.0081458315 -0.10794741 -0.0074350317 -0.011207559 -0.09099411 0.03176862 -0.04561107 0.05165403 0.008982886 -0.015130234 0.03697854 0.04545131 -0.0944308 0.009645976 0.0028833945 -0.052043278 0.026336592 0.029429708 -0.053164687 0.08862148 0.071091585 0.043924145 0.03667689 0.017701138 0.031244623 0.019736502 0.014328404 -0.023711473 0.05362921 -0.065611914 0.09727556 0.010394731 -0.016361395 0.0010692637 -0.0004150686 -0.0393551 -0.029566871 0.0024137506 0.015017805 -0.009129049 0.05351869 0.0040460047 0.0034645018 -0.06414675 -0.06375963 0.0075503495 0.007557977 0.079171374 -0.055069454 -0.027638491 0.03563755 -0.064693674 0.03662243 -0.009795662 0.06456063 -0.037347373 -0.06238817 0.019621944 0.1625942 0.0476456 -0.0007613736 -0.04000682 0.021422986 0.08396594 0.046583828 0.13834433 -0.043835957 0.00065372826 -0.0009030699 0.054022007 0.07491056 0.05023435 -0.019193284 -0.01152628 0.072180256 -0.032671046 0.0156292 0.091961354 0.043137975 0.033575635 -0.070934474 -0.0010435024 0.009483705 -0.06811737 0.04262411 -0.09953699 0.026855974 0.002829406 0.05677314 0.062173404 0.04244691 -0.014818445 0.022569403 0.10986861 -0.11537187 0.038567826 0.05841365 0.0349091 -0.023333939 -0.090775736 0.04550385 0.010933496 -0.061757885 -0.018033426 0.07203971 0.057904027 0.10626259 -0.001084237 -0.071836926 0.020174174 0.0753236 -0.048393864 -0.052848462 -0.08820487 -0.119592994 0.046561852 -0.070060775 0.024410872 0.03714822 0.0004703085 -0.07436692 -0.10051546 -0.02341449 0.033111148 -0.09209151 0.031268436 -0.1596199 -0.032257162 -0.014121078 0.03549114 0.037544046 -0.057679407 -0.0048147887 0.01918501 0.090965874 0.031211436 0.047357995 -0.14120413 0.05526695 -0.044724967 0.030279856 0.029137963 -0.03016596 0.0008682224 0.09324572 -0.056145523 -0.01557451 0.013176682 0.051810175 0.018556984 0.02096887 -0.0015984249 -0.091489986 0.013928323 0.0020139068 -0.03793098 0.08888217 -0.041339405 -0.03836073 0.009520555 0.022997085 0.06575382 0.0805867 0.042499878 -0.09137244 0.006471068 -0.01176033 -0.091712125 -0.003955224 0.055246208 -0.078118846 0.015486842 -0.0931992 0.04658469 -0.050494403 -0.060174126 0.03759668 -0.0066943904 -0.03185839 -0.009649229 -0.013398703 -0.040642306 0.034085933 0.016830334 -0.012374095 -0.010247715 -0.07620342 -0.017481374 -0.048603907 0.054792397 -0.045410573 -0.04927531 -0.17711824 -0.09107013 -0.08189482 0.0729866 0.0025369546 -0.034012493 -0.032202084 -0.06627381 -0.048165087 -0.009543433 -0.0147510385 -0.03714237 0.063908316 0.07234099 -0.037774865 -0.042593338 0.09072291 -0.051928815 0.05066937 -0.042152565 -0.024447503 0.011157201 -0.14545788 0.0054099215 -0.0030793801 -0.051416647 0.013805829 0.020158563 -0.06632683 -0.010113374 0.02011572 0.020035801 0.051395047 0.016836638 0.037787728 0.007828163 -0.015446405 -0.09337845 -0.039951917 0.1268975 0.036025476 -0.144039 -0.09783492 0.0016230167 0.05894783 0.024001354 -0.13531432 -0.08025056 0.00953866 0.042066656 0.06615939 -0.0830331 0.020359155 -0.0682827 0.0110717015 -0.01478824 -0.032237362 0.07525366 0.038981076 0.06511439 0.018047182 -0.09039955 -0.03667345 0.036194067 0.0016872229 0.02095651 0.0807494 0.041354805 -0.01207788 -0.13549739 0.053938113 0.0027462954 0.09739196 0.008273294 0.08479162 0.049118564 -0.04144346 0.105281234 0.10871528 0.010631945 -0.043737117 0.051028695 -0.06539963
komplotan 0.024958117 0.09586174 0.025887402 0.047763824 -0.0101907095 -0.07807204 0.06372581 0.20205812 -0.0018200233 -0.00024953255 -0.011810645 -0.06293776 0.0026968708 -0.006289434 -0.0749956 -0.029939847 0.084769554 0.054329995 -0.023668343 -0.0339416 -0.025255198 0.0020090372 0.04614645 0.007748808 0.047937572 0.0034490563 -0.10266601 -0.012097113 -0.012250462 -0.094668515 0.03257455 -0.045814328 0.054181416 0.008541603 -0.0137640815 0.039976925 0.050084896 -0.09867942 0.0071944376 0.0041186293 -0.051394567 0.029538637 0.028751751 -0.055734035 0.08775016 0.06798363 0.045633636 0.036567032 0.024617942 0.02980318 0.021271523 0.017085508 -0.02749907 0.056584347 -0.063135825 0.095438465 0.01370004 -0.021027258 0.005381244 -0.004948421 -0.036359217 -0.0235903 0.0071867886 0.0104475105 -0.016813604 0.052872095 0.0005371036 0.00033888407 -0.065497 -0.06326211 -0.0012295617 0.004683535 0.074431986 -0.05807658 -0.027030576 0.035218738 -0.06359905 0.03319248 -0.017071538 0.06618229 -0.03728254 -0.062198665 0.014668039 0.15966512 0.048016425 0.005640898 -0.04208991 0.014923443 0.08646119 0.050289642 0.13529041 -0.045099333 0.003855725 0.002199783 0.05842673 0.07666827 0.048221264 -0.019329332 -0.009172087 0.064773425 -0.033519257 0.0131973205 0.08945942 0.036798738 0.029266946 -0.076486394 0.0010070606 0.0056833257 -0.06689474 0.040298644 -0.09716635 0.02380397 0.007744859 0.054503694 0.06226683 0.042453643 -0.014496901 0.02261541 0.10553762 -0.11256718 0.042409282 0.054209556 0.042803306 -0.02009247 -0.09326943 0.04734374 0.0155793065 -0.061174672 -0.01407496 0.06996813 0.06461544 0.108118616 -0.0063673053 -0.069787845 0.016618505 0.07701175 -0.043665607 -0.047908813 -0.0936202 -0.12241279 0.04585654 -0.067340046 0.02079573 0.03013242 -0.0017873754 -0.07623021 -0.10088339 -0.027228178 0.03458474 -0.09400296 0.027760992 -0.1666177 -0.030712992 -0.015284291 0.029241752 0.036754947 -0.060526162 -0.012828308 0.015518218 0.09540693 0.036876302 0.04719495 -0.14371198 0.055431537 -0.04166488 0.035943888 0.031746324 -0.03205254 0.00036758272 0.09281218 -0.06387851 -0.015672052 0.011183099 0.05443571 0.012557552 0.027368484 -0.006690095 -0.0871224 0.015444883 0.0033016012 -0.032632865 0.08085026 -0.046094548 -0.031408023 0.0045119855 0.026674772 0.06952973 0.07323293 0.04039367 -0.090886235 0.0092088515 -0.01023831 -0.08883201 -0.006643835 0.053983882 -0.0833894 0.018812155 -0.09202828 0.04298214 -0.0480586 -0.06021647 0.032230113 -0.0056716776 -0.034265805 -0.006686498 -0.016100202 -0.044386134 0.031601235 0.018860126 -0.011989132 -0.009432204 -0.071417525 -0.016131744 -0.048523266 0.049697373 -0.048508115 -0.051772546 -0.17765598 -0.09547751 -0.07726705 0.0742487 0.0012685535 -0.03716204 -0.029338747 -0.061413977 -0.04746569 -0.016906068 -0.01867738 -0.03629191 0.06200968 0.06394889 -0.03374167 -0.04548746 0.088389866 -0.053200897 0.05077374 -0.047130026 -0.020398192 0.0056940406 -0.13836299 0.009682575 -0.0052457037 -0.049393337 0.012144881 0.018761573 -0.07502507 -0.0118869515 0.02146147 0.022893509 0.05753367 0.014645083 0.031727187 0.0083583305 -0.014350122 -0.08677828 -0.03459095 0.12647863 0.031552754 -0.14646924 -0.10063795 -0.002764824 0.055435248 0.026356205 -0.14041424 -0.080267474 0.0077879825 0.044136487 0.061583556 -0.082133576 0.021702688 -0.068161465 0.012716513 -0.013333595 -0.034314938 0.07685996 0.042871866 0.07171233 0.018399032 -0.09123318 -0.040918376 0.03679837 -0.00022852939 0.015680673 0.07943872 0.032368567 -0.013756226 -0.14036992 0.057632912 0.0034118616 0.10092127 0.0051536825 0.08737153 0.046213984 -0.036602933 0.1011008 0.108379364 0.010161787 -0.037810456 0.045058355 -0.06462839
pencurian 0.025599742 0.096465506 0.026590936 0.04619655 -0.010265649 -0.0836673 0.062310778 0.2040724 -0.00182833 0.0017887027 -0.01295773 -0.06522376 0.008084404 -0.008061719 -0.07335935 -0.03013182 0.080276795 0.05519213 -0.02465328 -0.034673907 -0.026190557 0.0019223423 0.04676104 0.0036455158 0.047243953 0.007370085 -0.10598945 -0.007839859 -0.0088169975 -0.09807497 0.033424675 -0.04999711 0.052514683 0.013839424 -0.012793507 0.03939808 0.045381054 -0.09854106 0.010322573 0.0021837405 -0.051670276 0.027467517 0.02450718 -0.05956066 0.08619022 0.06571116 0.04876312 0.030424584 0.018924804 0.030307734 0.018639818 0.01706847 -0.027489627 0.054954 -0.060651336 0.10010185 0.010829449 -0.01627061 0.005068634 0.00025245015 -0.03534334 -0.02898679 0.005607286 0.010391353 -0.0144315185 0.053729735 -0.0018129104 -0.002098107 -0.061217543 -0.06025907 0.0059746397 0.0018496885 0.08014425 -0.05638391 -0.031797003 0.033914324 -0.061679564 0.028498162 -0.01539257 0.07315804 -0.039170187 -0.069659054 0.015859198 0.15653044 0.04517116 0.0037399293 -0.0446825 0.017146086 0.089355454 0.04312674 0.13163866 -0.050810542 0.008091363 0.00016651377 0.054314125 0.07100385 0.05366434 -0.016642338 -0.014449074 0.06974208 -0.036151953 0.016034927 0.09352524 0.036850918 0.027593737 -0.07197644 -0.0032804545 0.009593683 -0.06331555 0.041468468 -0.101805516 0.021422127 0.0050846115 0.061435565 0.06203278 0.044255175 -0.016937774 0.021913672 0.106657855 -0.11380715 0.039542343 0.053691845 0.039659068 -0.02110018 -0.096769415 0.0478196 0.013644406 -0.059161957 -0.015951816 0.06960536 0.061609786 0.10405298 -0.008761561 -0.0699752 0.018919047 0.06993485 -0.043900385 -0.04738209 -0.090316944 -0.11993622 0.042172 -0.066050276 0.0199136 0.031621628 -0.0033288288 -0.074988194 -0.10160951 -0.026908427 0.036894158 -0.08984195 0.024689764 -0.16208437 -0.027580181 -0.017952738 0.036298 0.04210505 -0.05588667 -0.012205937 0.017577704 0.09292034 0.029848024 0.04493549 -0.14358981 0.059630033 -0.047882646 0.030997563 0.028436437 -0.030362522 0.003379636 0.09886504 -0.058932688 -0.022576548 0.009001346 0.050126225 0.013966063 0.020577053 -0.00020692365 -0.08956504 0.014561466 0.008787084 -0.037417836 0.08246363 -0.042908337 -0.03168481 0.00653583 0.022597158 0.06725355 0.07927629 0.041649554 -0.09503925 0.0017533562 -0.012217605 -0.08535843 -0.0042145685 0.05281305 -0.080687694 0.0142811285 -0.089752 0.045429863 -0.043761812 -0.06213306 0.039754942 -0.008824528 -0.030608851 -0.009958961 -0.017279526 -0.038158547 0.032046404 0.017577419 -0.014081035 -0.0049990243 -0.07201058 -0.0134991 -0.0454882 0.05470713 -0.04668681 -0.049117357 -0.17527877 -0.095150806 -0.08272544 0.06986051 -0.0030719577 -0.039834127 -0.031207528 -0.06357215 -0.049361564 -0.012393283 -0.02195986 -0.033273663 0.06325122 0.070303105 -0.032647554 -0.048301756 0.09186548 -0.052881602 0.04668009 -0.04576954 -0.020605506 0.009712036 -0.1453491 0.011765618 -0.007428235 -0.047371723 0.011293582 0.014759171 -0.0707472 -0.013425583 0.023398925 0.017482657 0.059062697 0.013203008 0.034965727 0.009175635 -0.014236662 -0.09047621 -0.03491282 0.12184773 0.03332249 -0.1513586 -0.09973724 0.004419288 0.05413487 0.028727133 -0.13740571 -0.076025285 0.0060263784 0.046727963 0.061963886 -0.086053 0.02511926 -0.06292786 0.012284884 -0.011694949 -0.040729415 0.07849654 0.041834168 0.06704696 0.022458151 -0.09000256 -0.036140464 0.035647415 0.00078034884 0.01509303 0.07644918 0.03398314 -0.014938816 -0.14241421 0.057467293 0.0083934665 0.097926676 0.00970334 0.08784983 0.048028994 -0.037101977 0.1041595 0.10962665 0.008750964 -0.043342963 0.045035936 -0.059844755
berkatakasar 0.030939395 0.096812375 0.030378638 0.043987058 -0.007701637 -0.08388171 0.06114972 0.19957127 -0.0015867932 -0.00033304835 -0.012509298 -0.06932832 0.004548366 -0.0032430526 -0.07824862 -0.024083754 0.07768895 0.05792971 -0.029679714 -0.035361614 -0.03131856 0.0060231225 0.047600593 0.008408218 0.040385507 0.010003724 -0.10286154 -0.013175422 -0.01116492 -0.089988165 0.037690718 -0.05185817 0.05762015 0.008430438 -0.0135694295 0.042112265 0.044947993 -0.09511901 0.0107918065 0.0014789425 -0.04903315 0.031429216 0.020993704 -0.057142828 0.088546045 0.06944578 0.049799614 0.032607485 0.024690127 0.026004517 0.023975309 0.010775761 -0.023955463 0.058564246 -0.06501576 0.101885386 0.0063138916 -0.019768395 0.0073281513 -0.004675955 -0.034674577 -0.029089173 0.0045467187 0.01789377 -0.010222128 0.050578177 0.0039996104 -0.004293793 -0.06363438 -0.06174141 0.0021080829 0.0066579254 0.08025192 -0.060906406 -0.030595021 0.038202498 -0.06412026 0.028260756 -0.014801435 0.0657245 -0.03758502 -0.06535708 0.014255533 0.15951456 0.042135257 -0.00054056663 -0.04386122 0.020090394 0.08394653 0.050620336 0.1336249 -0.043021526 0.0060595567 0.0030917837 0.060678177 0.07197414 0.050229482 -0.01684441 -0.009927765 0.06485429 -0.034261115 0.01588323 0.08925281 0.04008477 0.028645443 -0.07125638 0.0006374548 0.0044583464 -0.060555156 0.042488713 -0.101829685 0.017991668 0.009097474 0.058736987 0.05688956 0.048130505 -0.017819159 0.018297412 0.10970721 -0.1148494 0.0394011 0.058132805 0.04342556 -0.026210336 -0.09689263 0.04871491 0.01784967 -0.059137568 -0.016484551 0.068819486 0.06434173 0.10684859 -0.0019270298 -0.06556026 0.015115074 0.07615052 -0.049812574 -0.054070488 -0.08996666 -0.117367014 0.04456852 -0.073613554 0.026044643 0.030278794 -0.0029492893 -0.07603491 -0.099456 -0.026777867 0.03164577 -0.09312049 0.031313688 -0.16559613 -0.026603287 -0.0159903 0.03315183 0.040253956 -0.05463095 -0.010961283 0.010270017 0.09352304 0.03659027 0.046215527 -0.14362548 0.06175364 -0.04115734 0.030817 0.029270254 -0.030553449 0.00017911108 0.092316255 -0.058214046 -0.020496087 0.010241349 0.051269956 0.019133229 0.026913837 -0.006831216 -0.09222179 0.021665407 0.006835529 -0.038861796 0.08129424 -0.045347996 -0.031797156 0.009890289 0.021491228 0.07085141 0.075988404 0.039999347 -0.09347396 0.0066780285 -0.011561174 -0.08495553 -0.0069136997 0.050077848 -0.08069609 0.0124441 -0.09144413 0.049060863 -0.045360737 -0.059868436 0.037621915 -0.0062370286 -0.031805687 -0.0074146306 -0.012804527 -0.044944756 0.033033147 0.013598748 -0.014232397 -0.012661805 -0.07754909 -0.014414256 -0.044964164 0.052632194 -0.05047598 -0.052682713 -0.17332794 -0.08925527 -0.07719506 0.07291283 -0.0058987685 -0.035098717 -0.033099838 -0.06265881 -0.04781306 -0.010014829 -0.020216353 -0.038227744 0.060478438 0.06893802 -0.03291039 -0.048648145 0.09503541 -0.048353344 0.04615911 -0.04236649 -0.023687733 0.006055629 -0.13991603 0.006905848 -0.0029321993 -0.052370377 0.008281542 0.012592094 -0.07041717 -0.0100478865 0.027299814 0.019594679 0.057857137 0.016769433 0.029612852 0.014481105 -0.020782182 -0.08897178 -0.036356173 0.12173945 0.03316308 -0.14545737 -0.10203002 0.0021622507 0.057809446 0.028364003 -0.14192069 -0.08180103 0.0037245043 0.042980004 0.06507275 -0.08867863 0.025686728 -0.06348755 0.011284822 -0.012715986 -0.04005274 0.07412579 0.039172363 0.06942839 0.023812538 -0.08612604 -0.03899755 0.036799178 -0.0027525194 0.011390489 0.08118341 0.0336074 -0.016839618 -0.13745521 0.050460566 0.006332304 0.09935243 0.0069497433 0.088349596 0.046393007 -0.03335951 0.10215164 0.10787529 0.008021973 -0.044465598 0.046882387 -0.06389648
