lakilaki 0.04437351 0.15254936 0.04692066 0.08259897 -0.029828466 -0.13618936 0.10976816 0.3359899 -0.0035387133 0.0015822937 -0.017437052 -0.11519828 0.006194812 -0.013153209 -0.12146681 -0.04730241 0.13302241 0.08874974 -0.04107183 -0.049169175 -0.04662427 0.00800945 0.08226052 0.003700017 0.06928164 0.011665119 -0.18036126 -0.019448383 -0.014625215 -0.15464637 0.0579933 -0.08888424 0.08993501 0.0116287405 -0.023116017 0.061782338 0.082632646 -0.15754175 0.0072979648 0.0128888 -0.08153061 0.054294076 0.0384558 -0.09448171 0.13152052 0.1077688 0.07940249 0.06145149 0.042829156 0.053411152 0.030355338 0.021591509 -0.05060431 0.09117392 -0.09835739 0.1600371 0.022815865 -0.03205414 -0.00056357245 0.003923246 -0.060296085 -0.046135005 0.008102744 0.025742045 -0.024910763 0.07953872 -0.0057766796 -0.0004975291 -0.10987692 -0.10497879 0.0035896273 0.0137935 0.12675965 -0.09849305 -0.04535574 0.061752897 -0.09658265 0.05629604 -0.0189078 0.103203766 -0.06870976 -0.109581925 0.031674717 0.26448414 0.069718845 0.00582992 -0.07183762 0.028240945 0.13854551 0.077048555 0.223432 -0.07943531 0.008496842 -0.00044431255 0.101661205 0.11825709 0.08053738 -0.034138862 -0.020840298 0.11164423 -0.059264455 0.020223115 0.14905477 0.067486584 0.05546866 -0.1294396 -0.001012995 0.009807163 -0.11314786 0.058668785 -0.16977891 0.040822063 0.0031255507 0.10149277 0.09449916 0.073001415 -0.0183767 0.036569014 0.16913989 -0.19455926 0.06843813 0.08014651 0.06646851 -0.040936302 -0.15223484 0.081553906 0.019107325 -0.09200845 -0.020315137 0.11222187 0.103346646 0.17460687 -0.015294186 -0.12465001 0.032372024 0.118472874 -0.06995341 -0.083560936 -0.1444732 -0.19965729 0.07899104 -0.11611421 0.03652634 0.057895925 -0.0018348917 -0.12982184 -0.16032015 -0.04281795 0.055911772 -0.14835003 0.045406427 -0.2773632 -0.046003334 -0.020964991 0.057326157 0.06757001 -0.09308693 -0.013585871 0.025020817 0.1604916 0.0468218 0.073986664 -0.24111561 0.09690543 -0.07120161 0.05576271 0.04597012 -0.048264787 0.0059925825 0.16742027 -0.10044601 -0.03415781 0.023331577 0.09493263 0.025322432 0.032867577 -0.012992122 -0.15695298 0.03328376 0.011653502 -0.058376998 0.14473116 -0.067489505 -0.05367932 0.014370141 0.03951269 0.11688942 0.12228522 0.058679037 -0.15896438 0.009075736 -0.018041248 -0.150491 -0.016820524 0.08302508 -0.1325891 0.033943783 -0.15507936 0.07025495 -0.072150074 -0.09542625 0.06819333 -0.012498548 -0.05562865 -0.011455544 -0.01253785 -0.06627146 0.05642089 0.014899526 -0.013417677 -0.01816485 -0.1226927 -0.013896506 -0.073988006 0.08897378 -0.08299624 -0.073176794 -0.2794231 -0.16040461 -0.13160236 0.12070968 -0.013350101 -0.06582946 -0.054337095 -0.10161786 -0.08320046 -0.02516284 -0.0283691 -0.06387142 0.09393971 0.112276874 -0.06431823 -0.07631932 0.15165778 -0.09043552 0.08050193 -0.07923276 -0.033907905 0.018404325 -0.23886062 0.012042274 -0.009287142 -0.080593646 0.017023133 0.023499558 -0.116475895 -0.02234881 0.03717876 0.034529 0.091186784 0.02681789 0.05163724 0.023046473 -0.036572993 -0.1467178 -0.06167839 0.20599186 0.05167549 -0.24127255 -0.16350567 0.0038778551 0.09286785 0.042901445 -0.22759373 -0.13736711 0.012805634 0.0695224 0.1133147 -0.14458413 0.033669814 -0.10323002 0.016353311 -0.013006941 -0.06368668 0.12503323 0.07163538 0.11461088 0.03891558 -0.14464334 -0.064018495 0.060649205 0.0028706952 0.026490059 0.12472609 0.056768544 -0.031053795 -0.22032885 0.08333253 0.012720368 0.16181773 0.0033749756 0.14804122 0.08786712 -0.06150602 0.1657045 0.1755587 0.0182497 -0.06756934 0.087680876 -0.09488792
saksi 0.032925308 0.12587409 0.03637431 0.06316169 -0.019328995 -0.109350905 0.087547794 0.27139705 0.00047161026 -0.00062708417 -0.013068097 -0.09133907 0.007879363 -0.01473646 -0.093671314 -0.03857705 0.10970271 0.06960291 -0.0340306 -0.035009995 -0.03945019 0.004054299 0.06740865 0.006244659 0.050041776 0.011159393 -0.14326537 -0.015948206 -0.008755315 -0.12389461 0.048994474 -0.07271059 0.06772232 0.0105468305 -0.01684802 0.052894656 0.06763073 -0.12782456 0.0024429192 0.015258734 -0.06204245 0.04401403 0.03542277 -0.07592392 0.10927676 0.08775458 0.067140706 0.04706086 0.032387905 0.039845575 0.02814967 0.016247896 -0.042930048 0.069777876 -0.08394267 0.13062194 0.017639901 -0.020439593 0.0027248184 -0.0005091149 -0.048302535 -0.035716057 0.010431184 0.02254353 -0.018585568 0.06152427 -0.004794299 0.001239562 -0.088692784 -0.08825891 0.003422071 0.007208144 0.10249078 -0.07364431 -0.03892219 0.0481703 -0.08226428 0.048056483 -0.01668125 0.08652254 -0.0570422 -0.086942784 0.025966687 0.2123573 0.057553276 0.0033718462 -0.056909706 0.025869682 0.11163549 0.057038277 0.17717405 -0.064797364 0.0057014595 -0.001227595 0.08287365 0.09385096 0.069821246 -0.028354812 -0.017663008 0.08643072 -0.047499374 0.015160934 0.11592826 0.051580936 0.044013277 -0.10063457 -0.00058094977 0.007186459 -0.09219975 0.051549118 -0.13926747 0.03736204 0.0009222893 0.08065351 0.073727295 0.055462636 -0.017735768 0.028892973 0.13956869 -0.15851738 0.054954305 0.06335506 0.054386687 -0.026954668 -0.12523909 0.06516834 0.01728536 -0.07379835 -0.018766424 0.08859825 0.08344839 0.14251871 -0.011752242 -0.10263884 0.02834432 0.09266826 -0.059841268 -0.06830359 -0.11943766 -0.1633543 0.061981298 -0.09391502 0.028666634 0.05015037 0.001030307 -0.109504305 -0.12956762 -0.03429974 0.04629589 -0.12263742 0.03573885 -0.21991602 -0.033238936 -0.019595094 0.04610194 0.049689762 -0.0810523 -0.016170958 0.02008807 0.1252879 0.041839726 0.057064027 -0.19257934 0.07984887 -0.059716888 0.043325257 0.038671777 -0.034092784 0.000898308 0.13596833 -0.08194337 -0.023695761 0.016465541 0.07590222 0.021912772 0.030813493 -0.0091460375 -0.12257403 0.027824719 0.007334669 -0.047026742 0.11328886 -0.054767706 -0.042522542 0.009097414 0.029512044 0.0969797 0.102294974 0.04324174 -0.12849638 0.0079718195 -0.015765674 -0.11982307 -0.013078131 0.06890269 -0.11046828 0.027919961 -0.122712076 0.059651803 -0.05840412 -0.07996943 0.054656323 -0.008865684 -0.047837354 -0.014872216 -0.012332085 -0.051093765 0.046296198 0.01200474 -0.014478391 -0.014996776 -0.09896806 -0.016167814 -0.06321285 0.06850402 -0.06843964 -0.06252176 -0.23028396 -0.12784185 -0.10560812 0.09660108 -0.0102585135 -0.04984799 -0.038598504 -0.08685907 -0.066739306 -0.021110535 -0.027374595 -0.04893255 0.07710553 0.090695776 -0.05290315 -0.061208677 0.11998903 -0.07056175 0.0680413 -0.06206263 -0.026165567 0.015824918 -0.1938653 0.0148587385 -0.010721484 -0.06779 0.01170066 0.017439568 -0.09668434 -0.018600494 0.032894325 0.029054172 0.07348244 0.0217437 0.039361443 0.023366902 -0.024888067 -0.11912682 -0.047833893 0.17010035 0.040391546 -0.19579212 -0.133222 0.004860513 0.075742304 0.035162404 -0.18688719 -0.10747865 0.008904074 0.054318532 0.09106768 -0.117922574 0.022285832 -0.083639525 0.013803658 -0.009266057 -0.05030798 0.10150284 0.058397308 0.086724974 0.031384762 -0.11546908 -0.050548434 0.051305518 0.0023433845 0.025358878 0.09753494 0.04498406 -0.026242355 -0.17847843 0.0729602 0.007483314 0.13110167 0.0071509024 0.12115786 0.065359354 -0.04929992 0.13450389 0.14125614 0.012684436 -0.057936605 0.06955399 -0.076708
perdaganganorang 0.039376058 0.121166974 0.036212347 0.0644682 -0.02132697 -0.10739795 0.088757195 0.26814562 -0.0029002083 0.0023109312 -0.014141598 -0.092164926 0.0055860328 -0.009574563 -0.09818082 -0.03794372 0.11006095 0.07372861 -0.030556992 -0.040352017 -0.039035678 0.0044408985 0.06802336 0.0027209374 0.05464718 0.011297929 -0.14540939 -0.018558713 -0.010238584 -0.124694675 0.05113483 -0.068572916 0.06973927 0.012232889 -0.02066316 0.050587058 0.06181709 -0.12813343 0.0040343367 0.008647982 -0.06005025 0.040257473 0.036183063 -0.07736503 0.107140586 0.089988396 0.06368079 0.043595184 0.03175857 0.039521072 0.0260802 0.013044786 -0.042353485 0.07452215 -0.08503937 0.12701015 0.016178396 -0.027200464 -0.0019471794 -0.002482965 -0.04804873 -0.038593117 0.010089051 0.023511933 -0.020807372 0.06555769 -0.0071502356 -0.0037192605 -0.0901124 -0.0867571 0.001058744 0.011361419 0.10142426 -0.075152166 -0.03575231 0.04746497 -0.07828704 0.048127435 -0.01528945 0.088256925 -0.05293857 -0.09143718 0.02236199 0.21196808 0.057027586 0.002052051 -0.056105904 0.022397393 0.10967611 0.060271088 0.17855975 -0.063946165 0.0042385464 1.6263673e-05 0.078483984 0.09402646 0.07014477 -0.02772884 -0.017853279 0.090374455 -0.042690616 0.014038009 0.121937536 0.05538723 0.041556463 -0.10265101 0.0002326986 0.004974047 -0.092377976 0.046621047 -0.13673928 0.035139423 0.0052280393 0.078284316 0.0753406 0.058210365 -0.014943156 0.02754497 0.13482392 -0.1605667 0.05426216 0.06757221 0.05106847 -0.033619016 -0.12748809 0.06728523 0.015491966 -0.072835065 -0.01799171 0.091696516 0.078270085 0.1434356 -0.012343232 -0.10123453 0.023821361 0.09460235 -0.060686592 -0.06992211 -0.121935494 -0.16203475 0.06459438 -0.09206786 0.031839516 0.048089787 0.0023065992 -0.10886097 -0.13318865 -0.035124335 0.047826342 -0.11945815 0.031310707 -0.22143263 -0.03334663 -0.019964585 0.044753395 0.05595065 -0.08076438 -0.011010943 0.02080862 0.12988675 0.04323897 0.05783299 -0.1943906 0.08264777 -0.05812617 0.045385122 0.03164591 -0.03392344 0.002285473 0.13109009 -0.078617536 -0.0253737 0.019079832 0.07429671 0.019557867 0.029252218 -0.0052689984 -0.12777883 0.026377255 0.007690282 -0.047166053 0.11582247 -0.05856136 -0.040449493 0.01221497 0.031608026 0.095625944 0.104809545 0.0497249 -0.1274742 0.0074966033 -0.015600723 -0.1250132 -0.008961202 0.06690977 -0.107141465 0.025418023 -0.12633327 0.06007843 -0.06104488 -0.08049918 0.05763491 -0.0064583803 -0.04109701 -0.009078434 -0.011399134 -0.048993297 0.043039795 0.012331337 -0.010767892 -0.012084381 -0.09979222 -0.010179377 -0.060904857 0.07358739 -0.0649404 -0.062215824 -0.22832043 -0.12970632 -0.1056892 0.09944529 -0.005746461 -0.04857236 -0.043829594 -0.08271393 -0.065103315 -0.023021493 -0.026803046 -0.04929149 0.07177922 0.09166913 -0.051793184 -0.057367813 0.12673597 -0.070297115 0.0668367 -0.06400492 -0.025990939 0.015674518 -0.19544443 0.009720783 -0.006872042 -0.06506177 0.011307299 0.017546944 -0.095275365 -0.018278005 0.031875882 0.027622703 0.07199458 0.020576267 0.042751696 0.020360745 -0.029116116 -0.11419356 -0.049176402 0.1672345 0.04293849 -0.1903432 -0.1330128 -0.0002702411 0.074212745 0.035853688 -0.18418045 -0.111765735 0.007890341 0.052293837 0.0924161 -0.11810132 0.026968984 -0.08784558 0.01253036 -0.009593108 -0.048976075 0.09837462 0.053173166 0.086899266 0.027510358 -0.11939644 -0.052788217 0.048691876 0.0021851757 0.026085677 0.100214854 0.047873467 -0.022999434 -0.17562403 0.06618527 0.007280791 0.13194203 0.0019236516 0.1177972 0.069685034 -0.04930358 0.13483764 0.14278649 0.014160046 -0.052153137 0.07067235 -0.07664427
gangster 0.029376486 0.102937706 0.028492937 0.05767878 -0.018650912 -0.09493205 0.07291811 0.23205616 -0.0024657606 0.00022566429 -0.013399098 -0.08056835 0.004679382 -0.010381377 -0.08349098 -0.029629061 0.09238066 0.05761204 -0.024019305 -0.03430961 -0.033903107 0.00566754 0.053358324 0.0019029175 0.048545577 0.0073623033 -0.12703103 -0.011412429 -0.008883856 -0.10740945 0.044629313 -0.05975218 0.061417475 0.012416217 -0.018543418 0.04418827 0.055404138 -0.10632618 0.005826047 0.012061493 -0.052406516 0.038461745 0.027251422 -0.06580635 0.09123572 0.07505403 0.055273864 0.042713482 0.02986887 0.037658468 0.02391353 0.016851334 -0.034528565 0.06548307 -0.06891977 0.108965226 0.013011051 -0.021408768 0.0026089242 0.0005179681 -0.042313695 -0.029347645 0.00960561 0.019352276 -0.018429978 0.05271568 -0.0054179803 -0.0044167666 -0.07428565 -0.07415838 0.0023957188 0.009714569 0.08670463 -0.06955264 -0.032109637 0.040578365 -0.06790631 0.037251007 -0.009954769 0.07385292 -0.04601397 -0.077526405 0.019758457 0.18380275 0.049999066 0.0016643 -0.05380811 0.021458078 0.09842469 0.05348288 0.15029363 -0.052160285 0.0066241254 0.0023766037 0.07133565 0.078133106 0.055020142 -0.020290969 -0.011295401 0.077030264 -0.036437668 0.012199319 0.104594976 0.04167556 0.03353282 -0.090321064 -0.0022732485 0.0073974747 -0.07912632 0.039491925 -0.11424743 0.02891545 0.0062281303 0.06674588 0.065872975 0.050705306 -0.01298961 0.022410175 0.118967466 -0.1372578 0.04592523 0.055832237 0.046704125 -0.027063249 -0.10892221 0.057213094 0.014374262 -0.0659548 -0.0110677155 0.07714405 0.06806345 0.12174921 -0.0065113893 -0.082450755 0.023774216 0.082996346 -0.049189616 -0.060401987 -0.10430056 -0.13987623 0.052057717 -0.078701116 0.025201932 0.04291487 -0.003030154 -0.09395656 -0.11295822 -0.029738337 0.035781857 -0.10252384 0.027525583 -0.18972543 -0.03392955 -0.014799417 0.040932868 0.044863567 -0.068291746 -0.011932644 0.019657388 0.110413685 0.03139182 0.04956067 -0.16463561 0.06912384 -0.052986678 0.039215527 0.02737032 -0.03421374 0.00326271 0.11300295 -0.067406185 -0.019049574 0.013816787 0.067413636 0.01876087 0.027781157 -0.0054581286 -0.1105496 0.02036029 0.011107687 -0.036505125 0.101584494 -0.045418378 -0.032586284 0.0063766157 0.02909532 0.07889305 0.087966114 0.042154584 -0.10737969 0.008478229 -0.011368982 -0.10425939 -0.007885643 0.055876385 -0.09196193 0.025596643 -0.10848334 0.051840317 -0.05362312 -0.062404905 0.04908005 -0.006816804 -0.036588635 -0.009198714 -0.012531881 -0.04541341 0.040382437 0.010960717 -0.012279104 -0.009667081 -0.08323745 -0.012432852 -0.052326035 0.061281953 -0.057848748 -0.05292069 -0.19729692 -0.110003844 -0.09273022 0.08353131 -0.01146159 -0.044679433 -0.03843839 -0.07513383 -0.058916293 -0.021111172 -0.018300297 -0.04088574 0.06413798 0.07516265 -0.0449744 -0.050646894 0.10539276 -0.06034745 0.055893958 -0.054092977 -0.024109272 0.0092866 -0.16656573 0.007153774 -0.007231184 -0.05483365 0.013042697 0.014305587 -0.08221315 -0.012519599 0.025874108 0.024172995 0.06621503 0.019015277 0.034527205 0.020160343 -0.022321528 -0.101788595 -0.04162917 0.14278428 0.038556848 -0.16615526 -0.11247423 0.0026445652 0.0652384 0.028042458 -0.15843147 -0.09535889 0.009206709 0.04860082 0.080094025 -0.101412356 0.023142714 -0.07378619 0.013374979 -0.008853757 -0.04313498 0.08787709 0.04968536 0.07527343 0.028382309 -0.099981874 -0.045686945 0.040929075 0.0070693945 0.017581189 0.08521086 0.041095894 -0.019885497 -0.1531448 0.057339855 0.009939476 0.11365744 0.0051281624 0.10015797 0.05538073 -0.03964129 0.114820845 0.11735469 0.008661723 -0.047807883 0.05671869 -0.06448838
forensik 0.030032882 0.10443378 0.034659468 0.051984802 -0.01671731 -0.091615655 0.074382834 0.23524584 0.0017840007 -0.00042238348 -0.01613095 -0.08241338 0.0027687603 -0.011742142 -0.085137844 -0.035382345 0.09209956 0.06239362 -0.024462009 -0.03306927 -0.035895005 0.0048555797 0.055742677 0.0054183337 0.04654824 0.011193799 -0.1285742 -0.011809444 -0.008965523 -0.103777446 0.039454997 -0.061197635 0.06107662 0.00966531 -0.017569693 0.039846368 0.052880075 -0.11110332 0.005871042 0.010605982 -0.055072967 0.038963046 0.027712798 -0.06517663 0.08899281 0.07173485 0.060047705 0.03920901 0.026357248 0.03722443 0.025414333 0.011798299 -0.033858657 0.06108386 -0.0700092 0.1112125 0.01337683 -0.019852573 0.003803245 0.0031950644 -0.04517109 -0.034120366 0.009257593 0.02049624 -0.018303983 0.05487092 -0.00042874852 -0.0017545782 -0.07861738 -0.072833575 0.003515647 0.009797146 0.09024966 -0.06842558 -0.032840513 0.042761743 -0.06784392 0.036025707 -0.014958413 0.07425729 -0.050382156 -0.07519508 0.020483948 0.18616635 0.04813414 0.0036870802 -0.049034346 0.019812424 0.09544873 0.052455798 0.15570852 -0.056326278 0.007409075 -0.0031355934 0.06979174 0.08158612 0.061342616 -0.020445988 -0.01210997 0.07913966 -0.042453967 0.01600992 0.100233085 0.044092573 0.034736533 -0.09037311 -0.0035448163 0.0031276539 -0.08003781 0.042351753 -0.119943075 0.032599475 5.8971553e-05 0.06751044 0.06808202 0.051359136 -0.011781033 0.024888854 0.119095385 -0.13758232 0.0491722 0.058105946 0.047288742 -0.023745632 -0.104758695 0.05889888 0.011311509 -0.06784916 -0.013035038 0.07868144 0.07226077 0.1242825 -0.007336597 -0.08760811 0.024056347 0.08039524 -0.053447507 -0.05694104 -0.10244763 -0.1421626 0.052234624 -0.0807745 0.02898638 0.04236524 -0.0016408782 -0.09466043 -0.11398966 -0.029636055 0.0408054 -0.10447277 0.029630167 -0.19056614 -0.034430757 -0.015088667 0.040031962 0.046229526 -0.06520855 -0.012047291 0.01660634 0.11276706 0.03637109 0.0533603 -0.16514653 0.07160821 -0.047843788 0.037509542 0.033631664 -0.030523086 0.0040854826 0.11467997 -0.06972605 -0.023527969 0.012213666 0.06561171 0.021232307 0.027572796 -0.008071587 -0.10646326 0.023056254 0.007387841 -0.037962466 0.09793574 -0.04521202 -0.03369724 0.0106301885 0.029278936 0.08408755 0.089871645 0.040067133 -0.112127915 0.008816732 -0.009746935 -0.10422823 -0.0105706295 0.05617387 -0.09449828 0.025552524 -0.10817002 0.04863131 -0.04824415 -0.06350372 0.049657796 -0.007099975 -0.041412514 -0.0070400913 -0.011644562 -0.04349354 0.040173694 0.015665034 -0.013912777 -0.008592431 -0.08804404 -0.014320513 -0.054400243 0.057996117 -0.054045364 -0.048989043 -0.1978049 -0.10852545 -0.0917983 0.08852721 -0.006904692 -0.04554592 -0.037175026 -0.0749687 -0.055071786 -0.018543506 -0.021744704 -0.03994835 0.06323371 0.073686786 -0.0435394 -0.051345415 0.10360981 -0.06282153 0.053152677 -0.051840417 -0.021768555 0.011845684 -0.16381207 0.012697186 -0.0073169786 -0.053836394 0.012146943 0.016577706 -0.07964262 -0.017575791 0.025247017 0.025594996 0.06542902 0.019324956 0.038587667 0.019300869 -0.02698819 -0.10134435 -0.044137638 0.14692675 0.038604528 -0.16691253 -0.11099067 -0.00026024817 0.06338907 0.028761068 -0.1568392 -0.09273879 0.008473138 0.04592629 0.07674398 -0.09914922 0.020917857 -0.074844755 0.0076441155 -0.0078479955 -0.045340866 0.087582834 0.045426123 0.08094966 0.026317004 -0.09951176 -0.04365493 0.039192718 0.0044739237 0.02096599 0.083970204 0.040524457 -0.018871471 -0.14999966 0.061634652 0.006213338 0.109919764 0.0059461114 0.10282307 0.06089478 -0.039256655 0.11367064 0.118112765 0.011222367 -0.04457666 0.056781866 -0.06105508
wartawan 0.021348514 0.08393173 0.025271105 0.045405217 -0.015651304 -0.07405117 0.05616918 0.1811873 -0.0025564996 0.0042734486 -0.012374147 -0.065242186 0.0024577717 -0.0063345646 -0.06686955 -0.027149688 0.06893371 0.049822338 -0.019586185 -0.024008015 -0.02762108 0.005494674 0.04109767 0.0009699096 0.034192536 0.0065173497 -0.09807367 -0.008491621 -0.006314071 -0.085867286 0.030714931 -0.05033457 0.047948997 0.0108457 -0.014223217 0.036067933 0.046072233 -0.08649497 0.0010177081 0.011305571 -0.03952378 0.026847957 0.01992672 -0.047626935 0.07290524 0.060833726 0.041769143 0.028661773 0.023045238 0.024111886 0.01628733 0.009687863 -0.023327025 0.052000828 -0.055707023 0.08938789 0.014140725 -0.017105583 0.0036770788 0.0028624875 -0.03186579 -0.026433853 0.0036154217 0.014251801 -0.010549921 0.04046997 -0.0039796126 0.0021505817 -0.057683248 -0.054957047 -0.001725132 0.0054848213 0.0706831 -0.053127654 -0.02293291 0.036540523 -0.054113727 0.02952261 -0.009755741 0.05539401 -0.039901827 -0.060045622 0.015193634 0.14336494 0.036737576 0.004914871 -0.042370617 0.013686412 0.07801678 0.043550495 0.11922713 -0.041933775 0.0021217281 -0.0034529858 0.05122005 0.06533271 0.047446415 -0.014118179 -0.008973429 0.061557144 -0.030066283 0.0068294094 0.08122738 0.035015617 0.030977407 -0.06839504 -0.0018766392 0.0069393585 -0.06021748 0.033185683 -0.09319169 0.020971393 -3.100955e-05 0.056318384 0.047642972 0.041259572 -0.01453074 0.01829307 0.091819584 -0.10806483 0.03932996 0.046468273 0.035403416 -0.018591892 -0.08371857 0.046468336 0.013736243 -0.05417167 -0.012032371 0.059047796 0.055249255 0.09373289 -0.0074623027 -0.069142364 0.017622354 0.06526135 -0.03772311 -0.047690865 -0.0825928 -0.11280609 0.041035727 -0.063890226 0.019087378 0.03332827 0.0017574736 -0.07073503 -0.09045599 -0.024692807 0.032789685 -0.07908255 0.021327898 -0.15072748 -0.024630904 -0.01107238 0.03217756 0.036272343 -0.05392134 -0.01213951 0.011544778 0.08535512 0.028609337 0.041338213 -0.12907942 0.054997686 -0.039093953 0.030662777 0.020587603 -0.02248202 0.0036455262 0.09084691 -0.051147033 -0.0140980175 0.0117289815 0.049577195 0.014267498 0.01578435 -0.0028303352 -0.08641554 0.019559044 0.0053976877 -0.029556118 0.074486434 -0.04062672 -0.030392343 0.005421997 0.021804512 0.060700916 0.06614143 0.029295346 -0.08673512 0.007116993 -0.0077196783 -0.07895629 -0.005354844 0.043472912 -0.069714986 0.014400962 -0.084297895 0.03702892 -0.03870164 -0.050979216 0.03868904 -0.004512288 -0.03244789 -0.0050558825 -0.010300144 -0.032119095 0.030985205 0.008409204 -0.0101129245 -0.010546123 -0.0679632 -0.0062708375 -0.040896658 0.049173072 -0.04702364 -0.039735846 -0.15331309 -0.08259404 -0.072983325 0.06902223 -0.008443357 -0.037200257 -0.02951654 -0.057364497 -0.04489579 -0.016184062 -0.018489908 -0.033177014 0.049966153 0.05893361 -0.032001887 -0.04227382 0.0813478 -0.045581207 0.046631508 -0.046156034 -0.016858311 0.011585756 -0.13036786 0.010377919 -0.00853412 -0.041078437 0.009943133 0.012402079 -0.06557889 -0.013736386 0.018997831 0.020145494 0.050406307 0.01648325 0.031769674 0.016468396 -0.020011958 -0.07442035 -0.032610316 0.113393165 0.029540231 -0.12991643 -0.08635218 -0.00044165534 0.048867017 0.019143848 -0.122765444 -0.07087029 0.005561628 0.036565438 0.061414473 -0.074086465 0.014544871 -0.05591487 0.005279763 -0.0066057015 -0.031656124 0.07074696 0.03951135 0.06305796 0.022423783 -0.07545538 -0.031711347 0.0310912 0.0061619114 0.017435456 0.066644564 0.0332135 -0.013880064 -0.11522127 0.047412943 0.008697909 0.087803476 0.005747623 0.08029655 0.04825595 -0.033324275 0.090311386 0.09592756 0.007968113 -0.037412092 0.04680977 -0.05241598
korbankriminalitas 0.029544577 0.08735631 0.024675395 0.048017435 -0.012865632 -0.08142311 0.06464117 0.20103072 -0.0033791387 -0.0005865016 -0.013884311 -0.06960423 0.0052199764 -0.0059133726 -0.06884824 -0.02781695 0.07924209 0.055435356 -0.01932967 -0.025539031 -0.027399063 0.0011810019 0.045977484 0.00019736675 0.041392833 0.0067359665 -0.11002738 -0.010126338 -0.004195741 -0.09194909 0.038888708 -0.053045306 0.050490104 0.008079577 -0.013146835 0.03543845 0.048029833 -0.09053801 0.0069470173 0.006077574 -0.047003817 0.029380254 0.026803827 -0.052759744 0.07716024 0.06457047 0.04654425 0.03535112 0.028125675 0.0290489 0.018046506 0.009621452 -0.030006269 0.053791344 -0.05893807 0.09944904 0.011223445 -0.016989164 0.0040345876 0.001175479 -0.035515755 -0.024168063 0.008871518 0.019387241 -0.016699031 0.05013354 -0.0014818716 0.001762997 -0.06510695 -0.061277546 0.0031039056 0.0050782994 0.07798911 -0.055822857 -0.025360802 0.035890345 -0.0603612 0.03538941 -0.013836128 0.06060009 -0.0429682 -0.065894425 0.01654843 0.15807673 0.04622384 0.0031684677 -0.04398619 0.018439297 0.08222051 0.041742604 0.13485684 -0.048737876 0.0060784626 0.002802592 0.059489295 0.07022426 0.0513426 -0.02027907 -0.010984117 0.06523522 -0.0314744 0.013027414 0.087761275 0.04052752 0.028331343 -0.07337685 0.002252054 0.0035892082 -0.06621255 0.034640796 -0.100673035 0.027077544 0.005598304 0.059111614 0.056499336 0.04239907 -0.009308365 0.0178925 0.09920121 -0.11659586 0.039235253 0.050406575 0.035155702 -0.023284027 -0.09484902 0.04945645 0.011608736 -0.05893693 -0.010090512 0.06826681 0.059213854 0.10229499 -0.007817991 -0.07308231 0.0151290875 0.07254916 -0.045284737 -0.052821346 -0.088739865 -0.12264364 0.045928054 -0.06412475 0.0250606 0.037377372 -0.0011656433 -0.07837587 -0.09739569 -0.028259309 0.034096256 -0.08761012 0.022135567 -0.1642052 -0.030482003 -0.015151968 0.035812657 0.041102294 -0.055528123 -0.009099519 0.017550351 0.09340921 0.029078802 0.040906854 -0.14263096 0.05768581 -0.04294863 0.03465506 0.023787512 -0.028874435 -0.00060558564 0.09656323 -0.05997971 -0.018116092 0.0139931645 0.05336249 0.01404661 0.021306306 -0.0042743864 -0.09069548 0.017460082 0.006171455 -0.034536723 0.08516459 -0.040506907 -0.029855352 0.010923912 0.02309497 0.06926738 0.07274451 0.033910803 -0.09624234 0.004435341 -0.009667906 -0.09241349 -0.0055548223 0.046630647 -0.08264994 0.01600771 -0.08915003 0.04555713 -0.040797222 -0.05558333 0.03993013 -0.007088493 -0.03011703 -0.007397445 -0.0073642232 -0.03884899 0.03326456 0.013093152 -0.009577768 -0.008770457 -0.07279761 -0.008467695 -0.042804204 0.051756535 -0.04996612 -0.046030045 -0.16662318 -0.09541327 -0.07729511 0.07295226 -0.0061100405 -0.04175518 -0.027461642 -0.062340975 -0.04989846 -0.01528994 -0.018307492 -0.03919197 0.053474393 0.06502863 -0.039541755 -0.043680683 0.091458805 -0.05315188 0.048884306 -0.046340875 -0.017660644 0.010967928 -0.14110798 0.0094386665 -0.006736246 -0.05079383 0.011659349 0.012311028 -0.07341219 -0.015649457 0.020823402 0.023012955 0.056329522 0.017521543 0.02878428 0.015388587 -0.021391438 -0.0871099 -0.03337627 0.1239156 0.030237798 -0.14516598 -0.097884834 0.0012763924 0.058175612 0.02549064 -0.1382873 -0.08357391 0.008285955 0.038938437 0.06482294 -0.08244963 0.016775953 -0.060395226 0.008411126 -0.011068213 -0.038650904 0.07717186 0.044160515 0.067008056 0.02392975 -0.08667669 -0.03850975 0.033926092 0.0039064917 0.016572457 0.072985746 0.030767288 -0.013975563 -0.12897007 0.05080062 0.0046503074 0.098457314 0.0009141792 0.087826096 0.05036364 -0.03234911 0.09903391 0.101720355 0.010239052 -0.040957753 0.046963442 -0.05582164
menjual 0.026633622 0.09218489 0.02986119 0.049868077 -0.018015835 -0.07688607 0.06152737 0.19663706 -0.0008914985 0.0035613782 -0.010305286 -0.06624559 0.008213332 -0.008911325 -0.0725228 -0.029736929 0.08027588 0.05035714 -0.023609752 -0.02572655 -0.029947631 0.0015512735 0.046240315 0.002892376 0.039993092 0.009452696 -0.108246185 -0.011412563 -0.0044464925 -0.08963915 0.037773095 -0.053905033 0.053653784 0.005770113 -0.012054435 0.03360662 0.046255887 -0.09508889 0.0037272167 0.007150813 -0.04763362 0.031453338 0.025305776 -0.055341445 0.0753528 0.061538406 0.048651222 0.03351138 0.020950843 0.029560616 0.021947639 0.013798522 -0.032409333 0.054687157 -0.061739996 0.09252858 0.012401168 -0.017124733 -0.0018542168 -0.0014035326 -0.036159024 -0.024760656 0.00292194 0.019480454 -0.014755374 0.046807736 0.00010201778 0.00047921328 -0.06519489 -0.061136357 0.0021684011 0.008697518 0.075273655 -0.0580057 -0.027715085 0.03431989 -0.05820525 0.034866694 -0.008750681 0.06587505 -0.04313849 -0.067003466 0.019875314 0.1553854 0.040307812 0.0031760475 -0.042900678 0.01717303 0.080769084 0.045803163 0.13480932 -0.049599856 0.0045297095 -0.00085582 0.056087267 0.06845765 0.047735907 -0.0159296 -0.013966809 0.06561783 -0.033120647 0.012268762 0.087486334 0.041728817 0.031028127 -0.07699024 -0.0010210231 0.005860427 -0.067706645 0.033377845 -0.10223675 0.023572251 0.0048844726 0.06006099 0.057650976 0.043922577 -0.014052927 0.020579068 0.103525385 -0.11410279 0.04097786 0.050427668 0.03467682 -0.019224882 -0.08877942 0.050547384 0.009576186 -0.05343794 -0.009313019 0.06443877 0.05745861 0.105550274 -0.011238251 -0.07449081 0.019872611 0.07195964 -0.03979515 -0.05232395 -0.09028336 -0.11666727 0.047366805 -0.06855422 0.020341458 0.03288777 -0.0020940178 -0.07943677 -0.09529941 -0.02532404 0.03165619 -0.0899347 0.028456429 -0.16354027 -0.029445132 -0.010729779 0.034984745 0.04118673 -0.058424335 -0.011975634 0.015060297 0.092727944 0.026016317 0.042619828 -0.14032885 0.060491413 -0.04041981 0.033455323 0.02452226 -0.027779026 0.0004490828 0.09912937 -0.06069697 -0.017983649 0.012453438 0.052865714 0.012732417 0.022627594 -0.008896521 -0.09217549 0.019504894 0.010356783 -0.035203025 0.08595519 -0.037577745 -0.032687664 0.007309429 0.02542591 0.07085314 0.074834004 0.036667746 -0.09267122 0.005574406 -0.0106995255 -0.0916719 -0.0074400073 0.0501443 -0.082021415 0.018708855 -0.09103276 0.043713834 -0.040604837 -0.057261508 0.03750748 -0.00350691 -0.03527852 -0.01146108 -0.009213269 -0.04119809 0.03299727 0.010972677 -0.009970501 -0.012160477 -0.072045535 -0.010504053 -0.042991053 0.053364687 -0.04605511 -0.041470606 -0.17021969 -0.089568585 -0.07747045 0.07568515 -0.006566509 -0.037297305 -0.033678453 -0.064966775 -0.045154367 -0.017424827 -0.016829759 -0.033991333 0.054405052 0.06839392 -0.036800146 -0.047024596 0.08752974 -0.05238243 0.04472343 -0.04399025 -0.019135753 0.0071685873 -0.13817587 0.0116155185 -0.004136595 -0.045372434 0.006106828 0.012773235 -0.07300199 -0.0147085935 0.022244927 0.021304648 0.05482922 0.016291479 0.031447284 0.017241687 -0.017911378 -0.08730104 -0.03267538 0.123973906 0.034569 -0.13999948 -0.09726012 0.00031308827 0.05539966 0.0227782 -0.13165528 -0.079191096 0.0072212573 0.04082489 0.06291155 -0.08198983 0.021344349 -0.06222945 0.0097268745 -0.010821489 -0.04016284 0.07761174 0.03970613 0.068022445 0.022815974 -0.08518496 -0.036874034 0.034168992 0.0026135065 0.017492296 0.07573506 0.032465156 -0.016820896 -0.13213047 0.05422921 0.0029313848 0.09768349 0.004332396 0.084270336 0.047968544 -0.037898127 0.09442945 0.10477263 0.012458099 -0.039361857 0.05026572 -0.051244177
perempuan 0.023254089 0.08514515 0.026476447 0.042296443 -0.018002156 -0.0780351 0.0632721 0.1891663 -0.0025344773 -0.0015047691 -0.010789898 -0.06351478 0.004194968 -0.008127166 -0.068589605 -0.02491573 0.074542165 0.05259824 -0.024794504 -0.027315345 -0.030793834 0.0031776107 0.04193053 0.004113936 0.03535853 0.005213773 -0.0996511 -0.014828074 -0.006008392 -0.088545024 0.037138805 -0.046908833 0.04945833 0.009591767 -0.010568509 0.032978676 0.048140354 -0.0907721 0.0066818437 0.0093130795 -0.045218825 0.028324861 0.026369467 -0.053975757 0.07685663 0.05806979 0.04884432 0.033048432 0.025758581 0.027250871 0.020611329 0.014604397 -0.026897684 0.05152893 -0.054908648 0.0936903 0.014914325 -0.013396919 0.003001271 0.003312045 -0.030765941 -0.025992919 0.0049496125 0.016462559 -0.01401771 0.044482026 -0.0057850843 -0.0044160304 -0.06184889 -0.056146048 -0.00021887878 0.0037882703 0.07322623 -0.053153627 -0.025802549 0.035864122 -0.05462989 0.033473127 -0.009874133 0.060019504 -0.035432465 -0.060930718 0.014896366 0.14943388 0.04225042 0.0040027737 -0.042871438 0.018067546 0.080729775 0.044122517 0.1253567 -0.047727942 0.0042377347 -0.00016519654 0.05683864 0.062286675 0.050422344 -0.020358674 -0.0095835 0.05812403 -0.028145855 0.01292374 0.082989894 0.035567235 0.029570347 -0.07098324 -0.0027692497 0.006475466 -0.062353432 0.035300188 -0.09777856 0.027508534 0.0029629718 0.055858906 0.04928625 0.040771846 -0.009280511 0.021399532 0.093623415 -0.11164227 0.03620111 0.0458243 0.03351587 -0.023441553 -0.08719697 0.04550809 0.008686522 -0.053864464 -0.010750659 0.06391062 0.057009608 0.098362155 -0.011411593 -0.071435645 0.01751778 0.0683498 -0.03851064 -0.048759617 -0.08242894 -0.117442876 0.042317178 -0.06545122 0.02415881 0.03201925 -0.0022943362 -0.07758571 -0.091462485 -0.026138017 0.030399542 -0.08512359 0.023244133 -0.15511009 -0.028472027 -0.012993626 0.033125892 0.034729213 -0.056492604 -0.010305184 0.010944123 0.08850485 0.029972902 0.03970024 -0.13353743 0.056846797 -0.03775136 0.03228249 0.027872134 -0.029136725 -0.000910362 0.09045445 -0.058456514 -0.020461192 0.009661164 0.050864585 0.015065569 0.018833611 -0.009269248 -0.08562764 0.018026683 0.00879031 -0.02848893 0.08301298 -0.039168946 -0.02790744 0.0060199914 0.02309165 0.06729795 0.07381155 0.03118422 -0.08726569 0.0028353133 -0.010410791 -0.08193012 -0.009405359 0.046757597 -0.0782408 0.014645387 -0.08327625 0.039490297 -0.03973693 -0.055842217 0.036594648 -0.008831889 -0.028562637 -0.0059089335 -0.0064903237 -0.033833638 0.031044215 0.0068166424 -0.00555021 -0.01114127 -0.0657791 -0.00791864 -0.042007256 0.045407202 -0.046084575 -0.040105868 -0.16119969 -0.08783131 -0.07579353 0.07220775 -0.0079094 -0.033428565 -0.030733272 -0.062069938 -0.048642736 -0.01687078 -0.015514559 -0.034518745 0.054995317 0.06284671 -0.03339628 -0.040639423 0.0880931 -0.050012622 0.047697518 -0.047715552 -0.018419463 0.009751681 -0.13364692 0.010812663 -0.006554182 -0.046100825 0.008640785 0.011807148 -0.06768523 -0.010749771 0.018999984 0.023071647 0.051488567 0.015586912 0.03029366 0.014111921 -0.018687861 -0.081636466 -0.031842995 0.11592272 0.028522184 -0.137549 -0.094159134 0.0014698798 0.050782636 0.021930736 -0.1295411 -0.07883541 0.005739823 0.039531015 0.061905954 -0.08243226 0.018647606 -0.05830597 0.0063323327 -0.008597514 -0.036471594 0.07011746 0.035048436 0.06533886 0.02233801 -0.08110328 -0.033715628 0.03387299 0.005455984 0.015514304 0.07255184 0.031192603 -0.018140161 -0.12458901 0.051872406 0.005916914 0.09093746 0.005562425 0.080088645 0.04672849 -0.036240645 0.089104444 0.094460696 0.010379337 -0.037256826 0.049606282 -0.05097366
mengungkap 0.02741416 0.09400954 0.026653111 0.048833705 -0.012942808 -0.08059019 0.06684655 0.19863743 0.0010547068 0.0031577314 -0.010371661 -0.07278888 0.0047286823 -0.00825491 -0.07417506 -0.03061864 0.08184424 0.050696895 -0.025019785 -0.024993151 -0.032025777 0.0068517267 0.048147447 0.0037578812 0.039114702 0.005787776 -0.11185691 -0.01279279 -0.009007521 -0.093091466 0.0389627 -0.0559607 0.050286423 0.0066895727 -0.016104832 0.034333173 0.047675442 -0.090778016 0.007284175 0.0070860935 -0.050075524 0.030869214 0.021735394 -0.05782958 0.077687636 0.065833256 0.046945546 0.03589323 0.025485186 0.03222185 0.019367503 0.008909399 -0.028069474 0.05262203 -0.059254333 0.09822098 0.015718034 -0.017409964 7.887066e-05 0.0030039672 -0.038508203 -0.030720642 0.006905663 0.016222918 -0.016132664 0.04690004 -0.006515796 -0.0012879749 -0.06600122 -0.06454685 0.0021970563 0.00808843 0.07888149 -0.060352743 -0.03015859 0.034342702 -0.063102394 0.032524582 -0.011205962 0.061277017 -0.043176915 -0.06720797 0.020150082 0.15863529 0.046043213 0.00055456394 -0.046149857 0.017950628 0.08671593 0.04533738 0.13466422 -0.047805697 0.00552069 -0.0035973133 0.060268532 0.072017804 0.052498315 -0.017701142 -0.015307247 0.0648184 -0.030910086 0.011159519 0.085462876 0.040794063 0.029882576 -0.074667454 0.0010967017 0.0032588171 -0.066888705 0.038536634 -0.10380838 0.026057318 0.005666851 0.06276107 0.05326353 0.045187514 -0.009402694 0.019375842 0.10369533 -0.11825196 0.043770622 0.04936972 0.0404175 -0.019444142 -0.09147535 0.04610375 0.012027168 -0.05596427 -0.011241356 0.067422226 0.06367339 0.10735571 -0.0055478485 -0.07722348 0.016986307 0.071450554 -0.042627696 -0.052146055 -0.09098842 -0.12330701 0.042961903 -0.06517736 0.025105055 0.0325056 0.00045552387 -0.078454256 -0.0997304 -0.0275819 0.033663742 -0.08661104 0.022404408 -0.16525872 -0.029919287 -0.013766512 0.035837915 0.03746517 -0.05884384 -0.009508466 0.013065393 0.097684845 0.031594247 0.041355696 -0.14517178 0.060405858 -0.04630077 0.03033817 0.02366529 -0.029794402 0.0049293144 0.10191744 -0.058870055 -0.022094548 0.014948087 0.057523362 0.01576843 0.018072052 -0.0070900624 -0.093893796 0.01636441 0.008400272 -0.033304464 0.08406562 -0.044468507 -0.028964972 0.005749494 0.022500375 0.0721577 0.07559991 0.033608783 -0.09662667 0.004598417 -0.008757423 -0.092683226 -0.010526434 0.049034245 -0.0818631 0.016733719 -0.096416906 0.046637326 -0.04153082 -0.058770288 0.03734656 -0.0069392794 -0.034481913 -0.0053275307 -0.008235871 -0.04127373 0.032441866 0.007422476 -0.008851243 -0.01140966 -0.07458565 -0.008516936 -0.042201262 0.053293113 -0.05131337 -0.042814035 -0.17366828 -0.09736235 -0.08112809 0.07356936 -0.0070453165 -0.04044243 -0.030459013 -0.059764203 -0.04671453 -0.01686246 -0.01488142 -0.036414362 0.055038545 0.064166844 -0.035005696 -0.047584526 0.09131359 -0.050239574 0.047930565 -0.047178466 -0.023390995 0.012174676 -0.14136311 0.0056747105 -0.0071392097 -0.045797493 0.0102930125 0.013027798 -0.070953324 -0.017072652 0.026119053 0.021006078 0.053811494 0.016807852 0.031998668 0.013416057 -0.018864088 -0.08759367 -0.038515422 0.12710026 0.03402853 -0.14147559 -0.096972734 0.0018892979 0.05404033 0.025656292 -0.13441606 -0.081344634 0.0053182654 0.038982704 0.067329355 -0.088466145 0.021160522 -0.062515415 0.011862474 -0.0110296765 -0.04048822 0.07381825 0.03880406 0.068197936 0.024089226 -0.086057276 -0.037439596 0.03306162 0.0029018954 0.014762229 0.07589369 0.03302587 -0.014371211 -0.13291791 0.05424562 0.0074780374 0.09778906 0.0028833228 0.0907413 0.051985882 -0.033238675 0.09915764 0.10605562 0.011317329 -0.043590326 0.049335904 -0.055204906
pimpinan 0.024035156 0.08322688 0.02485485 0.045804083 -0.0154750915 -0.07283839 0.06052027 0.18138163 0.00044535697 0.0031952448 -0.011246159 -0.06522633 0.004907716 -0.011867612 -0.065842316 -0.028702192 0.07162811 0.045384705 -0.018419266 -0.026905103 -0.022933431 0.00053036166 0.041845523 0.0025320516 0.035413902 0.007909293 -0.098465346 -0.01191908 -0.008428021 -0.08668758 0.034716323 -0.047874447 0.049291577 0.0049537094 -0.011007163 0.030404907 0.045810074 -0.08254873 0.0014022692 0.010888378 -0.043969903 0.025544623 0.022743488 -0.049521543 0.068718895 0.055372212 0.047398485 0.032220986 0.02274915 0.028361632 0.01661239 0.01144776 -0.026108779 0.052981924 -0.05680591 0.088286676 0.013265419 -0.018616859 -0.003013726 0.0033834972 -0.030300437 -0.026307808 0.0070568444 0.015464876 -0.015184194 0.04200725 -0.004970386 0.0011258764 -0.058916416 -0.05966131 0.0010376031 0.0047546765 0.0710984 -0.052126024 -0.022586381 0.034593083 -0.05528237 0.033718474 -0.008901438 0.055933323 -0.039055973 -0.06087828 0.014673918 0.14325184 0.03577306 0.0008440424 -0.03903765 0.016476553 0.077580795 0.039335635 0.12101694 -0.042297304 0.005447572 0.00010193835 0.056571182 0.06457376 0.042715132 -0.01749688 -0.0143587245 0.057646904 -0.031515203 0.007476498 0.08312984 0.03600819 0.028786814 -0.0708018 -0.0040217717 0.0009224275 -0.05799107 0.031946577 -0.090319335 0.022725623 0.0060957386 0.054791827 0.051111463 0.03696635 -0.010931867 0.017665068 0.09473505 -0.104306705 0.03681688 0.045382336 0.035636336 -0.022454428 -0.08098213 0.04404706 0.009375957 -0.04751841 -0.010884994 0.062229622 0.053662214 0.097959064 -0.006974098 -0.06772774 0.015680468 0.066997305 -0.039144717 -0.048545912 -0.08009808 -0.110265926 0.04195201 -0.06407388 0.024271887 0.031946965 0.002009462 -0.07077719 -0.08930272 -0.02129301 0.029779984 -0.084284976 0.026242306 -0.14554001 -0.021363687 -0.013453682 0.02828971 0.037052415 -0.054592405 -0.0054211854 0.015032524 0.08757737 0.029059 0.04005329 -0.13086411 0.05380552 -0.03611554 0.026886113 0.02298305 -0.025957067 0.0032839344 0.09207214 -0.055314552 -0.015767599 0.009728882 0.051638257 0.016912121 0.02047111 -0.0072572995 -0.085613824 0.019699965 0.010119686 -0.028145483 0.076671526 -0.037743486 -0.029992985 0.0062638572 0.02291441 0.0610662 0.066085584 0.034444317 -0.08218283 0.00778486 -0.009130598 -0.08529605 -0.010194909 0.04620618 -0.07541113 0.014983906 -0.08311809 0.03880981 -0.043105967 -0.050013643 0.033639025 -0.008056485 -0.030689282 -0.0070414096 -0.008993999 -0.03689333 0.032717396 0.012887038 -0.010671777 -0.005750666 -0.063697904 -0.011745428 -0.040819433 0.04874835 -0.04098959 -0.04160138 -0.15570983 -0.08354094 -0.07357872 0.064674504 -0.0065452745 -0.033199254 -0.02998766 -0.05500483 -0.04408668 -0.014120477 -0.013785522 -0.03311093 0.0529887 0.05975155 -0.036610838 -0.03668274 0.08091285 -0.045725014 0.042516757 -0.04548674 -0.021402262 0.0111129135 -0.12943032 0.007995274 -0.00866966 -0.04524452 0.005895322 0.014807542 -0.06701998 -0.010928655 0.020183546 0.019367184 0.052697346 0.013058526 0.026106274 0.013932159 -0.015713336 -0.07416196 -0.034116603 0.113285914 0.03049492 -0.13135527 -0.085393265 -0.0014555885 0.05148054 0.023156712 -0.121744566 -0.07455535 0.0063478034 0.039070092 0.06367276 -0.080348834 0.01918897 -0.055174254 0.007478591 -0.0048077116 -0.036570646 0.067598306 0.035071786 0.05881948 0.020408452 -0.078971714 -0.036954183 0.035393175 0.0014147647 0.013969108 0.06975998 0.033775404 -0.014542866 -0.118602306 0.046920683 0.004972912 0.090116106 0.0006889263 0.079574354 0.04768429 -0.03301134 0.088759296 0.09562798 0.012100852 -0.036026355 0.04932921 -0.052121896
ditangani 0.023669213 0.07343453 0.020698953 0.039292052 -0.014431839 -0.06773364 0.053601556 0.16584185 -0.00345099 -0.0016264577 -0.010999317 -0.05382539 0.0006227457 -0.0041762274 -0.058962002 -0.022166988 0.06414586 0.041354228 -0.01770129 -0.020469528 -0.026563188 0.0024182897 0.03984025 0.0034834777 0.03523948 0.0050245007 -0.08584733 -0.012364071 -0.0065449835 -0.07191511 0.03132066 -0.04626937 0.04236191 0.0035242217 -0.011321232 0.0318381 0.036608297 -0.07416649 0.0056810137 0.005840237 -0.04180883 0.024679547 0.01952641 -0.04416479 0.06784998 0.053160783 0.039168816 0.029804222 0.017889224 0.024154896 0.015773939 0.013069336 -0.026180984 0.042214096 -0.048943512 0.08005995 0.0077295164 -0.016727986 0.00028566495 -0.0005953917 -0.03241411 -0.023973426 0.0037419498 0.016263587 -0.011576321 0.039182663 -0.002286475 -0.0020467746 -0.05244039 -0.051308453 0.0029568658 0.0052223057 0.059265684 -0.04636992 -0.01964275 0.028397974 -0.050473515 0.026691748 -0.0057298993 0.051639725 -0.030244261 -0.05686243 0.017659334 0.1252147 0.03834647 0.0032795246 -0.03547495 0.01296482 0.070796706 0.038612336 0.10709083 -0.042399015 0.0059591215 -0.002276737 0.04497679 0.05794855 0.039472625 -0.01827812 -0.0069810334 0.053272698 -0.027943362 0.0077252593 0.07059596 0.030400092 0.023524167 -0.064299405 -0.0032730056 0.0075358003 -0.05298487 0.028913684 -0.08202962 0.019103302 0.0049908296 0.05107064 0.046203494 0.032155696 -0.011147773 0.018173238 0.08257757 -0.0942404 0.036604244 0.04163309 0.029327566 -0.016402226 -0.07643876 0.037381776 0.012377468 -0.049069487 -0.010070267 0.053373486 0.045835644 0.08576159 -0.0052811643 -0.062092483 0.012730784 0.059818022 -0.036533576 -0.04501148 -0.07196675 -0.099262394 0.040059917 -0.05554132 0.021799631 0.025042316 0.00078823377 -0.06310331 -0.07912767 -0.021751529 0.02748675 -0.073351465 0.018298248 -0.13645698 -0.02192889 -0.011938816 0.031762667 0.031541128 -0.044935666 -0.007163446 0.015304713 0.073884375 0.025373945 0.03542046 -0.11680006 0.04801606 -0.03745107 0.029732745 0.020218544 -0.021836642 -0.0006231085 0.082044326 -0.045333646 -0.015799781 0.012639454 0.045170818 0.015349374 0.020752426 -0.0053026853 -0.07690847 0.012049493 0.009682296 -0.027905772 0.07069188 -0.034422476 -0.022016011 0.009815525 0.020096134 0.05805518 0.063574806 0.02882698 -0.07499885 0.004410822 -0.009359435 -0.072003014 -0.008058246 0.04001647 -0.06230427 0.012779728 -0.07672604 0.03497061 -0.034375288 -0.04385174 0.030605834 -0.003062307 -0.027208287 -0.009807749 -0.008124862 -0.03249133 0.02576106 0.008294632 -0.009531604 -0.006129678 -0.056506135 -0.008892764 -0.0352004 0.041775335 -0.039880313 -0.039126795 -0.13781787 -0.07552338 -0.061159313 0.06255972 -0.0049441746 -0.030318534 -0.027716435 -0.05150285 -0.041710854 -0.011504321 -0.011649039 -0.03151797 0.045560207 0.05565248 -0.029339802 -0.03588738 0.07196219 -0.0395352 0.036943875 -0.04066218 -0.019161293 0.006439557 -0.11780766 0.003638685 -0.004489524 -0.04067749 0.006257375 0.012620783 -0.05676757 -0.0105331605 0.017860297 0.02140365 0.045095284 0.014596011 0.028985118 0.009228393 -0.019840544 -0.0670963 -0.028397879 0.100233294 0.027480533 -0.11856372 -0.08158556 -0.0016655835 0.04852427 0.018571611 -0.11444685 -0.0679632 0.0068589454 0.031933572 0.052528914 -0.0697652 0.014996367 -0.052386157 0.006798681 -0.0057120123 -0.031117756 0.06065216 0.034656525 0.056376833 0.0153607875 -0.07272951 -0.029280957 0.026567578 0.0031525411 0.011172857 0.06412226 0.026134064 -0.016324164 -0.10740935 0.041730154 0.0070723095 0.08221961 0.002413791 0.07251302 0.04305344 -0.029197004 0.07768675 0.08423045 0.008697181 -0.030516759 0.040173493 -0.048640896
istri 0.026908701 0.08877928 0.022877125 0.04390444 -0.015935162 -0.07255979 0.06303246 0.18585646 0.0007669064 0.003802923 -0.009766531 -0.067145705 0.0057516517 -0.008996355 -0.06718348 -0.024248425 0.07287191 0.052703008 -0.021708677 -0.025197934 -0.028287405 0.00024555234 0.040870566 0.0038212596 0.03464131 0.008194654 -0.099698 -0.014307182 -0.008004414 -0.087355584 0.030853948 -0.049518004 0.051911227 0.005541205 -0.0142848985 0.03758316 0.047907706 -0.08355953 0.0007598984 0.009957305 -0.046336524 0.031460844 0.025206715 -0.05261764 0.0764127 0.057421442 0.047743533 0.034736153 0.024722027 0.030402627 0.018066393 0.012550024 -0.029475134 0.04805607 -0.055609114 0.08700978 0.011810357 -0.015641995 0.0034834272 -0.00183185 -0.03420646 -0.027288325 0.003195489 0.015679969 -0.012138801 0.04244573 -0.0032618036 0.0022504006 -0.060820874 -0.05995184 0.0033053595 0.0061780997 0.07111681 -0.050121438 -0.023566885 0.03595458 -0.054548208 0.030613195 -0.007266438 0.06118749 -0.040269792 -0.063620225 0.015962806 0.14380896 0.041283604 3.607283e-05 -0.041940436 0.01819777 0.07861535 0.04241668 0.121152416 -0.04350488 0.0061226594 0.0014022345 0.057288278 0.06542606 0.04907785 -0.014863919 -0.0122965835 0.060357098 -0.03028902 0.007600135 0.083902806 0.034580685 0.028301526 -0.071817905 0.0021934288 0.005269023 -0.06283446 0.033423964 -0.095501766 0.02437915 0.000686501 0.054024167 0.05205696 0.04089203 -0.011082658 0.021036964 0.0954581 -0.109300435 0.035317983 0.048354607 0.037869483 -0.02299304 -0.084307335 0.047970507 0.009740656 -0.05340339 -0.013874248 0.06274733 0.05494062 0.09893362 -0.0049314685 -0.07191302 0.0139927585 0.06626266 -0.04314539 -0.051460758 -0.08554989 -0.113400094 0.041753843 -0.06307072 0.021318255 0.03529129 0.0023439128 -0.076225296 -0.08749626 -0.026958015 0.030220184 -0.081834026 0.023791263 -0.15460692 -0.02573075 -0.012033034 0.028695736 0.0345811 -0.056612536 -0.008196663 0.013708675 0.08529113 0.029887095 0.04099854 -0.13288689 0.056596987 -0.041642174 0.032811712 0.02189274 -0.026989369 -0.0010394106 0.09247157 -0.05784112 -0.014411287 0.013585822 0.049226828 0.016505614 0.021861248 -0.008720896 -0.085458264 0.014821573 0.010401754 -0.02891449 0.07985292 -0.04200829 -0.029318497 0.008184554 0.022825602 0.0683625 0.06918563 0.028643668 -0.09072211 0.0038915873 -0.008956979 -0.0842397 -0.009204715 0.04968034 -0.07412565 0.020268591 -0.08453486 0.038408205 -0.04185972 -0.05595552 0.034694087 -0.006688368 -0.028995136 -0.008190995 -0.005251865 -0.037229203 0.02905523 0.0115319425 -0.008045189 -0.009478979 -0.06881332 -0.011985381 -0.039958 0.044489633 -0.0484756 -0.045330558 -0.15516731 -0.086349905 -0.069882035 0.072465986 -0.009321138 -0.035059992 -0.027450375 -0.056007814 -0.046335135 -0.011887063 -0.019180536 -0.03173783 0.054196168 0.061501674 -0.03237718 -0.038722027 0.08538481 -0.046537798 0.045560848 -0.044593696 -0.016483895 0.011582967 -0.13406208 0.009106497 -0.0054529887 -0.043475803 0.0065042735 0.010682162 -0.066475265 -0.011134344 0.018585583 0.022834219 0.05048848 0.016367797 0.03030902 0.017089032 -0.020559665 -0.081605 -0.032523964 0.11403334 0.031698342 -0.13571577 -0.089626014 0.0014994878 0.05223339 0.02304642 -0.12837394 -0.07681376 0.00188053 0.03834698 0.06412169 -0.081403404 0.020712413 -0.0568702 0.006096718 -0.008789254 -0.034751244 0.06827626 0.03908294 0.06410164 0.023320295 -0.07830374 -0.034417145 0.03285856 0.00076029706 0.018959312 0.06692199 0.030576432 -0.0173263 -0.11975118 0.046003185 0.0068388465 0.09077959 0.0012110277 0.07836606 0.044183124 -0.031778846 0.08706229 0.09826947 0.007948986 -0.04109069 0.045626458 -0.048831232
curanmor 0.021221746 0.07604415 0.018848566 0.035225533 -0.014515229 -0.06470283 0.04962714 0.15848064 -0.0041164393 0.0010198565 -0.007168239 -0.05859402 0.0018075836 -0.0073267696 -0.05684491 -0.025503784 0.06647409 0.040049143 -0.016818237 -0.019194998 -0.022136824 0.0049485345 0.041361246 0.0028264788 0.029855464 0.007941052 -0.09050217 -0.012331967 -0.0038760274 -0.07729198 0.027286448 -0.044535816 0.04323048 0.008355159 -0.0103048785 0.031699933 0.037555326 -0.07424698 0.0012157374 0.0065750475 -0.040633522 0.025528466 0.02153145 -0.043702003 0.062482506 0.052685075 0.042467125 0.026419666 0.018884202 0.024433266 0.014561609 0.012737711 -0.021348218 0.047144614 -0.046014145 0.075551145 0.010189878 -0.016962888 -0.00077751366 -0.0025721472 -0.027924348 -0.022338908 0.0022687397 0.016455883 -0.0115032075 0.038213495 -0.003899546 -0.0023140162 -0.053582456 -0.04872044 0.0016848624 0.0033602961 0.063497685 -0.046083782 -0.023845036 0.032559533 -0.049735863 0.029768713 -0.0100023905 0.049254067 -0.034661237 -0.05485948 0.014084363 0.12678729 0.036784984 0.0046723266 -0.036611386 0.01602492 0.06692026 0.03647704 0.10728188 -0.039595433 0.0019621898 -0.0016486591 0.047592495 0.057080723 0.03740769 -0.0135204345 -0.010822675 0.05228478 -0.028532851 0.007565559 0.069697455 0.028256604 0.025471114 -0.06439262 -0.0022709297 0.00125163 -0.051321223 0.02923502 -0.084965326 0.023237031 -0.0005503029 0.047605813 0.04631929 0.032001376 -0.012967101 0.01423365 0.0852842 -0.091483645 0.034156363 0.04055686 0.03261526 -0.01937696 -0.071557485 0.041576847 0.011593417 -0.042395547 -0.012212109 0.05373773 0.05157757 0.085207224 -0.009322801 -0.060580708 0.014402511 0.056260146 -0.035870016 -0.039217625 -0.071878076 -0.09703871 0.035472255 -0.052143235 0.016862761 0.025224678 -0.0018966092 -0.06675305 -0.08025518 -0.020468231 0.027469687 -0.07135562 0.022295948 -0.13368776 -0.021664672 -0.010622941 0.030966287 0.03432852 -0.04736926 -0.007655635 0.0101818945 0.07536913 0.021788541 0.035437256 -0.11828772 0.04638993 -0.034874536 0.027024666 0.018007617 -0.021895953 0.0032459015 0.0816223 -0.04884166 -0.012163179 0.013486258 0.0449533 0.012831904 0.013873442 -0.0065562064 -0.075580664 0.016579071 0.0062356116 -0.029688 0.071511105 -0.036035456 -0.022160122 0.008733087 0.01708433 0.057517506 0.0636518 0.02596231 -0.07860507 0.007158362 -0.007773784 -0.06988456 -0.0100935735 0.040214915 -0.06225755 0.015491336 -0.07539815 0.03308437 -0.03738038 -0.048658453 0.035522398 -0.0056975815 -0.029420564 -0.004002656 -0.008437126 -0.032026894 0.026711939 0.009750616 -0.009093435 -0.008127812 -0.05993735 -0.005446067 -0.03337753 0.04208541 -0.0413194 -0.03531225 -0.13694243 -0.07860934 -0.06493624 0.058706176 -0.005118668 -0.034376916 -0.02672288 -0.047930595 -0.04046936 -0.0108770495 -0.01431248 -0.031788554 0.043263804 0.053492945 -0.02837699 -0.037978213 0.07237027 -0.04470034 0.041534353 -0.039208956 -0.015738234 0.008226071 -0.118106045 0.0064527905 -0.0046146936 -0.037892077 0.004333821 0.00818162 -0.059390705 -0.010238942 0.017137438 0.01797134 0.04586772 0.014038245 0.026310336 0.011452511 -0.016349789 -0.071596384 -0.031258047 0.10308409 0.024001252 -0.11937797 -0.07702703 0.0044018477 0.045433216 0.019984039 -0.11185717 -0.066880144 0.0016945571 0.029626086 0.051217616 -0.071039565 0.018483156 -0.047494475 0.00666969 -0.0070461133 -0.028825698 0.06161546 0.031566814 0.05491016 0.018927513 -0.070952 -0.03285392 0.032641705 0.0052414876 0.01123451 0.058483068 0.02779641 -0.013682977 -0.10888844 0.044915352 0.0031120488 0.07994053 0.005416048 0.07128303 0.042470943 -0.029756129 0.07571745 0.08409838 0.0073623075 -0.03649377 0.043529097 -0.04733506
membacok 0.025046822 0.07963265 0.021302164 0.03916504 -0.011725438 -0.07302245 0.059064586 0.17697364 0.0019483847 0.0035389215 -0.0073401434 -0.05841944 0.0012512829 -0.01160473 -0.06577336 -0.025332438 0.072185144 0.048320852 -0.020950677 -0.023066256 -0.02731691 0.0010427784 0.04413606 -0.0014430296 0.035749283 0.004992982 -0.09349704 -0.012355441 -0.0054136068 -0.083937004 0.035389867 -0.049149662 0.04764329 0.00853317 -0.008951661 0.030765032 0.04085088 -0.085072204 0.005993962 0.006483543 -0.039945494 0.027869076 0.024443323 -0.051549267 0.07037603 0.0570152 0.040618222 0.03425435 0.02111885 0.028946314 0.017609417 0.012529584 -0.025423812 0.051410086 -0.05689862 0.089297585 0.014058957 -0.015456123 0.0021422475 0.0018001879 -0.03039759 -0.02557549 0.006077385 0.015580975 -0.011251518 0.044773567 -0.005763278 -0.0009943658 -0.060759865 -0.05677311 -0.0019617034 0.0070435037 0.06731172 -0.051174175 -0.022995902 0.029826563 -0.05256626 0.028841294 -0.01064832 0.054373913 -0.03921386 -0.055900328 0.013492452 0.14140387 0.03690878 0.0024055492 -0.038339015 0.0129561145 0.07216927 0.037266724 0.11496386 -0.043986637 0.0029855238 -0.00019840925 0.05216011 0.05951871 0.04327206 -0.018058868 -0.01324467 0.056117963 -0.030889383 0.006970487 0.075685255 0.031904373 0.029220259 -0.07054477 -0.0019422898 0.0068511753 -0.05723761 0.030367121 -0.08794592 0.020652816 0.0025908751 0.05480562 0.048753433 0.04083626 -0.011371808 0.019648114 0.093234286 -0.10649413 0.03403378 0.04095 0.033435855 -0.022412123 -0.08215758 0.04018849 0.011319822 -0.050047126 -0.00837837 0.05557208 0.052454814 0.09559207 -0.0046788123 -0.06625688 0.01698799 0.060425412 -0.038210195 -0.04861104 -0.08132372 -0.1073761 0.04082649 -0.058616 0.017639117 0.031524535 -1.4366119e-05 -0.0722491 -0.08636956 -0.020431574 0.027403034 -0.079073064 0.023983886 -0.1452102 -0.023325691 -0.009154968 0.033213343 0.035716686 -0.048643522 -0.011300497 0.016020384 0.08531803 0.024618011 0.03761932 -0.12510036 0.05436557 -0.04183371 0.029432015 0.023246715 -0.024214294 0.0042381296 0.08551951 -0.04940902 -0.020016212 0.0136012025 0.052785505 0.012593575 0.015660942 -0.0033176462 -0.085932694 0.013743898 0.0064776917 -0.031869136 0.079262294 -0.034197837 -0.026969492 0.010243891 0.024617722 0.06374984 0.06835237 0.032611858 -0.08168787 0.0063081128 -0.0068692123 -0.08276323 -0.004555036 0.047437202 -0.06785936 0.01411196 -0.083338305 0.038741242 -0.037885636 -0.053334653 0.035740636 -0.0035401052 -0.026273962 -0.008225543 -0.007644429 -0.032329313 0.028855741 0.010035047 -0.011673932 -0.008706871 -0.06307578 -0.007782183 -0.04272255 0.04422151 -0.042155035 -0.038935836 -0.15204234 -0.0819135 -0.0681064 0.06278014 -0.0032135418 -0.037233718 -0.02852599 -0.052118637 -0.042860642 -0.016537089 -0.015286689 -0.03407257 0.046981934 0.056141768 -0.031230066 -0.04239504 0.08244422 -0.048394747 0.04486783 -0.043496713 -0.02062314 0.011394862 -0.12993583 0.007962383 -0.0061751395 -0.045058865 0.0056083454 0.014002572 -0.064365596 -0.010666806 0.01658443 0.020030128 0.048073053 0.011832284 0.026981417 0.010474891 -0.019510278 -0.077544235 -0.032436877 0.108207844 0.024961049 -0.12556045 -0.08670159 0.0035281798 0.051100194 0.024186041 -0.122732475 -0.07494698 0.0058960826 0.03234734 0.061633073 -0.07301818 0.017116481 -0.053338706 0.010974716 -0.006201841 -0.032351296 0.070270516 0.037011612 0.056489963 0.017076125 -0.07709118 -0.034412794 0.035178155 -9.7064214e-05 0.01454423 0.069429584 0.02960357 -0.01828451 -0.11597589 0.04387588 0.0035735874 0.08385427 0.0028152887 0.08053541 0.046651572 -0.028932378 0.08978522 0.093701445 0.006534343 -0.033686448 0.041904237 -0.050795104
tertipu 0.022160932 0.068950176 0.01746163 0.031427093 -0.008441274 -0.05936775 0.045333724 0.14674823 0.0011059017 0.0022891664 -0.00904944 -0.046788916 0.006303038 -0.0041472614 -0.048681937 -0.022236759 0.057459254 0.03734788 -0.01432802 -0.016445812 -0.019755436 0.0041734455 0.03677124 0.003838166 0.029135646 0.002546628 -0.0788274 -0.0061398605 -0.0067406055 -0.06601549 0.027958233 -0.040722374 0.040255725 0.006660443 -0.008827544 0.02983622 0.034694817 -0.06722091 8.365101e-05 0.009822491 -0.037214562 0.025664225 0.019390969 -0.040211424 0.054351915 0.049997587 0.035230685 0.027323816 0.016676987 0.02048916 0.014759799 0.006110812 -0.023643032 0.035991397 -0.041869767 0.07029342 0.00896918 -0.010992453 -0.0003853449 -0.002141511 -0.024895066 -0.021967022 0.0043497696 0.015542565 -0.011182586 0.0359034 -0.00040552337 -0.0022215543 -0.048592545 -0.042676583 0.0016668017 0.0046984707 0.055472706 -0.043255597 -0.019465981 0.02557095 -0.04188067 0.022791356 -0.008255759 0.0473419 -0.032181233 -0.048572067 0.010004394 0.11408846 0.031992365 0.0029663716 -0.031742394 0.013216632 0.061432913 0.03208898 0.09833719 -0.03573018 0.0016891918 -0.0019318067 0.039271776 0.047885735 0.037351377 -0.012184286 -0.0108807795 0.04406663 -0.026452195 0.009814451 0.060522042 0.030034164 0.025161006 -0.05294051 -0.0028823386 0.004520766 -0.050514318 0.029267397 -0.07491675 0.018078716 0.0038814642 0.042866312 0.042030543 0.029098693 -0.0070775645 0.011180482 0.07609873 -0.08442906 0.027526116 0.035405938 0.027294002 -0.016279312 -0.06725245 0.0316069 0.0065984353 -0.042915218 -0.0111303795 0.046002112 0.046649493 0.07532573 -0.009061077 -0.055308502 0.014826958 0.04986988 -0.031827338 -0.03890213 -0.062055454 -0.090648584 0.030295443 -0.046720404 0.014790531 0.025880836 -0.00048063966 -0.053948656 -0.06896591 -0.01771994 0.024982652 -0.06374292 0.01929687 -0.11978729 -0.018715559 -0.007619277 0.028419195 0.027682934 -0.041970573 -0.004811188 0.007891568 0.0683142 0.019073436 0.033252627 -0.10673632 0.043833055 -0.02835676 0.022850672 0.016125387 -0.022451207 0.0024755837 0.06970013 -0.040764302 -0.014167345 0.012204881 0.040037207 0.008936088 0.013363955 -0.0044146706 -0.06917672 0.015572301 0.004418998 -0.026029242 0.062657915 -0.03163838 -0.02532893 0.004430672 0.016887551 0.050952893 0.055837482 0.027169473 -0.06593493 0.005465999 -0.007390844 -0.06719309 -0.0032423763 0.0361648 -0.056359887 0.0135193365 -0.06499121 0.03379486 -0.034481846 -0.042281687 0.028729644 -0.0036124778 -0.026964094 -0.004908895 -0.0054435963 -0.02845239 0.023018781 0.005178545 -0.0043104617 -0.010237215 -0.05522284 -0.006301521 -0.035040542 0.035880137 -0.03621499 -0.03338325 -0.12507023 -0.066792995 -0.055845086 0.05480061 -0.005685763 -0.026038786 -0.025509624 -0.043310083 -0.03699948 -0.011380525 -0.015310916 -0.027411684 0.03776881 0.046424907 -0.023258451 -0.031179674 0.0665916 -0.04004229 0.03688733 -0.03684646 -0.015962956 0.0053617256 -0.10566871 0.0071302857 -0.0053581554 -0.034072433 0.008078695 0.0071780947 -0.05186861 -0.010781297 0.012987128 0.012303333 0.04027543 0.012782137 0.02272674 0.009430565 -0.013751714 -0.061770156 -0.02909793 0.09203777 0.025796054 -0.1063678 -0.07075851 0.0034124746 0.039774764 0.017213983 -0.10034887 -0.056575347 0.0066031828 0.029613607 0.04685438 -0.062494654 0.012260536 -0.04816161 0.0089491615 -0.0066985553 -0.02810471 0.057513855 0.027025472 0.05045121 0.013699575 -0.06400621 -0.025837906 0.024820704 0.0012549722 0.010494836 0.052807402 0.02314102 -0.013892927 -0.09182167 0.040614046 0.004121774 0.069826014 0.00040800846 0.06605103 0.034936413 -0.02373288 0.07353942 0.07707348 0.006552771 -0.027244661 0.03897202 -0.041245185
simpatisan 0.02082713 0.07351154 0.023046605 0.036504604 -0.011237568 -0.064378776 0.046883725 0.15333252 -0.0025903103 0.0012772796 -0.010599947 -0.05364607 0.0061771628 -0.0037569941 -0.053020414 -0.02107537 0.060460407 0.041968822 -0.018526757 -0.024359819 -0.02070885 0.00013048835 0.038600028 0.0002870853 0.029275052 0.0055232625 -0.086295135 -0.006971961 -0.007754016 -0.07418716 0.030081784 -0.039853055 0.041991524 0.0074715987 -0.01173291 0.027218001 0.037332386 -0.0697187 0.0015664108 0.006096906 -0.035697162 0.026880218 0.017181993 -0.044642106 0.060625937 0.050623752 0.040182922 0.02902974 0.015920846 0.02613019 0.014668773 0.00847089 -0.025878282 0.040182717 -0.043869663 0.07634292 0.00722261 -0.012687709 -0.0018384526 -0.0026432227 -0.02627635 -0.020647308 0.0048173987 0.016233966 -0.009472814 0.034796026 -0.0015448311 -0.00030154447 -0.04970417 -0.046432726 -0.0015797912 0.0041407696 0.05963769 -0.042117357 -0.022310557 0.03119178 -0.04811947 0.023051439 -0.010714563 0.048317727 -0.02881153 -0.053271566 0.012280447 0.12484598 0.03097114 0.00324784 -0.032530952 0.011542224 0.06492214 0.033824258 0.105155595 -0.038834725 0.0010730489 0.0032462985 0.044010017 0.056889605 0.03619055 -0.012536805 -0.011083327 0.048137125 -0.026740102 0.0077905017 0.067913316 0.029848162 0.022261998 -0.06023981 -0.0016731 0.006385415 -0.050297905 0.028195513 -0.08091516 0.02190385 -0.00081204984 0.04669085 0.04473743 0.031992577 -0.011146562 0.012908575 0.07662643 -0.08788579 0.032650556 0.03770941 0.03287582 -0.019958004 -0.07149477 0.037215274 0.0071713375 -0.04660767 -0.0066351634 0.04987446 0.04409742 0.084383756 -0.009049271 -0.05835397 0.015223295 0.053294573 -0.03628986 -0.041552342 -0.07190613 -0.09402269 0.033932768 -0.052726883 0.019122386 0.026369043 0.0025205198 -0.05909669 -0.0758139 -0.019948632 0.026163097 -0.06708677 0.022868775 -0.12798771 -0.021999326 -0.011121922 0.027355228 0.02805125 -0.045319695 -0.010639877 0.011853037 0.073895395 0.024256041 0.03284478 -0.10933566 0.043397583 -0.030653529 0.025415955 0.021200454 -0.019732036 0.001707875 0.077579185 -0.045544233 -0.018017098 0.008984784 0.04221677 0.008728545 0.01761367 -0.003262485 -0.07326597 0.017006047 0.005538502 -0.02587716 0.06872989 -0.03491821 -0.026410159 0.009173319 0.016450308 0.057182454 0.060281627 0.024004849 -0.07057204 0.005812114 -0.010507202 -0.07304988 -0.009484858 0.040328477 -0.05987196 0.014135801 -0.07107836 0.031283867 -0.036041558 -0.043041255 0.027774816 -0.007735245 -0.025236728 -0.009661317 -0.00924967 -0.028781772 0.028292364 0.0058208387 -0.0044646477 -0.0049340962 -0.055082463 -0.009754187 -0.03104948 0.037329674 -0.039088547 -0.034248784 -0.13406847 -0.07665443 -0.05926308 0.060164664 -0.007371465 -0.031974062 -0.02272607 -0.048133787 -0.0406145 -0.010586501 -0.015078699 -0.027241943 0.044028003 0.054412324 -0.025392428 -0.031952944 0.068132006 -0.040232968 0.037266623 -0.03617712 -0.013199974 0.009948748 -0.11420037 0.010177262 -0.0048657125 -0.03736968 0.00885837 0.0076975115 -0.055053722 -0.010236461 0.019751765 0.018621715 0.04186808 0.009314162 0.02304524 0.014693279 -0.019211508 -0.06366873 -0.027565366 0.0956726 0.027794154 -0.10829417 -0.07278801 0.004460054 0.04051831 0.021154054 -0.10939078 -0.06541046 0.0013330331 0.031525485 0.054365948 -0.068355285 0.013918891 -0.049213096 0.0053758235 -0.0072469655 -0.02842377 0.06047103 0.03100195 0.05062925 0.01667066 -0.06787604 -0.028538465 0.03117301 0.0050581107 0.011107677 0.055937387 0.022955608 -0.015316513 -0.100611255 0.037994694 0.0052763405 0.078207724 0.0034499003 0.068573736 0.0425743 -0.02559319 0.07517113 0.07864401 0.0069637247 -0.029097654 0.041757286 -0.044158876
teraniaya 0.029488482 0.09059001 0.028375113 0.04409372 -0.0138167245 -0.078599386 0.060012862 0.19766767 -0.004337421 -0.0009966533 -0.010738845 -0.06454104 0.0037287234 -0.0067409547 -0.06847724 -0.02633164 0.075275764 0.05391953 -0.025070878 -0.028615227 -0.027300762 0.0009585658 0.049142934 0.0008916418 0.039201796 0.0049253707 -0.10859252 -0.013688359 -0.004251375 -0.08855528 0.032582436 -0.054633435 0.052049164 0.005329845 -0.010961712 0.038761042 0.043181438 -0.08849577 0.007166748 0.008066667 -0.04529196 0.029022511 0.026295228 -0.052006096 0.07889053 0.06027419 0.05000429 0.033472147 0.023261314 0.031980183 0.020339655 0.013805421 -0.0311339 0.054936934 -0.060741488 0.09502174 0.014761162 -0.015854344 0.0032321038 -0.00066011964 -0.033771824 -0.02473264 0.0044769035 0.018881232 -0.01786988 0.04918624 -0.0019953505 0.00037950388 -0.062206198 -0.06056792 -9.224812e-05 0.0043072347 0.07436307 -0.05597734 -0.028998272 0.033395544 -0.06107392 0.03570187 -0.007203949 0.06475872 -0.04155149 -0.06477001 0.014288573 0.15662673 0.04234741 0.006055683 -0.045482147 0.01689786 0.083016925 0.045191295 0.12847044 -0.04945966 0.0053405575 -0.003399344 0.059767272 0.07090255 0.048213523 -0.020898553 -0.014897103 0.06348109 -0.030813215 0.010740765 0.08409019 0.041122552 0.027900092 -0.07304318 0.0018410686 0.0051076347 -0.06925888 0.03820883 -0.10280818 0.023707578 0.006231421 0.05583364 0.052177183 0.039282903 -0.011002594 0.020633722 0.0986128 -0.11543375 0.042937346 0.051620472 0.041481916 -0.021615751 -0.08928817 0.04772073 0.012911605 -0.05353557 -0.010627359 0.06479906 0.05798399 0.101071775 -0.006063393 -0.07470684 0.019429749 0.06859011 -0.04364017 -0.052227315 -0.086110495 -0.121414095 0.042227514 -0.06788318 0.024657471 0.036250133 -0.0010298889 -0.07525732 -0.098353244 -0.026416268 0.030061746 -0.089726076 0.027555235 -0.16461223 -0.03025332 -0.01664438 0.037608214 0.037343547 -0.05619218 -0.012066444 0.0139412815 0.09293039 0.027889282 0.040545166 -0.1429689 0.05907558 -0.046059612 0.03222235 0.025173858 -0.02397174 0.0019107295 0.09951831 -0.06071898 -0.021291014 0.0146478675 0.054824553 0.013266901 0.019775817 -0.0027843942 -0.09495925 0.017062886 0.008043383 -0.03257614 0.087755926 -0.04158426 -0.032677714 0.005727608 0.019947136 0.06594391 0.07212539 0.03176131 -0.093302056 0.0046532955 -0.012125382 -0.088131875 -0.0073045255 0.052266985 -0.07989112 0.02070418 -0.08806152 0.04185175 -0.045639057 -0.05729891 0.036630724 -0.0041044718 -0.029485228 -0.00557834 -0.011875002 -0.03672215 0.034356065 0.012612012 -0.012030799 -0.00997861 -0.07380293 -0.013382225 -0.042533167 0.05402811 -0.04542686 -0.04643275 -0.16553314 -0.09421353 -0.07295546 0.0696564 -0.0036727772 -0.040652394 -0.032606877 -0.06045868 -0.047972336 -0.019164417 -0.018122833 -0.0359843 0.05228555 0.066981465 -0.034730904 -0.04065944 0.092100464 -0.053860106 0.04922409 -0.044484325 -0.01866519 0.01235211 -0.1422534 0.009968954 -0.0054606576 -0.047322456 0.0065436806 0.012826069 -0.067645155 -0.01690108 0.024713837 0.022538545 0.053989917 0.014305286 0.0313035 0.016849507 -0.018494338 -0.086792536 -0.03227901 0.12098279 0.02816321 -0.13781676 -0.09328885 0.0031903086 0.057987567 0.020583699 -0.13648725 -0.0803513 0.004039735 0.038614072 0.06522677 -0.08680467 0.019263238 -0.060584903 0.008242519 -0.006940613 -0.037661422 0.07652533 0.039791033 0.068660185 0.021657111 -0.08331596 -0.038878553 0.03725253 0.0041275034 0.017094307 0.07637665 0.030227926 -0.013442177 -0.1287181 0.049799718 0.004476902 0.09187996 0.0022410296 0.08698483 0.05217121 -0.0318699 0.09262971 0.10475072 0.006521907 -0.03864767 0.052516878 -0.055107478
penyidik 0.021262078 0.080089524 0.024841527 0.04298021 -0.017376756 -0.07193621 0.05894125 0.18272053 0.00043334134 0.002530682 -0.014648264 -0.060641855 0.005865222 -0.0108874785 -0.065803036 -0.02555556 0.07159978 0.047902245 -0.022786472 -0.02509827 -0.025179936 0.0030271742 0.043721564 0.0024650088 0.03502378 0.0043846434 -0.094706796 -0.0145396665 -0.00715968 -0.0835367 0.03000853 -0.047575094 0.050024446 0.0069898656 -0.009632042 0.033565454 0.04159897 -0.08520838 0.0038029365 0.01020616 -0.040215846 0.030378204 0.0202002 -0.052734736 0.074132465 0.059336115 0.046014793 0.03236485 0.025332915 0.02422929 0.02113368 0.008123882 -0.027164862 0.05168844 -0.058166545 0.089526795 0.008815334 -0.018534424 0.00120972 0.0011880192 -0.03388236 -0.022396041 0.002720612 0.015400364 -0.010703251 0.043558627 -0.005267438 0.00012713243 -0.06100834 -0.057102207 0.0020031857 0.0083803255 0.07162379 -0.05353473 -0.022622438 0.03156435 -0.051537383 0.028141188 -0.012436099 0.057015605 -0.03993024 -0.06117633 0.016493823 0.14246137 0.035931837 0.0007390255 -0.043097343 0.016138718 0.077404566 0.040666535 0.124871045 -0.044426043 0.0068632006 0.0015486042 0.05631489 0.06356859 0.045570694 -0.016917799 -0.014408481 0.06292004 -0.031338573 0.012695364 0.080513865 0.036510687 0.028232178 -0.07242121 -0.0004020603 0.005454471 -0.0644276 0.031999953 -0.09316119 0.022391593 0.003995035 0.054358706 0.05246546 0.036285743 -0.013301503 0.019764002 0.09516104 -0.10400809 0.03852324 0.042211693 0.037247863 -0.022870522 -0.08691254 0.046819095 0.010811185 -0.054391384 -0.011554761 0.06178784 0.053969298 0.09750665 -0.008213155 -0.06535834 0.017303659 0.06083882 -0.04070008 -0.043825448 -0.079692475 -0.11238069 0.0441591 -0.059286483 0.02398546 0.03171307 -0.0037966035 -0.07320744 -0.086415164 -0.025206042 0.033418007 -0.08424493 0.020384863 -0.15070917 -0.02277041 -0.014867103 0.034622315 0.031714644 -0.051031984 -0.0073405392 0.013879407 0.08905719 0.02903517 0.040270176 -0.12883617 0.055672433 -0.038432073 0.03252923 0.023705851 -0.028221315 4.2477877e-05 0.08916682 -0.056521006 -0.017589692 0.014626674 0.048694916 0.015990486 0.02049421 -0.0058555985 -0.08446517 0.01898657 0.004581878 -0.028595863 0.08111445 -0.038759436 -0.03023907 0.0047084633 0.018791294 0.06465017 0.06971468 0.03368938 -0.08618215 0.0050855805 -0.008003222 -0.08538907 -0.010883678 0.047095012 -0.07566787 0.016350476 -0.08563807 0.04180926 -0.04146065 -0.048246395 0.03672405 -0.0073439945 -0.031583473 -0.0071952567 -0.009995788 -0.03257351 0.03336632 0.011260087 -0.011006326 -0.010866041 -0.06643943 -0.009275179 -0.04245257 0.049495336 -0.041922558 -0.042238794 -0.15311266 -0.08362877 -0.06980609 0.06960642 -0.0072719045 -0.03778749 -0.028010342 -0.059658695 -0.04076127 -0.0182071 -0.016493652 -0.03474606 0.05151103 0.061309937 -0.036487505 -0.041606568 0.08310066 -0.04616827 0.045574147 -0.04341314 -0.019300647 0.006909034 -0.12823406 0.0047326228 -0.0044457032 -0.044861373 0.005823312 0.014702246 -0.06434078 -0.015740063 0.017273989 0.019859716 0.047549326 0.015280219 0.029633647 0.015084828 -0.020696579 -0.07540007 -0.03563274 0.11488248 0.028564347 -0.13093641 -0.086860694 0.00028304546 0.049528774 0.020955399 -0.1262372 -0.07347241 0.0036206478 0.037967928 0.05740997 -0.07854396 0.014020112 -0.060351763 0.007788889 -0.010629813 -0.03703024 0.06930969 0.037285753 0.06179754 0.023128334 -0.08121469 -0.03298068 0.030106533 0.005662746 0.018185765 0.0710964 0.027776374 -0.014261602 -0.12160034 0.046664342 0.0037493357 0.084929414 0.004456214 0.08109471 0.04484082 -0.034857772 0.089837424 0.09265756 0.005789896 -0.03836315 0.0452215 -0.047484867
penipuan 0.019023232 0.07643778 0.024087802 0.036640182 -0.013378143 -0.065609105 0.05342438 0.16133952 -0.0018575072 -0.0019796921 -0.0077325613 -0.059104685 0.0010067226 -0.0069145593 -0.056966383 -0.022683773 0.06396264 0.043787744 -0.01784422 -0.019693354 -0.025175205 0.00042400556 0.036018513 0.004424352 0.032906197 0.0040526506 -0.08514621 -0.0071919793 -0.003070744 -0.07636888 0.027439114 -0.043612976 0.039667215 0.008291475 -0.008878259 0.027867455 0.04099889 -0.0780479 0.0056707584 0.005436427 -0.037174597 0.024221446 0.021105533 -0.04227812 0.0635584 0.050466683 0.036760837 0.02983961 0.021308674 0.02664232 0.014599384 0.006629105 -0.021396473 0.042465027 -0.04770977 0.08139802 0.008679117 -0.013867089 -0.00079730985 -0.001971677 -0.031037353 -0.022362689 0.0020415895 0.013157051 -0.012754218 0.040597722 -0.0023475583 0.0007297063 -0.051215965 -0.052484903 -0.00057727116 0.008933151 0.064163774 -0.049473144 -0.021311866 0.032464128 -0.04508425 0.024246551 -0.009330619 0.05182331 -0.03221203 -0.054057736 0.013089976 0.12924534 0.03717751 0.002554331 -0.038102567 0.013106329 0.065686785 0.037771445 0.10794972 -0.03959938 0.00065008807 -0.00072205317 0.05015361 0.058761038 0.042408884 -0.016805679 -0.0066403984 0.05341867 -0.026761515 0.010933662 0.06880229 0.0338524 0.028699877 -0.06040319 0.0005748605 0.0054743127 -0.055129673 0.026930876 -0.081863254 0.021449743 -0.00011202383 0.048874408 0.047372945 0.031501547 -0.009060149 0.018905874 0.07954807 -0.09299534 0.030122148 0.03665737 0.033502758 -0.020575155 -0.075641744 0.036166463 0.00750504 -0.04806333 -0.009381066 0.053951893 0.045880124 0.08249483 -0.008660202 -0.060151342 0.013027317 0.05562056 -0.03393024 -0.040580794 -0.069152564 -0.09674258 0.036860444 -0.054311313 0.022263624 0.028847866 5.8529236e-06 -0.06384617 -0.081941955 -0.018762589 0.028754583 -0.07194833 0.023694523 -0.13479505 -0.021082973 -0.013556309 0.024765555 0.031999893 -0.045001756 -0.0059153656 0.009094786 0.07803702 0.025128877 0.03673952 -0.11634443 0.04969202 -0.032728937 0.02330536 0.017705232 -0.01985951 0.0011376468 0.07666529 -0.04936982 -0.015003848 0.013479539 0.044399314 0.01232644 0.0145282755 -0.007896698 -0.07517057 0.014819539 0.003618086 -0.02643211 0.06627346 -0.03452715 -0.023581635 0.0072756237 0.022057077 0.05872574 0.06058688 0.029520826 -0.07416634 0.0070609744 -0.005083151 -0.07116468 -0.0053384867 0.04314794 -0.06535446 0.013388901 -0.07168343 0.03598626 -0.037312746 -0.046238683 0.030642474 -0.0019070939 -0.025800776 -0.0054361247 -0.005062156 -0.02886045 0.025259817 0.0066412473 -0.008795299 -0.009316733 -0.062307946 -0.0085173035 -0.038757343 0.0450593 -0.040688932 -0.038616627 -0.14014366 -0.0775651 -0.06646683 0.05992164 -0.0043496424 -0.032718644 -0.022080986 -0.051238306 -0.041968133 -0.014475058 -0.015659777 -0.03222199 0.041535277 0.05207788 -0.030486116 -0.034065202 0.070951104 -0.044218674 0.03944019 -0.038924757 -0.015650235 0.008009791 -0.11389596 0.009687928 -0.00787787 -0.037710514 0.009192769 0.010532081 -0.054823205 -0.012884591 0.01661474 0.014835795 0.047805447 0.009301848 0.024293924 0.0122274235 -0.018420234 -0.06651663 -0.031211682 0.09710028 0.028662812 -0.11916296 -0.07534234 -0.00012648418 0.047688488 0.01906356 -0.112260744 -0.068055145 0.0023883025 0.034655455 0.05616062 -0.069276035 0.017424142 -0.049519308 0.008364779 -0.006013462 -0.03480556 0.064296044 0.030608097 0.052943062 0.01848309 -0.06781029 -0.034055807 0.029861616 0.0050696996 0.010783356 0.06379859 0.0254018 -0.010575059 -0.10843158 0.04426853 0.008109474 0.07513218 0.0024161944 0.06843658 0.04368461 -0.02573558 0.07675413 0.08409532 0.0073803933 -0.035699192 0.041469965 -0.048169967
korbanpelurunyasar 0.027043259 0.08640721 0.02808342 0.048703946 -0.01615954 -0.079441614 0.05919182 0.19576783 -0.0002602207 0.00428551 -0.010629788 -0.06804438 0.0059166495 -0.005843743 -0.06616161 -0.024568645 0.07369248 0.048757076 -0.019390656 -0.029373083 -0.027361512 0.00617664 0.04523021 0.0042414656 0.035866182 0.009746225 -0.1028191 -0.011190784 -0.009988377 -0.08577484 0.037931766 -0.052504897 0.052079964 0.010140117 -0.014238152 0.03818398 0.04506981 -0.09088547 0.0038042252 0.007136885 -0.04610534 0.027820855 0.025344707 -0.05064469 0.07874599 0.064895876 0.046346005 0.035875484 0.021389065 0.02781985 0.022915253 0.014164995 -0.030241033 0.050400503 -0.056069817 0.0948666 0.014447492 -0.019438522 0.00046167965 0.0002897759 -0.03503059 -0.02600071 0.0028002218 0.018053817 -0.015331306 0.0487602 -0.00328978 0.0021902912 -0.06331155 -0.059381746 -0.0018005325 0.0026576533 0.07404254 -0.056213073 -0.023876987 0.037543055 -0.05995041 0.035536516 -0.010213109 0.05882693 -0.03783113 -0.06519034 0.013678126 0.1558849 0.044346888 0.006233684 -0.043124437 0.02061306 0.08285735 0.040714864 0.13287394 -0.047876928 0.000921237 0.0029936943 0.05502462 0.07095937 0.046346094 -0.01529669 -0.014722928 0.06494483 -0.02883834 0.012071842 0.08472601 0.036111385 0.027214078 -0.07293816 0.0019597346 0.0032484022 -0.06320515 0.0385333 -0.10201653 0.02628018 0.00013117546 0.05621296 0.05454534 0.038710687 -0.013455238 0.01701184 0.09676896 -0.11538534 0.0428645 0.050922755 0.036755733 -0.022776736 -0.08707455 0.047613222 0.008851159 -0.057211615 -0.011020451 0.06741626 0.059458867 0.106066674 -0.0061497353 -0.07182067 0.020779222 0.07188751 -0.039430365 -0.04699797 -0.08919332 -0.11680592 0.041231338 -0.06873201 0.019683206 0.03493888 -0.00042742956 -0.079363964 -0.09237639 -0.022334406 0.033741333 -0.08350875 0.023435574 -0.16207254 -0.025518388 -0.014388969 0.03074929 0.039129075 -0.057316236 -0.011493676 0.015768178 0.09403942 0.03123053 0.04264091 -0.1362029 0.05815862 -0.039714605 0.031443696 0.026397245 -0.02451066 -0.0018212118 0.098125055 -0.05722919 -0.016029488 0.012003959 0.05289674 0.012593634 0.019221414 -0.0073292064 -0.09266964 0.018629003 0.010203256 -0.029894214 0.08056674 -0.042933524 -0.031141622 0.009477002 0.020179257 0.07028236 0.07405792 0.032375373 -0.088363364 0.0076859253 -0.009740913 -0.08584314 -0.011849519 0.045440994 -0.07866834 0.022259705 -0.08869931 0.044271704 -0.045167737 -0.05397354 0.038778286 -0.006095557 -0.033295628 -0.0064831157 -0.011523228 -0.036423646 0.034344148 0.009775246 -0.010666793 -0.012509104 -0.07326112 -0.011874882 -0.04198659 0.04773893 -0.04773767 -0.04715494 -0.16592298 -0.09177036 -0.078299664 0.072869174 -0.0036565762 -0.03666538 -0.029147388 -0.062121145 -0.04782332 -0.015151525 -0.017044442 -0.03232308 0.05359602 0.066483654 -0.033485085 -0.04117497 0.09125051 -0.052530825 0.045417834 -0.043443773 -0.016727887 0.011020782 -0.14017199 0.011768243 -0.004824999 -0.046771687 0.0119043095 0.013938373 -0.06747684 -0.013208346 0.018694619 0.020069305 0.054817706 0.013036196 0.033197977 0.018028768 -0.02310079 -0.08577747 -0.037057124 0.11982653 0.030212125 -0.14023528 -0.09512499 0.00314814 0.058196567 0.021575533 -0.13576637 -0.0774155 0.0026945258 0.041802075 0.06588896 -0.085454434 0.015792962 -0.064287096 0.009146684 -0.007350797 -0.036486417 0.073737554 0.04028932 0.06604064 0.02143496 -0.08647431 -0.037294663 0.036290098 0.0021499924 0.01589892 0.071778186 0.03505803 -0.017705414 -0.12370621 0.04871546 0.002535535 0.091867305 0.0013298527 0.08533898 0.050850492 -0.033860657 0.097309895 0.10102007 0.010975829 -0.03959628 0.048512734 -0.051311355
kriminal 0.023092914 0.07922422 0.019765936 0.036792975 -0.013184986 -0.06775751 0.05316817 0.16677465 -0.0028049513 -0.0015535711 -0.0072037117 -0.058639713 0.0028623005 -0.008306405 -0.060219012 -0.0265628 0.065713115 0.04378689 -0.016167747 -0.02584714 -0.026191857 0.0025962915 0.040870756 -8.8287634e-05 0.031402674 0.0034676283 -0.0885848 -0.013413697 -0.0070309704 -0.07647644 0.030775592 -0.047669675 0.046164945 0.006242876 -0.0113248015 0.027985148 0.03696521 -0.07665329 0.0051354743 0.008592057 -0.037205797 0.024076704 0.020400181 -0.04717249 0.06573475 0.05548895 0.041587897 0.027090456 0.021706311 0.027527716 0.014686198 0.011429806 -0.026265433 0.04822138 -0.049293645 0.081678 0.010233483 -0.01790605 0.0035960271 -9.7184035e-05 -0.027586263 -0.021803262 0.0020754326 0.014213401 -0.011456285 0.038695354 0.0004958879 -0.002644232 -0.0566501 -0.051607635 -0.00017768072 0.0032330318 0.06448525 -0.046214525 -0.02566319 0.029621301 -0.052429117 0.02869667 -0.010506403 0.05618013 -0.034242023 -0.054698978 0.013712154 0.13401334 0.03583548 4.733837e-05 -0.039515384 0.01524847 0.07227683 0.038361628 0.10956347 -0.04209162 0.00054471195 0.0013579658 0.045960337 0.059357 0.042676184 -0.016399885 -0.013642193 0.05662534 -0.028082347 0.00606826 0.071054555 0.03535089 0.026895585 -0.06656005 -0.0008691618 0.006046649 -0.059454028 0.028265683 -0.08534601 0.018699583 0.0023433177 0.050298396 0.049723677 0.03576901 -0.0099459775 0.018644206 0.08405059 -0.094884165 0.033996504 0.04077579 0.028599903 -0.018601373 -0.074937865 0.040893305 0.0077795386 -0.048033156 -0.011746615 0.05724888 0.048112392 0.08976827 -0.009010511 -0.06400119 0.013266446 0.06013 -0.03923401 -0.04513499 -0.076140806 -0.10301088 0.036766563 -0.056371298 0.02193838 0.028850073 -0.0023698714 -0.06569186 -0.079568684 -0.023115164 0.025998741 -0.07293963 0.023460938 -0.13997643 -0.020270703 -0.0143712275 0.026550949 0.030463764 -0.047516212 -0.008100642 0.0136478385 0.08137618 0.026491813 0.03576696 -0.12202373 0.046645228 -0.036357183 0.030636536 0.019360093 -0.021659954 0.0028862627 0.08105018 -0.051970854 -0.017862946 0.009132618 0.04424615 0.014823582 0.014905727 -0.0062237633 -0.0766476 0.015491505 0.003904166 -0.029346881 0.07296837 -0.033633415 -0.026359143 0.006731262 0.021003133 0.058899622 0.062117383 0.030848574 -0.08137228 0.0063954745 -0.012085257 -0.07608393 -0.004849928 0.04083389 -0.06458259 0.018174706 -0.07978448 0.036664512 -0.038486626 -0.05031286 0.03324796 -0.003057136 -0.024760485 -0.008682577 -0.008359652 -0.03459845 0.028322602 0.009978993 -0.01126019 -0.0074663144 -0.06388388 -0.008571809 -0.035625126 0.041191366 -0.040684503 -0.03831944 -0.14452416 -0.07971589 -0.06366419 0.058620144 -0.008040701 -0.032710467 -0.02316634 -0.051757734 -0.03744755 -0.016436765 -0.011797585 -0.032140587 0.04426242 0.052596908 -0.030175531 -0.0379821 0.07882431 -0.044064425 0.041524727 -0.037656676 -0.020407332 0.008140666 -0.121047094 0.004396944 -0.0038322797 -0.039524212 0.0070347576 0.010098013 -0.061348185 -0.0124799535 0.019022776 0.020742176 0.048266694 0.011976725 0.027496202 0.012058982 -0.018948471 -0.073457316 -0.032213997 0.10461443 0.023970371 -0.122583956 -0.08253243 0.004052977 0.047773145 0.021864252 -0.111721575 -0.06967269 0.003661413 0.03585461 0.057449307 -0.06988101 0.018837947 -0.04948555 0.006544138 -0.007117563 -0.03038382 0.06640746 0.037789233 0.053101223 0.016975202 -0.07028613 -0.031792518 0.030049726 0.0054544094 0.016776677 0.059973653 0.027207648 -0.017408803 -0.107302606 0.044151016 0.004189413 0.0814121 0.0052380115 0.07604224 0.04446779 -0.028804734 0.08197704 0.089377485 0.008480818 -0.03371997 0.039246913 -0.04548312
menetapkan 0.020110542 0.08113096 0.021411695 0.040431336 -0.013019734 -0.06986934 0.05212598 0.1739181 -0.0033493321 -0.0016949016 -0.009262183 -0.059897155 0.006243078 -0.010571196 -0.061684765 -0.02468689 0.07032949 0.04238608 -0.017769717 -0.026783995 -0.02833019 0.0034285 0.040194172 0.0006832506 0.03266641 0.007945001 -0.09631886 -0.010533814 -0.0047840504 -0.07931423 0.031028472 -0.043494076 0.041968483 0.0042224275 -0.010381481 0.035092745 0.03868081 -0.08335505 0.003543799 0.0046272445 -0.039839145 0.030204998 0.019440878 -0.050497305 0.07156396 0.055194173 0.041085023 0.029543934 0.018228147 0.024478521 0.015841823 0.010431831 -0.025258014 0.049517695 -0.04991839 0.083128795 0.0074210106 -0.0142795425 -0.0015095889 0.0035749462 -0.029825365 -0.024204155 0.007062905 0.0134692695 -0.013932439 0.040726453 0.00015685888 0.0010331189 -0.055651914 -0.053191528 -0.00016575493 0.008697721 0.06361081 -0.05030453 -0.026403747 0.034954797 -0.052484773 0.028316861 -0.006893027 0.051635336 -0.036499877 -0.056233823 0.013260711 0.13864164 0.037645813 0.0012082058 -0.03675645 0.018232815 0.072400175 0.040966053 0.1129468 -0.042423163 0.007333855 0.0016786478 0.05144084 0.05915441 0.04484566 -0.015660932 -0.008076564 0.056749675 -0.02602422 0.0076698605 0.07343468 0.03301201 0.028132372 -0.06684023 0.0011714327 0.0013434538 -0.061190154 0.03427568 -0.08587701 0.02150352 0.0008333913 0.05008795 0.048499472 0.03948791 -0.010237849 0.016818844 0.08710136 -0.10125145 0.032062907 0.044839382 0.029908264 -0.020440333 -0.0822878 0.044856124 0.012643032 -0.048648585 -0.008758866 0.056280963 0.055415202 0.08989185 -0.0060508363 -0.06507253 0.01936161 0.06421634 -0.03559893 -0.04453009 -0.07699602 -0.108021274 0.042619422 -0.061614122 0.018278554 0.03206306 -0.0013934306 -0.06576703 -0.08645739 -0.019114211 0.029328791 -0.0797856 0.023342256 -0.14344703 -0.02162732 -0.009427279 0.026841618 0.035834175 -0.04820127 -0.006377447 0.010689463 0.079412885 0.02288211 0.039799485 -0.12541777 0.052374754 -0.035715524 0.03068702 0.023486132 -0.02436085 0.0021666123 0.086419374 -0.05420613 -0.018313074 0.010694017 0.04969597 0.013374142 0.014844679 -0.0056857187 -0.07800232 0.018307375 0.007846593 -0.030049497 0.07276889 -0.036634866 -0.028568903 0.004392343 0.020544974 0.060993258 0.06651623 0.030741498 -0.07862128 0.0022176392 -0.0057481267 -0.07921212 -0.0072981883 0.04186632 -0.07042543 0.016145177 -0.08248238 0.04086454 -0.03657861 -0.049999733 0.035192646 -0.002678695 -0.030708093 -0.005962769 -0.007521983 -0.03260051 0.027973238 0.005828109 -0.0061491933 -0.0091238795 -0.0658412 -0.008669816 -0.0407383 0.04697393 -0.044061564 -0.03922024 -0.14658871 -0.08269907 -0.06833652 0.06620222 -0.005667585 -0.036986686 -0.026504759 -0.057155043 -0.04303689 -0.01248754 -0.014225763 -0.03361719 0.048250895 0.05893607 -0.034419727 -0.039279114 0.078237124 -0.04836278 0.04261284 -0.038653594 -0.017082198 0.009925356 -0.1237427 0.0071440227 -0.007437209 -0.041657653 0.009979917 0.012386508 -0.060895886 -0.009215139 0.020451065 0.01634145 0.050234854 0.016514277 0.024154698 0.01584648 -0.020542964 -0.074542604 -0.029458309 0.10504092 0.024584856 -0.12628879 -0.08724217 -0.0009465071 0.051756635 0.02161837 -0.12098795 -0.06688154 0.007606995 0.037580058 0.06081576 -0.076490544 0.015510374 -0.053540144 0.008208124 -0.005927875 -0.03584857 0.0670139 0.039149337 0.054595295 0.02227626 -0.07314984 -0.034374245 0.030795189 -4.497772e-05 0.0124643715 0.06637102 0.028117541 -0.011518392 -0.116021276 0.042231504 0.0070911148 0.08632116 0.003997359 0.07799798 0.04592176 -0.032921378 0.08714124 0.08717438 0.007258998 -0.037322078 0.045993272 -0.049297422
kasusnarkoba 0.020156927 0.06414148 0.018612752 0.031733368 -0.013391176 -0.058165003 0.045397494 0.14111611 -0.002042778 0.0024361745 -0.010492286 -0.04516442 0.0030039344 -0.008861703 -0.051291287 -0.017111134 0.05539163 0.035568397 -0.018855173 -0.021459898 -0.021389836 0.005285432 0.03156914 0.0017022851 0.028611155 0.0070214765 -0.07850623 -0.006173608 -0.0062135225 -0.06308549 0.022328362 -0.035809062 0.034196265 0.004603585 -0.00994424 0.025142645 0.033473417 -0.06545587 0.004533205 0.0053327307 -0.0342121 0.019839417 0.020349225 -0.037678484 0.058813013 0.047286298 0.033220645 0.027233198 0.014935601 0.022371957 0.012722159 0.008486922 -0.01939964 0.037623998 -0.044250958 0.06755353 0.008665702 -0.01053858 -0.0021421858 0.0016539855 -0.026534772 -0.022196945 0.002146796 0.012591494 -0.0070848837 0.035791047 0.0009291296 0.0016525453 -0.047206074 -0.045045048 0.003934668 0.0067843846 0.055515263 -0.03774319 -0.018797332 0.027109405 -0.044657294 0.026604425 -0.0043122903 0.042117525 -0.028433833 -0.04399019 0.013945731 0.11299433 0.032812938 0.0011310689 -0.02801351 0.014921435 0.058106832 0.031554624 0.097560115 -0.031945363 0.00045398684 -0.0015719791 0.03995316 0.050225493 0.035546698 -0.016209502 -0.008494448 0.049479075 -0.023256581 0.009943392 0.06327267 0.030683791 0.025593305 -0.052864738 -0.0017564525 0.0045989724 -0.04998221 0.028346345 -0.07286115 0.022192566 -0.0012815894 0.0405726 0.04244226 0.028552191 -0.009508551 0.01624225 0.07477979 -0.082811505 0.026415763 0.038033236 0.02327608 -0.015254255 -0.06352239 0.031507745 0.006885428 -0.042430572 -0.008244888 0.04829201 0.03944379 0.07359774 -0.003413429 -0.053150218 0.014030426 0.05114878 -0.03204788 -0.03842967 -0.059788156 -0.08647627 0.035177834 -0.048797447 0.018011294 0.026678266 -0.00017455852 -0.054407153 -0.07070368 -0.015042403 0.02301293 -0.064374775 0.020110216 -0.11246365 -0.021356568 -0.009126732 0.025737496 0.026769815 -0.04046491 -0.0032975753 0.013761379 0.06419748 0.019850772 0.033833604 -0.101373926 0.038318172 -0.0302181 0.020454073 0.018712375 -0.019173967 1.8525889e-05 0.06835046 -0.038936466 -0.011355962 0.009621137 0.039992794 0.013621383 0.013339677 -0.002531948 -0.066211075 0.010568034 0.0021777516 -0.024317821 0.06330192 -0.028277269 -0.024679443 0.0066681774 0.016093606 0.047733024 0.055795643 0.026488982 -0.06633422 0.0044324757 -0.007258956 -0.06750128 -0.005014838 0.038135335 -0.05478772 0.014215299 -0.06677172 0.03188379 -0.03428404 -0.03883226 0.029214188 -0.0041146977 -0.023359908 -0.0049447524 -0.0057853367 -0.026910808 0.026415277 0.0086586615 -0.005963628 -0.008162312 -0.05354626 -0.010727542 -0.03245697 0.038228188 -0.03122443 -0.0313604 -0.12085234 -0.065066285 -0.056200705 0.051897198 -0.0017337363 -0.024361884 -0.021874435 -0.046031725 -0.033161964 -0.008223144 -0.009262153 -0.026614558 0.041655257 0.04997039 -0.029317979 -0.027633607 0.06438147 -0.03857264 0.035550155 -0.03033817 -0.017450592 0.009672439 -0.102828674 0.0031487748 -0.0021773751 -0.035441138 0.007583453 0.011889346 -0.046438057 -0.0077343024 0.012892716 0.016345188 0.035871148 0.011014966 0.025836231 0.008840502 -0.012754894 -0.06211125 -0.028194062 0.09023728 0.023727853 -0.09827373 -0.06774325 0.0012775077 0.040721223 0.014369329 -0.09406586 -0.058311436 0.005556598 0.026606277 0.047780715 -0.05840772 0.012650562 -0.046881013 0.0040885606 -0.00916098 -0.023576843 0.051596176 0.028763961 0.04391831 0.014330489 -0.06248706 -0.026005525 0.027678037 0.0034920424 0.015994838 0.053213686 0.027448874 -0.009826238 -0.09099154 0.036739465 0.0012392822 0.06786964 0.0037019518 0.058965407 0.03710477 -0.02804704 0.072008796 0.07340424 0.007050933 -0.030280668 0.037936937 -0.041588396
komplotan 0.018677738 0.07494771 0.02046086 0.037649006 -0.010529075 -0.062413435 0.053514637 0.16170841 0.0009816982 -0.0015805856 -0.008143499 -0.051898025 0.002252971 -0.0068518864 -0.058353625 -0.02371901 0.06607934 0.042179562 -0.017085303 -0.023875212 -0.021598322 0.0017146732 0.03636855 0.0024768987 0.035196714 0.004140159 -0.084629014 -0.010619476 -0.008001156 -0.07451072 0.025956457 -0.04047266 0.040941242 0.005003569 -0.010247262 0.030950299 0.041506864 -0.07765688 0.0033731149 0.006767825 -0.03846333 0.024928857 0.022562968 -0.04473449 0.06626813 0.051364455 0.038840037 0.030679299 0.022220321 0.02419357 0.015731074 0.0119306315 -0.02478462 0.04500798 -0.04835969 0.075206965 0.012338418 -0.015720526 0.0012120191 -0.0018671335 -0.02780214 -0.020324444 0.006180131 0.010498547 -0.014068764 0.040213168 -0.0015769562 -0.00054121093 -0.05443124 -0.05066423 -0.0023866475 0.0053011677 0.05920435 -0.045253847 -0.020881576 0.030246949 -0.049832866 0.02738231 -0.010853559 0.049295213 -0.03201957 -0.049719207 0.011876752 0.12590353 0.037552733 0.006224322 -0.033422697 0.011781317 0.067934416 0.0388076 0.10817852 -0.037135083 0.003051654 0.0007484332 0.04863743 0.058531668 0.03869293 -0.018275902 -0.007736331 0.050334338 -0.027019566 0.009429459 0.069868766 0.029742235 0.025451703 -0.06410677 -0.0002876306 0.0023652064 -0.055542115 0.030425193 -0.0805131 0.022488156 0.0026952017 0.04415521 0.048296906 0.032480318 -0.010597581 0.01842392 0.081551775 -0.09154375 0.03304956 0.040030807 0.032744106 -0.014818238 -0.07402487 0.037220903 0.011549747 -0.04772583 -0.0065580728 0.05329938 0.050139204 0.08500717 -0.0078489985 -0.058436524 0.0131040225 0.059474193 -0.03274652 -0.039562237 -0.072255075 -0.10010029 0.03913837 -0.053210612 0.017492697 0.024648542 -0.0019470202 -0.06300152 -0.080457635 -0.020187648 0.027281739 -0.0745358 0.020169822 -0.13304392 -0.023095323 -0.01133235 0.024171483 0.029699344 -0.04814387 -0.010093728 0.012677741 0.07629079 0.027158542 0.03819194 -0.11676828 0.043620147 -0.031934872 0.027744006 0.023421682 -0.02339364 -0.0003295028 0.076939836 -0.05031645 -0.012921862 0.009302128 0.047148865 0.010647737 0.02030411 -0.0067946496 -0.07146816 0.013123768 0.0034300338 -0.02355933 0.065350585 -0.03589083 -0.022654051 0.003595308 0.021167178 0.056997146 0.057506923 0.028630642 -0.07466638 0.0072037014 -0.0071036243 -0.0740211 -0.007642064 0.04229561 -0.0663078 0.018493492 -0.07468598 0.033365957 -0.037038896 -0.044334754 0.028657533 -0.0039014714 -0.02831933 -0.0034029603 -0.008982741 -0.033608537 0.02779253 0.011672774 -0.006670018 -0.008534478 -0.056925762 -0.011216209 -0.036871627 0.039332766 -0.037912857 -0.037792414 -0.13774292 -0.07718731 -0.06016566 0.059799153 -0.0026968087 -0.030083215 -0.02259422 -0.04838819 -0.03710196 -0.015038474 -0.0136986375 -0.029464798 0.045982745 0.050081506 -0.02983312 -0.03380552 0.07110571 -0.04458349 0.040397726 -0.038287815 -0.016558653 0.006497373 -0.11093054 0.007005842 -0.0041839485 -0.038638055 0.007448192 0.012552108 -0.05956018 -0.010126074 0.01578201 0.020621255 0.045556433 0.010817527 0.024551025 0.010184236 -0.013446486 -0.06547342 -0.02771358 0.10190627 0.023485858 -0.11358801 -0.079113595 -0.0020379054 0.04344642 0.018353362 -0.1107817 -0.06598396 0.0050031645 0.03203884 0.050453894 -0.06551196 0.015537852 -0.053148672 0.0062264916 -0.009331298 -0.028307877 0.059877988 0.035591032 0.055169154 0.01639983 -0.07159592 -0.032832276 0.03168836 0.0022624894 0.013858694 0.05957621 0.024131656 -0.012367298 -0.107365 0.044676706 0.0019862414 0.07979815 0.0018909508 0.06895335 0.03957105 -0.028052203 0.07849372 0.0832007 0.007655423 -0.029676136 0.038125843 -0.046886817
pencurian 0.020425051 0.08065471 0.02250005 0.03896276 -0.011603136 -0.07163593 0.056428254 0.17503455 0.0013061813 -0.000113154885 -0.009561412 -0.057729114 0.0069945846 -0.00904202 -0.060979776 -0.025559979 0.066827364 0.045801856 -0.018949434 -0.025859606 -0.024091778 0.0017757628 0.039442427 -0.0012241853 0.036797926 0.007911061 -0.09379175 -0.007871892 -0.0054707783 -0.08261898 0.028530201 -0.047335643 0.042209797 0.009660432 -0.010078 0.032571204 0.04065151 -0.082977675 0.006013426 0.005984522 -0.04117491 0.025101101 0.02053591 -0.05120798 0.06928215 0.052801408 0.04453306 0.027824875 0.01925745 0.026396265 0.014490702 0.012586736 -0.026854469 0.046829026 -0.049494594 0.08443991 0.010937156 -0.012696849 0.0007026857 0.0026340769 -0.028799117 -0.026516508 0.0053302892 0.011433951 -0.013124649 0.043604784 -0.0038983095 -0.0027340748 -0.05492752 -0.051760737 0.0034022375 0.0034446237 0.068263866 -0.04693818 -0.026344178 0.03153424 -0.05167085 0.025455467 -0.009908564 0.05836051 -0.036154605 -0.059612684 0.013755091 0.13208908 0.03774365 0.0052421563 -0.037994828 0.014495594 0.075134926 0.035366107 0.11284285 -0.04475866 0.0068598446 -0.0010307188 0.048844494 0.05762975 0.04610031 -0.017610254 -0.012810365 0.058003835 -0.031214505 0.012392496 0.07815214 0.031954523 0.026078256 -0.065196946 -0.004061959 0.0056181382 -0.05671133 0.03340779 -0.09052668 0.022451516 0.00025747516 0.053264294 0.051403813 0.036181748 -0.013321743 0.019187104 0.088049315 -0.09932807 0.0328969 0.042108666 0.03226784 -0.016602475 -0.082245395 0.040227022 0.010640048 -0.0493155 -0.008117378 0.056532215 0.051023643 0.08750315 -0.010738377 -0.063070394 0.015975773 0.05751341 -0.035062846 -0.042088397 -0.07435855 -0.10541949 0.03908611 -0.05586645 0.018092178 0.027739588 -0.0034496323 -0.06668773 -0.08682388 -0.021195168 0.0311581 -0.07628694 0.018794749 -0.13872485 -0.02193846 -0.014313525 0.03197537 0.03640132 -0.04763589 -0.010272507 0.015363036 0.079655826 0.022896463 0.039064452 -0.12524149 0.050235625 -0.039352078 0.025432419 0.022084486 -0.02339914 0.0021348402 0.08788629 -0.04965011 -0.019747108 0.008157597 0.047264554 0.012671377 0.015831267 -0.0019380718 -0.078861095 0.013399008 0.0084134815 -0.029036742 0.07148313 -0.035659913 -0.024250673 0.005568523 0.019209972 0.059306107 0.066646345 0.031357076 -0.083759725 0.0013798128 -0.009176082 -0.07670623 -0.0063794986 0.044243976 -0.068734065 0.016346991 -0.07823177 0.037728626 -0.03590313 -0.048732672 0.037405353 -0.0067877127 -0.027348042 -0.0062145414 -0.010210655 -0.03053606 0.030434627 0.0110572055 -0.008610436 -0.005492995 -0.061493874 -0.009607706 -0.036736302 0.046360612 -0.038994588 -0.037865654 -0.14514762 -0.08253866 -0.06893893 0.06041372 -0.0069694584 -0.03454754 -0.025707714 -0.05361354 -0.04128079 -0.01245268 -0.017333243 -0.029066589 0.04994928 0.05895161 -0.031351283 -0.038343117 0.079201385 -0.04773047 0.039802503 -0.03994553 -0.017949153 0.010579871 -0.124846816 0.009196416 -0.006334203 -0.03960378 0.007018093 0.0097954795 -0.060159057 -0.01222421 0.01840997 0.017759489 0.050073996 0.010274884 0.028971765 0.011983245 -0.014526307 -0.07288817 -0.029980851 0.10537297 0.026485179 -0.12550682 -0.08388058 0.0039278474 0.045366447 0.021389645 -0.11601832 -0.06731312 0.0037368217 0.036187146 0.054526296 -0.07351938 0.019356035 -0.05237797 0.0058848355 -0.008468412 -0.03587276 0.06539308 0.037404906 0.054937664 0.021200221 -0.075543955 -0.031147603 0.033228334 0.00354251 0.014496074 0.060892586 0.02704501 -0.014404235 -0.11627996 0.047591023 0.0062745875 0.08288731 0.0056466623 0.074208975 0.044230208 -0.030357968 0.08646847 0.089857526 0.006957702 -0.036438257 0.041066993 -0.045680277
berkatakasar 0.021781662 0.07083402 0.022518296 0.032472648 -0.008427447 -0.0629435 0.048771296 0.15008019 0.0014904737 -0.0017706677 -0.007958054 -0.053754237 0.0035075338 -0.0044687553 -0.05697112 -0.017894628 0.056536943 0.04209196 -0.020217173 -0.022953527 -0.02502107 0.0046103853 0.035158016 0.0022137794 0.026944293 0.008982773 -0.08005478 -0.010930187 -0.0064187613 -0.06632402 0.028169066 -0.043131363 0.04062765 0.0043216012 -0.009358448 0.030495694 0.03541066 -0.07010157 0.005455436 0.0049596634 -0.033950504 0.02503435 0.015362286 -0.043096486 0.062210124 0.048851144 0.03996141 0.026111178 0.021337848 0.019963548 0.016578935 0.006239141 -0.021102693 0.0437118 -0.046480197 0.07525772 0.0063274247 -0.013655067 0.0020839178 -0.0012128 -0.024659079 -0.023414358 0.0039143856 0.015741635 -0.008420167 0.03573654 0.00076576363 -0.0040817307 -0.050081387 -0.04647582 1.0131682e-05 0.006698832 0.059888214 -0.044420626 -0.02214501 0.030967997 -0.047033396 0.022194782 -0.0080557 0.045379046 -0.030661026 -0.049048927 0.010874269 0.11787253 0.030770475 0.0015324737 -0.03267466 0.014881104 0.061753105 0.036472924 0.10038274 -0.033514112 0.004498813 0.0012019395 0.047672465 0.051046394 0.037860956 -0.015778948 -0.007893923 0.0471064 -0.025967866 0.010671132 0.0652098 0.030431846 0.023779202 -0.056812644 -0.0007219274 0.00095852395 -0.047797818 0.029916264 -0.07955325 0.01736669 0.0029697367 0.044716254 0.04113219 0.034491 -0.012262093 0.014154255 0.07924549 -0.08793808 0.028671514 0.03998114 0.030981092 -0.018262662 -0.072139025 0.035880037 0.012389116 -0.043126177 -0.007189358 0.048785586 0.04664853 0.07867581 -0.0045214063 -0.05217997 0.011162803 0.05488754 -0.034976378 -0.041944627 -0.064738184 -0.09064265 0.036209267 -0.054542463 0.020471785 0.023352835 -0.0027761194 -0.0593688 -0.074485496 -0.018372437 0.023384005 -0.0692594 0.021257635 -0.124189205 -0.018404864 -0.011025717 0.025738921 0.030548496 -0.04080445 -0.008068191 0.008053835 0.07026652 0.024922198 0.035222597 -0.10992563 0.04555845 -0.02939796 0.02209158 0.019844059 -0.020499293 -0.00055059773 0.07234887 -0.042934407 -0.015785594 0.008096906 0.042525623 0.014985709 0.018479312 -0.0067218207 -0.071216285 0.017074902 0.005975554 -0.026347835 0.061832342 -0.03300362 -0.021170981 0.007370932 0.016006703 0.054750618 0.055897336 0.02600733 -0.07238525 0.004860895 -0.007480191 -0.06713839 -0.007756862 0.036688514 -0.06022685 0.013200812 -0.06990238 0.03569655 -0.032563966 -0.040770043 0.031393632 -0.003982242 -0.024923962 -0.0034225492 -0.0053590382 -0.031680815 0.027580509 0.0065039587 -0.0074594435 -0.010577256 -0.058000643 -0.008987501 -0.03167967 0.039062783 -0.036934573 -0.03559303 -0.12547791 -0.06802184 -0.056202423 0.055250973 -0.008459572 -0.026786223 -0.023878356 -0.04626293 -0.034972627 -0.00925359 -0.013811145 -0.029188866 0.04147381 0.0505812 -0.027869372 -0.033688147 0.07180145 -0.03861056 0.034487702 -0.03252534 -0.018038847 0.0066872677 -0.105406865 0.0043988745 -0.0022098501 -0.038368355 0.003759708 0.0068106484 -0.052456297 -0.008246602 0.018939126 0.017295657 0.04296227 0.011595208 0.021359213 0.014682975 -0.01772941 -0.06249905 -0.027353669 0.0923327 0.022975676 -0.105377845 -0.075131506 0.0017740569 0.04243366 0.01829121 -0.10494244 -0.06341498 0.0014826035 0.028710023 0.050183628 -0.066376336 0.017261345 -0.04623478 0.0041464586 -0.008091117 -0.030995332 0.05396056 0.030897312 0.049775593 0.019700943 -0.06324163 -0.029433228 0.030134844 0.000646572 0.010045284 0.056621324 0.02330528 -0.014129924 -0.09790028 0.036411677 0.003915205 0.073649086 0.0027491671 0.06535223 0.037729412 -0.023744885 0.074135244 0.07722128 0.0055254274 -0.03273087 0.037509445 -0.042724036
